{"learner":{"attributes":{"scikit_learn":"{\"_estimator_type\": \"classifier\"}"},"feature_names":[],"feature_types":[],"gradient_booster":{"model":{"cats":{"enc":[],"feature_segments":[],"sorted_idx":[]},"gbtree_model_param":{"num_parallel_tree":"1","num_trees":"300"},"iteration_indptr":[0,1,2,3,4,5,6,7,8,9,10,11,12,13,14,15,16,17,18,19,20,21,22,23,24,25,26,27,28,29,30,31,32,33,34,35,36,37,38,39,40,41,42,43,44,45,46,47,48,49,50,51,52,53,54,55,56,57,58,59,60,61,62,63,64,65,66,67,68,69,70,71,72,73,74,75,76,77,78,79,80,81,82,83,84,85,86,87,88,89,90,91,92,93,94,95,96,97,98,99,100,101,102,103,104,105,106,107,108,109,110,111,112,113,114,115,116,117,118,119,120,121,122,123,124,125,126,127,128,129,130,131,132,133,134,135,136,137,138,139,140,141,142,143,144,145,146,147,148,149,150,151,152,153,154,155,156,157,158,159,160,161,162,163,164,165,166,167,168,169,170,171,172,173,174,175,176,177,178,179,180,181,182,183,184,185,186,187,188,189,190,191,192,193,194,195,196,197,198,199,200,201,202,203,204,205,206,207,208,209,210,211,212,213,214,215,216,217,218,219,220,221,222,223,224,225,226,227,228,229,230,231,232,233,234,235,236,237,238,239,240,241,242,243,244,245,246,247,248,249,250,251,252,253,254,255,256,257,258,259,260,261,262,263,264,265,266,267,268,269,270,271,272,273,274,275,276,277,278,279,280,281,282,283,284,285,286,287,288,289,290,291,292,293,294,295,296,297,298,299,300],"tree_info":[0,0,0,0,0,0,0,0,0,0,0,0,0,0,0,0,0,0,0,0,0,0,0,0,0,0,0,0,0,0,0,0,0,0,0,0,0,0,0,0,0,0,0,0,0,0,0,0,0,0,0,0,0,0,0,0,0,0,0,0,0,0,0,0,0,0,0,0,0,0,0,0,0,0,0,0,0,0,0,0,0,0,0,0,0,0,0,0,0,0,0,0,0,0,0,0,0,0,0,0,0,0,0,0,0,0,0,0,0,0,0,0,0,0,0,0,0,0,0,0,0,0,0,0,0,0,0,0,0,0,0,0,0,0,0,0,0,0,0,0,0,0,0,0,0,0,0,0,0,0,0,0,0,0,0,0,0,0,0,0,0,0,0,0,0,0,0,0,0,0,0,0,0,0,0,0,0,0,0,0,0,0,0,0,0,0,0,0,0,0,0,0,0,0,0,0,0,0,0,0,0,0,0,0,0,0,0,0,0,0,0,0,0,0,0,0,0,0,0,0,0,0,0,0,0,0,0,0,0,0,0,0,0,0,0,0,0,0,0,0,0,0,0,0,0,0,0,0,0,0,0,0,0,0,0,0,0,0,0,0,0,0,0,0,0,0,0,0,0,0,0,0,0,0,0,0,0,0,0,0,0,0,0,0,0,0,0,0,0,0,0,0,0,0,0,0,0,0,0,0],"trees":[{"base_weights":[1.0671113E-2,3.3534932E-1,-2.0470914E-1,-5.1764708E-2,3.5898522E-1,-7.3968256E-1,-1.457944E-2,5.818182E-2,1.4295533E-2,-4.2305477E-2,1.9428572E-2,3.0000001E-2,-6.365639E-3],"categories":[],"categories_nodes":[],"categories_segments":[],"categories_sizes":[],"default_left":[0,0,0,0,0,0,0,0,0,0,0,0,0],"id":0,"left_children":[1,3,5,-1,7,9,11,-1,-1,-1,-1,-1,-1],"loss_changes":[4.2021797E1,8.071049E0,3.663266E1,0E0,1.3428438E1,1.1721775E1,1.8562479E1,0E0,0E0,0E0,0E0,0E0,0E0],"parents":[2147483647,0,0,1,1,2,2,4,4,5,5,6,6],"right_children":[2,4,6,-1,8,10,12,-1,-1,-1,-1,-1,-1],"split_conditions":[-4.268659E-1,-1.1674007E0,-6.3768804E-1,-5.1764708E-2,-1.8325424E0,1.6644168E0,-2.4057311E-1,5.818182E-2,1.4295533E-2,-4.2305477E-2,1.9428572E-2,3.0000001E-2,-6.365639E-3],"split_indices":[13,9,6,0,4,10,10,0,0,0,0,0,0],"split_type":[0,0,0,0,0,0,0,0,0,0,0,0,0],"sum_hessian":[5.9875E2,2.3875E2,3.6E2,3.25E0,2.355E2,9.35E1,2.665E2,1.825E1,2.1725E2,8.575E1,7.75E0,4.05E1,2.26E2],"tree_param":{"num_deleted":"0","num_feature":"18","num_nodes":"13","size_leaf_vector":"1"}},{"base_weights":[-6.427529E-2,4.044373E-1,-1.6477865E-1,4.3484697E-1,-4.447591E-2,1.02467075E-1,-4.7004497E-1,2.3906102E-2,-5.314837E-2,3.8997747E-3,6.8495244E-2,2.9833028E-2,-2.4918454E-2],"categories":[],"categories_nodes":[],"categories_segments":[],"categories_sizes":[],"default_left":[0,0,0,0,0,0,0,0,0,0,0,0,0],"id":1,"left_children":[1,3,5,7,-1,9,11,-1,-1,-1,-1,-1,-1],"loss_changes":[2.902158E1,4.6197605E0,4.1482323E1,7.3840675E0,0E0,8.160428E0,7.454876E0,0E0,0E0,0E0,0E0,0E0,0E0],"parents":[2147483647,0,0,1,1,2,2,3,3,5,5,6,6],"right_children":[2,4,6,8,-1,10,12,-1,-1,-1,-1,-1,-1],"split_conditions":[-4.4999775E-1,3.439265E0,4.795128E-2,1.7935399E0,-4.447591E-2,1.8376452E0,-8.715081E-2,2.3906102E-2,-5.314837E-2,3.8997747E-3,6.8495244E-2,2.9833028E-2,-2.4918454E-2],"split_indices":[12,9,10,16,0,16,5,0,0,0,0,0,0],"split_type":[0,0,0,0,0,0,0,0,0,0,0,0,0],"sum_hessian":[6.1416943E2,1.0773092E2,5.0643854E2,1.0598144E2,1.74948E0,2.7021515E2,2.3622337E2,1.0373195E2,2.2494876E0,2.662155E2,3.9996295E0,5.4998317E0,2.3072354E2],"tree_param":{"num_deleted":"0","num_feature":"18","num_nodes":"13","size_leaf_vector":"1"}},{"base_weights":[9.809389E-3,3.0151063E-1,-2.859951E-1,1.1967192E0,2.5391117E-1,7.160734E-1,-3.58634E-1,6.7286275E-2,-1.0032802E-2,-4.7403704E-2,1.3505566E-2,7.003292E-2,1.1410567E-2,-3.0022582E-2,-4.041837E-3],"categories":[],"categories_nodes":[],"categories_segments":[],"categories_sizes":[],"default_left":[0,0,0,0,0,0,0,0,0,0,0,0,0,0,0],"id":2,"left_children":[1,3,5,7,9,11,13,-1,-1,-1,-1,-1,-1,-1,-1],"loss_changes":[5.210218E1,1.2512079E1,2.2031815E1,3.5038643E0,5.838892E0,6.3618994E0,1.8702744E1,0E0,0E0,0E0,0E0,0E0,0E0,0E0,0E0],"parents":[2147483647,0,0,1,1,2,2,3,3,4,4,5,5,6,6],"right_children":[2,4,6,8,10,12,14,-1,-1,-1,-1,-1,-1,-1,-1],"split_conditions":[-3.6210697E-2,-2.0543334E0,-3.4919E-1,2.8330457E0,-1.1674007E0,-3.429377E-1,-1.1562276E-1,6.7286275E-2,-1.0032802E-2,-4.7403704E-2,1.3505566E-2,7.003292E-2,1.1410567E-2,-3.0022582E-2,-4.041837E-3],"split_indices":[4,4,10,9,9,7,7,0,0,0,0,0,0,0,0],"split_type":[0,0,0,0,0,0,0,0,0,0,0,0,0,0,0],"sum_hessian":[6.0181006E2,3.031671E2,2.9864294E2,1.3981082E1,2.8918604E2,1.9493357E1,2.791496E2,1.2731958E1,1.2491235E0,2.9987097E0,2.8618732E2,7.24747E0,1.2245887E1,1.4842595E2,1.3072365E2],"tree_param":{"num_deleted":"0","num_feature":"18","num_nodes":"15","size_leaf_vector":"1"}},{"base_weights":[8.438904E-3,2.2279587E-1,-2.7852303E-1,9.132106E-1,1.7056026E-1,1.711109E-1,-5.119594E-1,6.8786256E-2,2.3847474E-2,-4.584824E-3,1.6701585E-2,6.2673785E-2,3.8135909E-3,-2.1390125E-2,-6.197099E-2],"categories":[],"categories_nodes":[],"categories_segments":[],"categories_sizes":[],"default_left":[0,0,0,0,0,0,0,0,0,0,0,0,0,0,0],"id":3,"left_children":[1,3,5,7,9,11,13,-1,-1,-1,-1,-1,-1,-1,-1],"loss_changes":[3.710731E1,1.2197445E1,2.7179953E1,3.989069E0,1.3885146E1,8.876828E0,9.716145E0,0E0,0E0,0E0,0E0,0E0,0E0,0E0,0E0],"parents":[2147483647,0,0,1,1,2,2,3,3,4,4,5,5,6,6],"right_children":[2,4,6,8,10,12,14,-1,-1,-1,-1,-1,-1,-1,-1],"split_conditions":[2.8996497E-2,-1.5295783E0,5.8724426E-2,1.2003804E0,-5.068739E-1,-1.157207E0,1.8857526E0,6.8786256E-2,2.3847474E-2,-4.584824E-3,1.6701585E-2,6.2673785E-2,3.8135909E-3,-2.1390125E-2,-6.197099E-2],"split_indices":[11,4,4,17,17,17,0,0,0,0,0,0,0,0,0],"split_type":[0,0,0,0,0,0,0,0,0,0,0,0,0,0,0],"sum_hessian":[6.013322E2,3.4453842E2,2.567938E2,2.2939735E1,3.215987E2,8.770302E1,1.6909077E2,9.978298E0,1.2961437E1,1.2342142E2,1.9817728E2,5.9964447E0,8.170657E1,1.5310431E2,1.5986459E1],"tree_param":{"num_deleted":"0","num_feature":"18","num_nodes":"15","size_leaf_vector":"1"}},{"base_weights":[2.8424428E-3,3.491511E-1,-1.9668838E-1,1.6899163E-1,5.4972976E-1,-1.194094E0,-1.6197073E-1,-6.267723E-4,2.6517613E-2,4.0114388E-2,1.0628778E-2,-8.329179E-2,-1.0307186E-2,3.70541E-2,-1.1133305E-2],"categories":[],"categories_nodes":[],"categories_segments":[],"categories_sizes":[],"default_left":[0,0,0,0,0,0,0,0,0,0,0,0,0,0,0],"id":4,"left_children":[1,3,5,7,9,11,13,-1,-1,-1,-1,-1,-1,-1,-1],"loss_changes":[4.123698E1,7.721985E0,1.2771052E1,7.712557E0,8.461622E0,5.2818565E0,2.0220165E1,0E0,0E0,0E0,0E0,0E0,0E0,0E0,0E0],"parents":[2147483647,0,0,1,1,2,2,3,3,4,4,5,5,6,6],"right_children":[2,4,6,8,10,12,14,-1,-1,-1,-1,-1,-1,-1,-1],"split_conditions":[-5.192407E-1,-1.9286746E-1,-1.2437487E0,1.4094113E-2,-3.3499184E-3,-7.494443E-1,-1.1223681E0,-6.267723E-4,2.6517613E-2,4.0114388E-2,1.0628778E-2,-8.329179E-2,-1.0307186E-2,3.70541E-2,-1.1133305E-2],"split_indices":[13,17,17,11,11,9,11,0,0,0,0,0,0,0,0],"split_type":[0,0,0,0,0,0,0,0,0,0,0,0,0,0,0],"sum_hessian":[5.9456445E2,2.1725124E2,3.7731317E2,1.1568458E2,1.01566666E2,1.1471547E1,3.6584164E2,7.74611E1,3.822348E1,5.711005E1,4.445661E1,7.2312737E0,4.2402735E0,2.2230394E1,3.4361124E2],"tree_param":{"num_deleted":"0","num_feature":"18","num_nodes":"15","size_leaf_vector":"1"}},{"base_weights":[-2.5239753E-4,1.706592E-1,-2.6014292E-1,1.0219491E-1,5.860052E-1,5.885093E-2,-3.7315705E-1,2.8537095E-2,1.0817586E-3,1.705096E-2,4.8117455E-2,5.4887015E-2,-5.4435474E-3,-2.3675324E-2,4.156914E-3],"categories":[],"categories_nodes":[],"categories_segments":[],"categories_sizes":[],"default_left":[0,0,0,0,0,0,0,0,0,0,0,0,0,0,0],"id":5,"left_children":[1,3,5,7,9,11,13,-1,-1,-1,-1,-1,-1,-1,-1],"loss_changes":[2.6860834E1,1.0235214E1,8.707872E0,1.1792103E1,4.258112E0,1.1271309E1,8.211899E0,0E0,0E0,0E0,0E0,0E0,0E0,0E0,0E0],"parents":[2147483647,0,0,1,1,2,2,3,3,4,4,5,5,6,6],"right_children":[2,4,6,8,10,12,14,-1,-1,-1,-1,-1,-1,-1,-1],"split_conditions":[1.922833E-1,9.6890146E-1,3.3126375E-1,-1.2934245E0,8.109263E-2,-1.099763E0,6.917264E-1,2.8537095E-2,1.0817586E-3,1.705096E-2,4.8117455E-2,5.4887015E-2,-5.4435474E-3,-2.3675324E-2,4.156914E-3],"split_indices":[5,16,13,13,1,16,8,0,0,0,0,0,0,0,0],"split_type":[0,0,0,0,0,0,0,0,0,0,0,0,0,0,0],"sum_hessian":[6.0252344E2,3.6346008E2,2.3906339E2,3.1330304E2,5.0157047E1,6.2433346E1,1.7663005E2,4.4890053E1,2.6841296E2,3.1695982E1,1.8461065E1,7.990494E0,5.4442852E1,1.449367E2,3.1693344E1],"tree_param":{"num_deleted":"0","num_feature":"18","num_nodes":"15","size_leaf_vector":"1"}},{"base_weights":[-2.9346824E-2,1.711524E-1,-2.819435E-1,-5.758025E-4,3.5817575E-1,-2.2766905E-1,-1.2780219E0,1.4129305E-2,-2.0166352E-2,2.724479E-2,-2.7265647E-4,-1.9376157E-2,-2.7736085E-3,-7.362878E-2,-2.691873E-2],"categories":[],"categories_nodes":[],"categories_segments":[],"categories_sizes":[],"default_left":[0,0,0,0,0,0,0,0,0,0,0,0,0,0,0],"id":6,"left_children":[1,3,5,7,9,11,13,-1,-1,-1,-1,-1,-1,-1,-1],"loss_changes":[3.0445139E1,1.0791363E1,1.394379E1,2.0117733E1,1.0959888E1,6.9163713E0,9.398041E-1,0E0,0E0,0E0,0E0,0E0,0E0,0E0,0E0],"parents":[2147483647,0,0,1,1,2,2,3,3,4,4,5,5,6,6],"right_children":[2,4,6,8,10,12,14,-1,-1,-1,-1,-1,-1,-1,-1],"split_conditions":[1.2088117E-1,-1.4869748E-1,2.0247846E0,-5.9102565E-1,7.031857E-1,-1.1562276E-1,8.8204163E-1,1.4129305E-2,-2.0166352E-2,2.724479E-2,-2.7265647E-4,-1.9376157E-2,-2.7736085E-3,-7.362878E-2,-2.691873E-2],"split_indices":[0,17,0,7,7,7,14,0,0,0,0,0,0,0,0],"split_type":[0,0,0,0,0,0,0,0,0,0,0,0,0,0,0],"sum_hessian":[5.989712E2,3.3387982E2,2.6509137E2,1.7429826E2,1.5958156E2,2.5265372E2,1.243767E1,1.02373024E2,7.192523E1,1.0529175E2,5.4289814E1,1.3007297E2,1.2258074E2,8.955846E0,3.4818244E0],"tree_param":{"num_deleted":"0","num_feature":"18","num_nodes":"15","size_leaf_vector":"1"}},{"base_weights":[5.7147246E-2,2.8958657E-1,-1.6144253E-1,1.0433023E-1,4.9683544E-1,-4.5121932E-1,-1.1205615E-2,1.2664502E-2,-3.1532072E-3,2.913746E-3,3.2455195E-2,-5.728333E-2,-1.817408E-2,5.228246E-2,-1.6100381E-3],"categories":[],"categories_nodes":[],"categories_segments":[],"categories_sizes":[],"default_left":[0,0,0,0,0,0,0,0,0,0,0,0,0,0,0],"id":7,"left_children":[1,3,5,7,9,11,13,-1,-1,-1,-1,-1,-1,-1,-1],"loss_changes":[3.0982735E1,1.1235222E1,1.36219425E1,3.9640722E0,9.171814E0,5.9510803E0,4.549596E0,0E0,0E0,0E0,0E0,0E0,0E0,0E0,0E0],"parents":[2147483647,0,0,1,1,2,2,3,3,4,4,5,5,6,6],"right_children":[2,4,6,8,10,12,14,-1,-1,-1,-1,-1,-1,-1,-1],"split_conditions":[-1.4148878E-1,-1.9286746E-1,-6.187887E-1,-6.477328E-1,-5.9382796E-1,-1.2437487E0,-5.664531E-1,1.2664502E-2,-3.1532072E-3,2.913746E-3,3.2455195E-2,-5.728333E-2,-1.817408E-2,5.228246E-2,-1.6100381E-3],"split_indices":[13,17,17,17,1,17,17,0,0,0,0,0,0,0,0],"split_type":[0,0,0,0,0,0,0,0,0,0,0,0,0,0,0],"sum_hessian":[6.076177E2,2.9454422E2,3.1307346E2,1.5657253E2,1.379717E2,1.05983536E2,2.0708992E2,8.289274E1,7.367979E1,3.6083668E1,1.0188802E2,1.0407802E1,9.557574E1,2.9904249E0,2.0409949E2],"tree_param":{"num_deleted":"0","num_feature":"18","num_nodes":"15","size_leaf_vector":"1"}},{"base_weights":[-1.5903538E-2,2.4333951E-1,-1.9333945E-1,2.638569E-1,-6.844684E-1,-3.0314118E-1,2.349563E-1,1.9455828E-3,2.100411E-2,-0E0,-5.0574895E-2,4.727954E-2,-1.6401669E-2,3.23207E-2,-1.3264655E-3],"categories":[],"categories_nodes":[],"categories_segments":[],"categories_sizes":[],"default_left":[0,0,0,0,0,0,0,0,0,0,0,0,0,0,0],"id":8,"left_children":[1,3,5,7,9,11,13,-1,-1,-1,-1,-1,-1,-1,-1],"loss_changes":[2.7655308E1,4.7859287E0,1.6874739E1,8.360607E0,1.2655666E0,9.104395E0,7.961129E0,0E0,0E0,0E0,0E0,0E0,0E0,0E0,0E0],"parents":[2147483647,0,0,1,1,2,2,3,3,4,4,5,5,6,6],"right_children":[2,4,6,8,10,12,14,-1,-1,-1,-1,-1,-1,-1,-1],"split_conditions":[-4.0648848E-1,3.316367E0,6.5131354E-1,-4.206272E-1,-2.9154606E0,-1.2902476E0,9.467573E-1,1.9455828E-3,2.100411E-2,-0E0,-5.0574895E-2,4.727954E-2,-1.6401669E-2,3.23207E-2,-1.3264655E-3],"split_indices":[13,6,12,17,5,12,12,0,0,0,0,0,0,0,0],"split_type":[0,0,0,0,0,0,0,0,0,0,0,0,0,0,0],"sum_hessian":[5.9930096E2,2.4313426E2,3.5616675E2,2.3867953E2,4.4547267E0,2.839074E2,7.2259346E1,9.85987E1,1.4008083E2,1.720013E0,2.7347136E0,4.7473774E0,2.7916E2,2.765441E1,4.4604935E1],"tree_param":{"num_deleted":"0","num_feature":"18","num_nodes":"15","size_leaf_vector":"1"}},{"base_weights":[-2.6537377E-2,2.1255778E-1,-1.4826591E-1,-6.614723E-2,2.3563284E-1,5.863017E-1,-2.0241676E-1,2.089887E-2,5.873675E-4,4.419538E-2,2.639095E-3,-1.2901351E-2,1.43755125E-2],"categories":[],"categories_nodes":[],"categories_segments":[],"categories_sizes":[],"default_left":[0,0,0,0,0,0,0,0,0,0,0,0,0],"id":9,"left_children":[1,3,5,-1,7,9,11,-1,-1,-1,-1,-1,-1],"loss_changes":[1.6956707E1,7.1616E0,1.5448489E1,0E0,7.888342E0,4.0920324E0,9.898464E0,0E0,0E0,0E0,0E0,0E0,0E0],"parents":[2147483647,0,0,1,1,2,2,4,4,5,5,6,6],"right_children":[2,4,6,-1,8,10,12,-1,-1,-1,-1,-1,-1],"split_conditions":[-2.912287E-1,-2.7141037E0,-1.1223681E0,-6.614723E-2,-3.1248957E-1,-5.637051E-1,9.343473E-1,2.089887E-2,5.873675E-4,4.419538E-2,2.639095E-3,-1.2901351E-2,1.43755125E-2],"split_indices":[2,11,11,0,3,3,11,0,0,0,0,0,0],"split_type":[0,0,0,0,0,0,0,0,0,0,0,0,0],"sum_hessian":[5.807487E2,1.9539421E2,3.853545E2,1.9946803E0,1.9339952E2,2.56557E1,3.596988E2,1.0586429E2,8.753524E1,1.5927116E1,9.728584E0,3.236407E2,3.605811E1],"tree_param":{"num_deleted":"0","num_feature":"18","num_nodes":"13","size_leaf_vector":"1"}},{"base_weights":[-5.1323123E-2,1.22907855E-1,-2.8487664E-1,-1.5172638E-1,2.8356263E-1,-3.5914096E-1,3.899735E-1,4.0312164E-2,-1.1118594E-2,1.4833346E-2,-5.3145267E-2,-3.285957E-2,-6.2333154E-3,3.1427648E-2,-6.484427E-2],"categories":[],"categories_nodes":[],"categories_segments":[],"categories_sizes":[],"default_left":[0,0,0,0,0,0,0,0,0,0,0,0,0,0,0],"id":10,"left_children":[1,3,5,7,9,11,13,-1,-1,-1,-1,-1,-1,-1,-1],"loss_changes":[2.4544012E1,1.5286263E1,1.3053066E1,8.771386E0,4.0916348E0,1.611073E1,1.1169781E1,0E0,0E0,0E0,0E0,0E0,0E0,0E0,0E0],"parents":[2147483647,0,0,1,1,2,2,3,3,4,4,5,5,6,6],"right_children":[2,4,6,8,10,12,14,-1,-1,-1,-1,-1,-1,-1,-1],"split_conditions":[4.795128E-2,-4.3625063E-1,1.1343911E0,-1.8099178E0,1.1665673E0,2.327002E-1,1.855874E0,4.0312164E-2,-1.1118594E-2,1.4833346E-2,-5.3145267E-2,-3.285957E-2,-6.2333154E-3,3.1427648E-2,-6.484427E-2],"split_indices":[10,8,8,3,3,10,3,0,0,0,0,0,0,0,0],"split_type":[0,0,0,0,0,0,0,0,0,0,0,0,0,0,0],"sum_hessian":[6.009033E2,3.4418604E2,2.567173E2,1.2682162E2,2.1736441E2,2.3182225E2,2.4895033E1,7.8977838E0,1.1892383E2,2.1611505E2,1.2493666E0,1.0109144E2,1.307308E2,2.241189E1,2.4831426E0],"tree_param":{"num_deleted":"0","num_feature":"18","num_nodes":"15","size_leaf_vector":"1"}},{"base_weights":[3.4657776E-2,4.4177732E-1,-5.457456E-2,1.3819044E0,3.3133757E-1,-3.423971E-1,4.5137245E-2,7.974921E-2,1.1433041E-2,1.5924068E-4,3.0975763E-2,-6.376245E-3,-3.889614E-2,1.4490085E-2,-1.1621449E-2],"categories":[],"categories_nodes":[],"categories_segments":[],"categories_sizes":[],"default_left":[0,0,0,0,0,0,0,0,0,0,0,0,0,0,0],"id":11,"left_children":[1,3,5,7,9,11,13,-1,-1,-1,-1,-1,-1,-1,-1],"loss_changes":[2.2341648E1,1.0850157E1,1.4501101E1,2.2081127E0,9.425465E0,1.1973731E1,2.5520994E1,0E0,0E0,0E0,0E0,0E0,0E0,0E0,0E0],"parents":[2147483647,0,0,1,1,2,2,3,3,4,4,5,5,6,6],"right_children":[2,4,6,8,10,12,14,-1,-1,-1,-1,-1,-1,-1,-1],"split_conditions":[-4.3816635E-1,-1.0818535E0,-6.3768804E-1,-6.0438246E-1,-2.6010603E-1,2.7273068E-1,2.3643957E-2,7.974921E-2,1.1433041E-2,1.5924068E-4,3.0975763E-2,-6.376245E-3,-3.889614E-2,1.4490085E-2,-1.1621449E-2],"split_indices":[12,17,6,9,6,3,11,0,0,0,0,0,0,0,0],"split_type":[0,0,0,0,0,0,0,0,0,0,0,0,0,0,0],"sum_hessian":[6.1226465E2,1.09561905E2,5.0270276E2,1.0212131E1,9.934978E1,1.2897621E2,3.7372653E2,8.223041E0,1.9890902E0,4.7087967E1,5.2261806E1,8.738574E1,4.1590473E1,1.9880417E2,1.7492236E2],"tree_param":{"num_deleted":"0","num_feature":"18","num_nodes":"15","size_leaf_vector":"1"}},{"base_weights":[-1.5839849E-3,4.035477E-1,-9.009443E-2,2.6080802E-1,8.047485E-1,-1.149645E-1,7.0638907E-1,2.2862213E-2,-4.6218014E-3,6.837945E-2,1.4861511E-2,-3.1172667E-2,-2.5935245E-3,7.1171276E-2,-3.282657E-2],"categories":[],"categories_nodes":[],"categories_segments":[],"categories_sizes":[],"default_left":[0,0,0,0,0,0,0,0,0,0,0,0,0,0,0],"id":12,"left_children":[1,3,5,7,9,11,13,-1,-1,-1,-1,-1,-1,-1,-1],"loss_changes":[2.2162783E1,6.027302E0,1.0087808E1,5.8636785E0,7.5412025E0,1.5740765E1,1.6065647E1,0E0,0E0,0E0,0E0,0E0,0E0,0E0,0E0],"parents":[2147483647,0,0,1,1,2,2,3,3,4,4,5,5,6,6],"right_children":[2,4,6,8,10,12,14,-1,-1,-1,-1,-1,-1,-1,-1],"split_conditions":[-5.036107E-1,5.152931E-1,2.7065458E0,-3.7750697E-1,1.0703837E0,-9.626538E-1,1.6920193E0,2.2862213E-2,-4.6218014E-3,6.837945E-2,1.4861511E-2,-3.1172667E-2,-2.5935245E-3,7.1171276E-2,-3.282657E-2],"split_indices":[11,17,11,0,6,6,0,0,0,0,0,0,0,0,0],"split_type":[0,0,0,0,0,0,0,0,0,0,0,0,0,0,0],"sum_hessian":[6.169243E2,1.0977428E2,5.0715002E2,8.2368454E1,2.7405825E1,4.9274536E2,1.4404683E1,5.2925613E1,2.944284E1,1.2097707E1,1.5308118E1,5.323624E1,4.395091E2,9.457856E0,4.9468274E0],"tree_param":{"num_deleted":"0","num_feature":"18","num_nodes":"15","size_leaf_vector":"1"}},{"base_weights":[6.8740975E-3,1.4213312E-1,-2.0552328E-1,2.4308853E-1,-3.3686306E-2,-1.4921404E-1,-1.0182035E0,8.878095E-3,3.3529487E-2,-1.6513117E-2,2.0003876E-2,2.8649429E-2,-1.1280011E-2,-6.766408E-2,4.470041E-2],"categories":[],"categories_nodes":[],"categories_segments":[],"categories_sizes":[],"default_left":[0,0,0,0,0,0,0,0,0,0,0,0,0,0,0],"id":13,"left_children":[1,3,5,7,9,11,13,-1,-1,-1,-1,-1,-1,-1,-1],"loss_changes":[1.7068869E1,6.479043E0,1.0300724E1,6.275899E0,1.7242659E1,1.20815E1,1.066156E1,0E0,0E0,0E0,0E0,0E0,0E0,0E0,0E0],"parents":[2147483647,0,0,1,1,2,2,3,3,4,4,5,5,6,6],"right_children":[2,4,6,8,10,12,14,-1,-1,-1,-1,-1,-1,-1,-1],"split_conditions":[1.7071328E-1,-3.876723E-1,1.8346932E0,-4.223315E-1,3.4063414E-1,-5.2694637E-1,3.3918223E0,8.878095E-3,3.3529487E-2,-1.6513117E-2,2.0003876E-2,2.8649429E-2,-1.1280011E-2,-6.766408E-2,4.470041E-2],"split_indices":[5,13,7,0,2,12,17,0,0,0,0,0,0,0,0],"split_type":[0,0,0,0,0,0,0,0,0,0,0,0,0,0,0],"sum_hessian":[5.923446E2,3.6237704E2,2.2996753E2,2.3031593E2,1.3206113E2,2.1628796E2,1.3679569E1,2.0113551E2,2.9180431E1,7.871245E1,5.334867E1,1.9941187E1,1.9634677E2,1.1933113E1,1.7464559E0],"tree_param":{"num_deleted":"0","num_feature":"18","num_nodes":"15","size_leaf_vector":"1"}},{"base_weights":[-3.4739312E-3,1.777844E-2,-8.731113E-1,2.2734302E-1,-8.3871424E-2,1.5096511E-2,-1.1177565E0,1.0033508E-2,6.1514717E-2,-1.8760543E-2,1.6255163E-3,-3.046825E-2,-7.368958E-2],"categories":[],"categories_nodes":[],"categories_segments":[],"categories_sizes":[],"default_left":[0,0,0,0,0,0,0,0,0,0,0,0,0],"id":14,"left_children":[1,3,5,7,9,-1,11,-1,-1,-1,-1,-1,-1],"loss_changes":[1.1220739E1,1.2562722E1,4.582985E0,4.765066E0,1.3489373E1,0E0,1.1148739E0,0E0,0E0,0E0,0E0,0E0,0E0],"parents":[2147483647,0,0,1,1,2,2,3,3,4,4,6,6],"right_children":[2,4,6,8,10,-1,12,-1,-1,-1,-1,-1,-1],"split_conditions":[2.0247846E0,-3.2754594E-1,4.1557002E-1,3.3918223E0,-6.382644E-1,1.5096511E-2,8.147641E-2,1.0033508E-2,6.1514717E-2,-1.8760543E-2,1.6255163E-3,-3.046825E-2,-7.368958E-2],"split_indices":[0,2,2,17,8,0,8,0,0,0,0,0,0],"split_type":[0,0,0,0,0,0,0,0,0,0,0,0,0],"sum_hessian":[6.006541E2,5.871693E2,1.3484794E1,1.9170058E2,3.9546875E2,2.2129557E0,1.1271837E1,1.880006E2,3.6999733E0,1.12494804E2,2.8297394E2,5.875074E0,5.3967633E0],"tree_param":{"num_deleted":"0","num_feature":"18","num_nodes":"13","size_leaf_vector":"1"}},{"base_weights":[-4.319735E-2,2.56212E-1,-1.629974E-1,8.964171E-2,5.06941E-1,-3.5638127E-1,2.0636173E-2,-1.4448247E-3,4.0444892E-2,7.7391127E-3,3.4685586E-2,-8.382116E-3,-3.3576082E-2,6.7630843E-3,-5.5449683E-2],"categories":[],"categories_nodes":[],"categories_segments":[],"categories_sizes":[],"default_left":[0,0,0,0,0,0,0,0,0,0,0,0,0,0,0],"id":15,"left_children":[1,3,5,7,9,11,13,-1,-1,-1,-1,-1,-1,-1,-1],"loss_changes":[2.149988E1,7.044264E0,1.52508545E1,8.994663E0,4.272188E0,1.2230799E1,2.8587326E1,0E0,0E0,0E0,0E0,0E0,0E0,0E0,0E0],"parents":[2147483647,0,0,1,1,2,2,3,3,4,4,5,5,6,6],"right_children":[2,4,6,8,10,12,14,-1,-1,-1,-1,-1,-1,-1,-1],"split_conditions":[-6.679206E-1,8.249519E-3,-2.468756E-1,-1.15162715E-1,-3.1824598E-1,3.0374074E-1,1.855874E0,-1.4448247E-3,4.0444892E-2,7.7391127E-3,3.4685586E-2,-8.382116E-3,-3.3576082E-2,6.7630843E-3,-5.5449683E-2],"split_indices":[13,9,6,2,16,3,3,0,0,0,0,0,0,0,0],"split_type":[0,0,0,0,0,0,0,0,0,0,0,0,0,0,0],"sum_hessian":[5.974914E2,1.7018484E2,4.2730658E2,1.0330871E2,6.687614E1,2.0793489E2,2.1937167E2,8.939638E1,1.3912329E1,2.3995823E1,4.2880318E1,1.3120497E2,7.672993E1,2.0004185E2,1.9329813E1],"tree_param":{"num_deleted":"0","num_feature":"18","num_nodes":"15","size_leaf_vector":"1"}},{"base_weights":[1.546157E-2,1.892298E-1,-1.3161272E-1,2.8325656E-1,-8.9674465E-2,-1.6010348E-1,1.0179132E0,2.6475757E-3,2.098596E-2,6.600454E-2,-8.913161E-3,-5.1355166E-3,-4.7332592E-2,6.092539E-2,2.5733782E-3],"categories":[],"categories_nodes":[],"categories_segments":[],"categories_sizes":[],"default_left":[0,0,0,0,0,0,0,0,0,0,0,0,0,0,0],"id":16,"left_children":[1,3,5,7,9,11,13,-1,-1,-1,-1,-1,-1,-1,-1],"loss_changes":[1.5351072E1,7.27003E0,1.0719507E1,6.4222584E0,8.858036E0,1.4154845E1,1.343751E0,0E0,0E0,0E0,0E0,0E0,0E0,0E0,0E0],"parents":[2147483647,0,0,1,1,2,2,3,3,4,4,5,5,6,6],"right_children":[2,4,6,8,10,12,14,-1,-1,-1,-1,-1,-1,-1,-1],"split_conditions":[-1.17664665E-1,-5.281019E-1,1.7935399E0,-8.475308E-1,-1.8099178E0,1.855874E0,4.9827704E-1,2.6475757E-3,2.098596E-2,6.600454E-2,-8.913161E-3,-5.1355166E-3,-4.7332592E-2,6.092539E-2,2.5733782E-3],"split_indices":[4,13,16,3,3,3,17,0,0,0,0,0,0,0,0],"split_type":[0,0,0,0,0,0,0,0,0,0,0,0,0,0,0],"sum_hessian":[5.9846405E2,2.7451636E2,3.239477E2,2.0555927E2,6.895709E1,3.170377E2,6.909998E0,7.727117E1,1.2828809E2,3.1883793E0,6.5768715E1,2.9664938E2,2.0388298E1,5.4206147E0,1.4893836E0],"tree_param":{"num_deleted":"0","num_feature":"18","num_nodes":"15","size_leaf_vector":"1"}},{"base_weights":[-5.0352924E-2,3.1804013E-1,-1.2849964E-1,3.963273E-1,-4.5385534E-1,-2.6284394E-1,6.544738E-2,5.106191E-2,1.4493549E-2,-4.498898E-2,5.9974562E-2,-7.762742E-3,-2.6263598E-2,5.9544193E-3,-2.6144296E-2],"categories":[],"categories_nodes":[],"categories_segments":[],"categories_sizes":[],"default_left":[0,0,0,0,0,0,0,0,0,0,0,0,0,0,0],"id":17,"left_children":[1,3,5,7,9,11,13,-1,-1,-1,-1,-1,-1,-1,-1],"loss_changes":[1.7175903E1,6.479458E0,1.2869784E1,5.9184427E0,8.390017E0,8.079912E0,6.398182E0,0E0,0E0,0E0,0E0,0E0,0E0,0E0,0E0],"parents":[2147483647,0,0,1,1,2,2,3,3,4,4,5,5,6,6],"right_children":[2,4,6,8,10,12,14,-1,-1,-1,-1,-1,-1,-1,-1],"split_conditions":[-4.8795605E-1,1.416832E-1,-1.5289247E-2,-1.4058787E0,3.1075442E-1,5.138116E-1,1.855874E0,5.106191E-2,1.4493549E-2,-4.498898E-2,5.9974562E-2,-7.762742E-3,-2.6263598E-2,5.9544193E-3,-2.6144296E-2],"split_indices":[11,3,9,15,5,5,3,0,0,0,0,0,0,0,0],"split_type":[0,0,0,0,0,0,0,0,0,0,0,0,0,0,0],"sum_hessian":[5.948583E2,1.0334204E2,4.9151627E2,9.43854E1,8.956648E0,2.9047134E2,2.010449E2,1.235103E1,8.203436E1,7.4606905E0,1.4959573E0,2.0741068E2,8.306067E1,1.8513304E2,1.59118595E1],"tree_param":{"num_deleted":"0","num_feature":"18","num_nodes":"15","size_leaf_vector":"1"}},{"base_weights":[-3.4937188E-3,2.8563E-1,-8.083399E-2,9.2800653E-1,1.7802961E-1,1.9947517E-1,-2.1689355E-1,-1.5921871E-3,6.1181583E-2,8.889166E-4,2.9516077E-2,1.6345842E-2,-1.5074308E-2,-2.0363359E-2,1.3331621E-3],"categories":[],"categories_nodes":[],"categories_segments":[],"categories_sizes":[],"default_left":[0,0,0,0,0,0,0,0,0,0,0,0,0,0,0],"id":18,"left_children":[1,3,5,7,9,11,13,-1,-1,-1,-1,-1,-1,-1,-1],"loss_changes":[1.33506975E1,8.42835E0,1.8046883E1,5.1796074E0,7.145686E0,9.966347E0,1.4816163E1,0E0,0E0,0E0,0E0,0E0,0E0,0E0,0E0],"parents":[2147483647,0,0,1,1,2,2,3,3,4,4,5,5,6,6],"right_children":[2,4,6,8,10,12,14,-1,-1,-1,-1,-1,-1,-1,-1],"split_conditions":[-3.5551706E-1,-1.714042E0,3.1843644E-3,-1.8415152E0,2.1833648E-1,3.8709393E-1,-7.771901E-2,-1.5921871E-3,6.1181583E-2,8.889166E-4,2.9516077E-2,1.6345842E-2,-1.5074308E-2,-2.0363359E-2,1.3331621E-3],"split_indices":[10,3,12,2,12,3,8,0,0,0,0,0,0,0,0],"split_type":[0,0,0,0,0,0,0,0,0,0,0,0,0,0,0],"sum_hessian":[5.959386E2,1.2492841E2,4.710102E2,1.669643E1,1.0823199E2,1.5352264E2,3.1748755E2,4.061939E0,1.263449E1,7.886434E1,2.9367643E1,1.22823975E2,3.069867E1,1.7805284E2,1.3943471E2],"tree_param":{"num_deleted":"0","num_feature":"18","num_nodes":"15","size_leaf_vector":"1"}},{"base_weights":[3.9696045E-2,-3.8461787E-1,8.275677E-2,-5.188516E-1,6.6259645E-2,5.583337E-1,9.113013E-3,8.500974E-3,-3.9394565E-2,3.778249E-2,-2.7096951E-2,-2.464032E-2,3.4770991E-3],"categories":[],"categories_nodes":[],"categories_segments":[],"categories_sizes":[],"default_left":[0,0,0,0,0,0,0,0,0,0,0,0,0],"id":19,"left_children":[1,3,5,7,-1,9,11,-1,-1,-1,-1,-1,-1],"loss_changes":[1.0847215E1,1.3150379E1,1.8848427E1,9.730545E0,0E0,1.6105593E1,1.4208876E1,0E0,0E0,0E0,0E0,0E0,0E0],"parents":[2147483647,0,0,1,1,2,2,3,3,5,5,6,6],"right_children":[2,4,6,8,-1,10,12,-1,-1,-1,-1,-1,-1],"split_conditions":[-9.7903675E-1,1.8423318E0,-7.732363E-1,-6.3505816E-1,6.6259645E-2,1.0705537E0,-5.854055E-1,8.500974E-3,-3.9394565E-2,3.778249E-2,-2.7096951E-2,-2.464032E-2,3.4770991E-3],"split_indices":[6,10,7,0,0,0,6,0,0,0,0,0,0],"split_type":[0,0,0,0,0,0,0,0,0,0,0,0,0],"sum_hessian":[5.9258624E2,5.3652107E1,5.389341E2,5.0446674E1,3.2054327E0,7.1199875E1,4.6773422E2,1.4167478E1,3.6279198E1,6.0715614E1,1.0484263E1,4.9315193E1,4.1841904E2],"tree_param":{"num_deleted":"0","num_feature":"18","num_nodes":"13","size_leaf_vector":"1"}},{"base_weights":[-1.1506338E-2,-5.271214E-1,5.5451512E-2,4.928337E-2,-5.7091993E-1,1.4782451E-1,-1.828812E-1,2.591207E-2,-3.234924E-2,3.7182146E-3,3.0590136E-2,-2.6829952E-2,2.1606328E-3],"categories":[],"categories_nodes":[],"categories_segments":[],"categories_sizes":[],"default_left":[0,0,0,0,0,0,0,0,0,0,0,0,0],"id":20,"left_children":[1,3,5,-1,7,9,11,-1,-1,-1,-1,-1,-1],"loss_changes":[2.0679771E1,5.083584E0,1.1667943E1,0E0,5.950035E0,1.2907181E1,1.1899209E1,0E0,0E0,0E0,0E0,0E0,0E0],"parents":[2147483647,0,0,1,1,2,2,4,4,5,5,6,6],"right_children":[2,4,6,-1,8,10,12,-1,-1,-1,-1,-1,-1],"split_conditions":[-9.515556E-1,-2.0367749E0,5.9039927E-1,4.928337E-2,-1.5151113E0,9.885052E-1,-2.52033E-1,2.591207E-2,-3.234924E-2,3.7182146E-3,3.0590136E-2,-2.6829952E-2,2.1606328E-3],"split_indices":[6,0,0,0,16,16,6,0,0,0,0,0,0],"split_type":[0,0,0,0,0,0,0,0,0,0,0,0,0],"sum_hessian":[5.957758E2,6.785709E1,5.2791876E2,1.240001E0,6.6617096E1,3.810361E2,1.4688264E2,3.8834014E0,6.2733692E1,3.301416E2,5.089449E1,5.6912884E1,8.996976E1],"tree_param":{"num_deleted":"0","num_feature":"18","num_nodes":"13","size_leaf_vector":"1"}},{"base_weights":[-2.2115738E-3,-1.1355164E-1,1.6873272E-1,-1.2825429E-2,-2.966007E-1,3.1911513E-1,-1.6395947E-1,-1.405884E-2,6.2195384E-3,-1.9494617E-2,5.889893E-3,-1.8591423E-3,2.694847E-2,1.2752547E-2,-2.2742555E-2],"categories":[],"categories_nodes":[],"categories_segments":[],"categories_sizes":[],"default_left":[0,0,0,0,0,0,0,0,0,0,0,0,0,0,0],"id":21,"left_children":[1,3,5,7,9,11,13,-1,-1,-1,-1,-1,-1,-1,-1],"loss_changes":[1.1301317E1,6.6046076E0,1.1773388E1,8.655108E0,4.9991093E0,1.2735037E1,9.068784E0,0E0,0E0,0E0,0E0,0E0,0E0,0E0,0E0],"parents":[2147483647,0,0,1,1,2,2,3,3,4,4,5,5,6,6],"right_children":[2,4,6,8,10,12,14,-1,-1,-1,-1,-1,-1,-1,-1],"split_conditions":[5.368451E-2,2.627624E-1,9.4697315E-1,-4.579668E-1,1.8425476E-2,-6.011613E-1,-5.7287294E-1,-1.405884E-2,6.2195384E-3,-1.9494617E-2,5.889893E-3,-1.8591423E-3,2.694847E-2,1.2752547E-2,-2.2742555E-2],"split_indices":[17,5,9,8,9,8,1,0,0,0,0,0,0,0,0],"split_type":[0,0,0,0,0,0,0,0,0,0,0,0,0,0,0],"sum_hessian":[5.920597E2,3.59094E2,2.329657E2,2.32676E2,1.2641801E2,1.6067798E2,7.228773E1,7.8613174E1,1.5406282E2,1.03433044E2,2.2984959E1,6.1456684E1,9.922129E1,2.9530462E1,4.2757267E1],"tree_param":{"num_deleted":"0","num_feature":"18","num_nodes":"15","size_leaf_vector":"1"}},{"base_weights":[1.3947528E-2,2.4252084E-1,-1.027025E-1,6.359157E-1,1.1347297E-1,4.021917E-1,-1.7237347E-1,1.0081898E-2,4.251715E-2,9.461404E-3,-1.3186151E-2,8.095564E-3,3.7631266E-2,-1.7953837E-2,2.913638E-3],"categories":[],"categories_nodes":[],"categories_segments":[],"categories_sizes":[],"default_left":[0,0,0,0,0,0,0,0,0,0,0,0,0,0,0],"id":22,"left_children":[1,3,5,7,9,11,13,-1,-1,-1,-1,-1,-1,-1,-1],"loss_changes":[1.5622504E1,9.90858E0,1.3673292E1,4.241373E0,4.34458E0,3.752626E0,1.4747686E1,0E0,0E0,0E0,0E0,0E0,0E0,0E0,0E0],"parents":[2147483647,0,0,1,1,2,2,3,3,4,4,5,5,6,6],"right_children":[2,4,6,8,10,12,14,-1,-1,-1,-1,-1,-1,-1,-1],"split_conditions":[-2.912287E-1,-7.20498E-1,-7.0603883E-1,-1.2071699E0,7.468914E-1,2.245847E-1,-2.0856586E-1,1.0081898E-2,4.251715E-2,9.461404E-3,-1.3186151E-2,8.095564E-3,3.7631266E-2,-1.7953837E-2,2.913638E-3],"split_indices":[2,12,10,2,6,2,6,0,0,0,0,0,0,0,0],"split_type":[0,0,0,0,0,0,0,0,0,0,0,0,0,0,0],"sum_hessian":[5.8346405E2,1.9707597E2,3.863881E2,4.7517876E1,1.495581E2,4.61001E1,3.40288E2,1.650241E1,3.1015465E1,1.2518059E2,2.4377516E1,2.8384916E1,1.7715185E1,1.8799043E2,1.5229756E2],"tree_param":{"num_deleted":"0","num_feature":"18","num_nodes":"15","size_leaf_vector":"1"}},{"base_weights":[3.987688E-2,6.808344E-2,-6.781228E-1,-1.7746538E-1,1.461482E-1,-1.1067088E0,-4.084507E-1,-1.3868495E-2,1.7925596E-2,1.4488495E-2,-2.8975192E-3,-4.0426347E-3,-7.0256196E-2,2.6183873E-2,-2.9330868E-2],"categories":[],"categories_nodes":[],"categories_segments":[],"categories_sizes":[],"default_left":[0,0,0,0,0,0,0,0,0,0,0,0,0,0,0],"id":23,"left_children":[1,3,5,7,9,11,13,-1,-1,-1,-1,-1,-1,-1,-1],"loss_changes":[1.2144749E1,1.1116743E1,2.0145721E0,7.5746746E0,1.2937639E1,2.1930847E0,2.9095833E0,0E0,0E0,0E0,0E0,0E0,0E0,0E0,0E0],"parents":[2147483647,0,0,1,1,2,2,3,3,4,4,5,5,6,6],"right_children":[2,4,6,8,10,12,14,-1,-1,-1,-1,-1,-1,-1,-1],"split_conditions":[1.855874E0,-7.163908E-1,1.4871337E-1,3.5199645E-1,2.8996497E-2,4.050115E-2,1.93434E-1,-1.3868495E-2,1.7925596E-2,1.4488495E-2,-2.8975192E-3,-4.0426347E-3,-7.0256196E-2,2.6183873E-2,-2.9330868E-2],"split_indices":[3,9,11,1,11,11,11,0,0,0,0,0,0,0,0],"split_type":[0,0,0,0,0,0,0,0,0,0,0,0,0,0,0],"sum_hessian":[5.9940497E2,5.777525E2,2.165251E1,1.3875409E2,4.3899838E2,7.0203867E0,1.4632123E1,1.1751814E2,2.1235945E1,2.5771658E2,1.8128181E2,1.9439056E0,5.076481E0,1.9467307E0,1.2685392E1],"tree_param":{"num_deleted":"0","num_feature":"18","num_nodes":"15","size_leaf_vector":"1"}},{"base_weights":[-1.628026E-2,-2.1361476E-1,1.0007194E-1,-3.2476088E-1,1.5873446E-1,4.539561E-1,3.0330304E-2,-1.812538E-2,4.359098E-2,-5.4378565E-2,1.5732616E-2,3.2746643E-2,-1.9783087E-3,2.7640471E-2,-1.1575195E-3],"categories":[],"categories_nodes":[],"categories_segments":[],"categories_sizes":[],"default_left":[0,0,0,0,0,0,0,0,0,0,0,0,0,0,0],"id":24,"left_children":[1,3,5,7,9,11,13,-1,-1,-1,-1,-1,-1,-1,-1],"loss_changes":[1.3477106E1,9.083029E0,9.037982E0,7.8662224E0,1.0085799E1,6.0778036E0,8.709098E0,0E0,0E0,0E0,0E0,0E0,0E0,0E0,0E0],"parents":[2147483647,0,0,1,1,2,2,3,3,4,4,5,5,6,6],"right_children":[2,4,6,8,10,12,14,-1,-1,-1,-1,-1,-1,-1,-1],"split_conditions":[-4.579668E-1,8.150743E-1,-5.496103E-1,3.045168E0,-1.2437487E0,7.503997E-1,-1.5724384E0,-1.812538E-2,4.359098E-2,-5.4378565E-2,1.5732616E-2,3.2746643E-2,-1.9783087E-3,2.7640471E-2,-1.1575195E-3],"split_indices":[8,15,11,7,17,8,16,0,0,0,0,0,0,0,0],"split_type":[0,0,0,0,0,0,0,0,0,0,0,0,0,0,0],"sum_hessian":[5.845487E2,2.1682866E2,3.6772006E2,1.6728925E2,4.953941E1,5.9394833E1,3.0832526E2,1.6293016E2,4.35909E0,4.772723E0,4.4766685E1,4.2118504E1,1.7276325E1,2.7936186E1,2.8038907E2],"tree_param":{"num_deleted":"0","num_feature":"18","num_nodes":"15","size_leaf_vector":"1"}},{"base_weights":[-1.5679443E-2,-4.042975E-2,5.5391055E-1,-1.7606519E-1,8.3584696E-2,-2.8072906E-1,8.0012524E-1,3.9274864E-2,-1.0276999E-2,4.2511857E-4,2.1718351E-2,2.4742833E-3,-3.163843E-2,-3.280549E-3,4.8356947E-2],"categories":[],"categories_nodes":[],"categories_segments":[],"categories_sizes":[],"default_left":[0,0,0,0,0,0,0,0,0,0,0,0,0,0,0],"id":25,"left_children":[1,3,5,7,9,11,13,-1,-1,-1,-1,-1,-1,-1,-1],"loss_changes":[8.232949E0,9.489815E0,5.271245E0,7.7412434E0,7.702119E0,8.0856216E-1,2.9182549E0,0E0,0E0,0E0,0E0,0E0,0E0,0E0,0E0],"parents":[2147483647,0,0,1,1,2,2,3,3,4,4,5,5,6,6],"right_children":[2,4,6,8,10,12,14,-1,-1,-1,-1,-1,-1,-1,-1],"split_conditions":[1.6124262E0,-2.21536E-1,-1.7547189E-1,-1.672393E0,1.0815887E0,-1.4869748E-1,-9.6168804E-1,3.9274864E-2,-1.0276999E-2,4.2511857E-4,2.1718351E-2,2.4742833E-3,-3.163843E-2,-3.280549E-3,4.8356947E-2],"split_indices":[11,17,1,15,15,17,15,0,0,0,0,0,0,0,0],"split_type":[0,0,0,0,0,0,0,0,0,0,0,0,0,0,0],"sum_hessian":[5.8505334E2,5.6174835E2,2.330498E1,2.6848795E2,2.932604E2,5.184338E0,1.8120642E1,7.1214333E0,2.6136652E2,2.4263544E2,5.0624985E1,2.9719799E0,2.2123585E0,2.9317808E0,1.5188861E1],"tree_param":{"num_deleted":"0","num_feature":"18","num_nodes":"15","size_leaf_vector":"1"}},{"base_weights":[7.801631E-3,4.358955E-2,-6.4354956E-1,1.5927692E-1,-1.12104654E-1,1.8284601E-1,-1.0318868E0,-2.3692012E-2,9.168751E-3,-2.1458503E-2,9.335416E-3,4.2769324E-2,-2.7569456E-2,-7.4791715E-2,-3.6774628E-2],"categories":[],"categories_nodes":[],"categories_segments":[],"categories_sizes":[],"default_left":[0,0,0,0,0,0,0,0,0,0,0,0,0,0,0],"id":26,"left_children":[1,3,5,7,9,11,13,-1,-1,-1,-1,-1,-1,-1,-1],"loss_changes":[1.3732887E1,1.0124099E1,1.011703E1,4.9787045E0,2.2775814E1,5.7229557E0,1.5781441E0,0E0,0E0,0E0,0E0,0E0,0E0,0E0,0E0],"parents":[2147483647,0,0,1,1,2,2,3,3,4,4,5,5,6,6],"right_children":[2,4,6,8,10,12,14,-1,-1,-1,-1,-1,-1,-1,-1],"split_conditions":[1.685127E0,4.7470886E-2,-1.2420927E0,-1.1347817E0,2.4058563E-1,-7.7553695E-1,1.8274039E-1,-2.3692012E-2,9.168751E-3,-2.1458503E-2,9.335416E-3,4.2769324E-2,-2.7569456E-2,-7.4791715E-2,-3.6774628E-2],"split_indices":[6,10,5,9,11,11,9,0,0,0,0,0,0,0,0],"split_type":[0,0,0,0,0,0,0,0,0,0,0,0,0,0,0],"sum_hessian":[5.8949915E2,5.598266E2,2.9672575E1,3.2153314E2,2.3829343E2,9.572853E0,2.0099722E1,1.0953176E1,3.1058E2,1.15566345E2,1.2272707E2,4.9813013E0,4.5915513E0,6.126198E0,1.3973524E1],"tree_param":{"num_deleted":"0","num_feature":"18","num_nodes":"15","size_leaf_vector":"1"}},{"base_weights":[-3.4329386E-3,1.4957891E-1,-8.561409E-2,5.021593E-1,2.8506637E-2,-8.644693E-1,-4.6007574E-2,-2.0666065E-2,3.0274317E-2,-2.0386226E-2,5.4717297E-3,-5.4388322E-2,-0E0,5.5076897E-2,-3.4299914E-3],"categories":[],"categories_nodes":[],"categories_segments":[],"categories_sizes":[],"default_left":[0,0,0,0,0,0,0,0,0,0,0,0,0,0,0],"id":27,"left_children":[1,3,5,7,9,11,13,-1,-1,-1,-1,-1,-1,-1,-1],"loss_changes":[7.4765463E0,8.790989E0,1.1824085E1,5.261449E0,5.5130353E0,3.4924383E0,9.563979E0,0E0,0E0,0E0,0E0,0E0,0E0,0E0,0E0],"parents":[2147483647,0,0,1,1,2,2,3,3,4,4,5,5,6,6],"right_children":[2,4,6,8,10,12,14,-1,-1,-1,-1,-1,-1,-1,-1],"split_conditions":[-2.912287E-1,-7.3491293E-1,-1.1609982E0,-3.245643E0,-1.2187347E0,-4.9985823E-1,-1.7580576E0,-2.0666065E-2,3.0274317E-2,-2.0386226E-2,5.4717297E-3,-5.4388322E-2,-0E0,5.5076897E-2,-3.4299914E-3],"split_indices":[2,12,7,12,3,9,3,0,0,0,0,0,0,0,0],"split_type":[0,0,0,0,0,0,0,0,0,0,0,0,0,0,0],"sum_hessian":[5.930612E2,2.0651573E2,3.8654547E2,5.1772633E1,1.547431E2,1.757548E1,3.6897E2,4.8483353E0,4.6924297E1,2.3389795E1,1.313533E2,1.3683489E1,3.8919919E0,6.116303E0,3.628537E2],"tree_param":{"num_deleted":"0","num_feature":"18","num_nodes":"15","size_leaf_vector":"1"}},{"base_weights":[1.5053806E-3,2.5438827E-1,-1.05941266E-1,3.4972635E-1,-1.0068056E-1,-2.2129035E-1,1.6505596E-1,-1.9378958E-2,1.8932393E-2,-1.9501613E-2,6.161862E-3,6.6269017E-3,-1.4137724E-2,-1.0756074E-2,2.864379E-2],"categories":[],"categories_nodes":[],"categories_segments":[],"categories_sizes":[],"default_left":[0,0,0,0,0,0,0,0,0,0,0,0,0,0,0],"id":28,"left_children":[1,3,5,7,9,11,13,-1,-1,-1,-1,-1,-1,-1,-1],"loss_changes":[1.6249523E1,6.100643E0,1.3141588E1,3.1550217E0,2.5578835E0,6.459997E0,1.9606081E1,0E0,0E0,0E0,0E0,0E0,0E0,0E0,0E0],"parents":[2147483647,0,0,1,1,2,2,3,3,4,4,5,5,6,6],"right_children":[2,4,6,8,10,12,14,-1,-1,-1,-1,-1,-1,-1,-1],"split_conditions":[-3.6152095E-1,6.725401E-1,7.262362E-1,-1.610181E0,1.047843E0,-5.036107E-1,-4.033919E-1,-1.9378958E-2,1.8932393E-2,-1.9501613E-2,6.161862E-3,6.6269017E-3,-1.4137724E-2,-1.0756074E-2,2.864379E-2],"split_indices":[2,7,15,11,7,11,7,0,0,0,0,0,0,0,0],"split_type":[0,0,0,0,0,0,0,0,0,0,0,0,0,0,0],"sum_hessian":[5.9549915E2,1.7744159E2,4.1805756E2,1.4011624E2,3.732535E1,2.9362814E2,1.2442943E2,4.6901402E0,1.3542609E2,1.6154663E1,2.1170687E1,4.304562E1,2.5058252E2,6.45148E1,5.9914627E1],"tree_param":{"num_deleted":"0","num_feature":"18","num_nodes":"15","size_leaf_vector":"1"}},{"base_weights":[-9.313124E-3,-6.276711E-2,8.116147E-3,3.3929822E-1,-2.9692607E-2,2.7938962E-2,-2.5993902E-2,-7.050114E-5,-3.12354E-2],"categories":[],"categories_nodes":[],"categories_segments":[],"categories_sizes":[],"default_left":[0,0,0,0,0,0,0,0,0],"id":29,"left_children":[1,-1,3,5,7,-1,-1,-1,-1],"loss_changes":[1.3187257E1,0E0,7.474258E0,1.1830948E1,8.913788E0,0E0,0E0,0E0,0E0],"parents":[2147483647,0,0,2,2,3,3,4,4],"right_children":[2,-1,4,6,8,-1,-1,-1,-1],"split_conditions":[-1.1674007E0,-6.276711E-2,-1.4149759E0,4.3624577E-1,1.6920193E0,2.7938962E-2,-2.5993902E-2,-7.050114E-5,-3.12354E-2],"split_indices":[9,0,16,9,0,0,0,0,0],"split_type":[0,0,0,0,0,0,0,0,0],"sum_hessian":[6.0000934E2,7.3764305E0,5.9263293E2,6.017825E1,5.3245465E2,4.8304607E1,1.1873641E1,5.0941147E2,2.304318E1],"tree_param":{"num_deleted":"0","num_feature":"18","num_nodes":"9","size_leaf_vector":"1"}},{"base_weights":[-9.379479E-3,3.1002238E-1,-7.519358E-2,-7.9723233E-1,4.3289804E-1,-2.1223523E-1,2.1551523E-2,2.625825E-2,-5.417235E-2,2.6769513E-2,-3.4359265E-2,-1.3505188E-2,3.0552953E-2,-2.9596817E-3,2.1021066E-2],"categories":[],"categories_nodes":[],"categories_segments":[],"categories_sizes":[],"default_left":[0,0,0,0,0,0,0,0,0,0,0,0,0,0,0],"id":30,"left_children":[1,3,5,7,9,11,13,-1,-1,-1,-1,-1,-1,-1,-1],"loss_changes":[1.2152522E1,1.3738222E1,6.3929777E0,4.4590235E0,1.0636108E1,9.627233E0,9.146172E0,0E0,0E0,0E0,0E0,0E0,0E0,0E0,0E0],"parents":[2147483647,0,0,1,1,2,2,3,3,4,4,5,5,6,6],"right_children":[2,4,6,8,10,12,14,-1,-1,-1,-1,-1,-1,-1,-1],"split_conditions":[-5.496103E-1,-1.8529181E0,-3.6457643E-1,-2.472686E0,1.4427546E0,1.6124262E0,7.262362E-1,2.625825E-2,-5.417235E-2,2.6769513E-2,-3.4359265E-2,-1.3505188E-2,3.0552953E-2,-2.9596817E-3,2.1021066E-2],"split_indices":[11,0,17,11,14,11,15,0,0,0,0,0,0,0,0],"split_type":[0,0,0,0,0,0,0,0,0,0,0,0,0,0,0],"sum_hessian":[5.7711755E2,9.770691E1,4.794106E2,9.130286E0,8.857662E1,1.9832236E2,2.8108826E2,1.4138099E0,7.7164764E0,8.171102E1,6.8656044E0,1.8603923E2,1.228312E1,2.3426562E2,4.682264E1],"tree_param":{"num_deleted":"0","num_feature":"18","num_nodes":"15","size_leaf_vector":"1"}},{"base_weights":[4.2347036E-2,2.3462187E-1,-6.392391E-2,2.5259566E-1,-4.810695E-2,-6.7464393E-1,-2.441364E-2,-2.065598E-2,1.7915836E-2,-5.485142E-3,-4.5470834E-2,-2.7550147E-3,3.3587195E-2],"categories":[],"categories_nodes":[],"categories_segments":[],"categories_sizes":[],"default_left":[0,0,0,0,0,0,0,0,0,0,0,0,0],"id":31,"left_children":[1,3,5,7,-1,9,11,-1,-1,-1,-1,-1,-1],"loss_changes":[1.2054697E1,4.6890793E0,9.068293E0,1.4764675E1,0E0,2.8305683E0,7.6132135E0,0E0,0E0,0E0,0E0,0E0,0E0],"parents":[2147483647,0,0,1,1,2,2,3,3,5,5,6,6],"right_children":[2,4,6,8,-1,10,12,-1,-1,-1,-1,-1,-1],"split_conditions":[-5.192407E-1,-8.642103E-2,-3.6900076E-1,-1.3501502E0,-4.810695E-2,-9.8289466E-1,2.114008E0,-2.065598E-2,1.7915836E-2,-5.485142E-3,-4.5470834E-2,-2.7550147E-3,3.3587195E-2],"split_indices":[13,4,4,14,0,10,10,0,0,0,0,0,0],"split_type":[0,0,0,0,0,0,0,0,0,0,0,0,0],"sum_hessian":[5.8738617E2,2.0899219E2,3.78394E2,2.0675943E2,2.2327647E0,2.186197E1,3.56532E2,2.7807116E1,1.789523E2,6.9738317E0,1.4888139E1,3.4249915E2,1.403288E1],"tree_param":{"num_deleted":"0","num_feature":"18","num_nodes":"13","size_leaf_vector":"1"}},{"base_weights":[2.8219828E-2,8.554775E-2,-1.5926334E-1,1.4740593E-2,3.7774387E-1,-3.202644E-1,2.4852689E-1,-9.806835E-3,7.91639E-3,-1.8889915E-2,2.4721077E-2,-4.0824983E-2,-7.0775184E-3,1.7841658E-2,-5.472836E-2],"categories":[],"categories_nodes":[],"categories_segments":[],"categories_sizes":[],"default_left":[0,0,0,0,0,0,0,0,0,0,0,0,0,0,0],"id":32,"left_children":[1,3,5,7,9,11,13,-1,-1,-1,-1,-1,-1,-1,-1],"loss_changes":[6.3713E0,9.3604E0,9.187761E0,1.114679E1,7.9874134E0,8.656565E0,6.0808086E0,0E0,0E0,0E0,0E0,0E0,0E0,0E0,0E0],"parents":[2147483647,0,0,1,1,2,2,3,3,4,4,5,5,6,6],"right_children":[2,4,6,8,10,12,14,-1,-1,-1,-1,-1,-1,-1,-1],"split_conditions":[5.0653553E-1,1.755281E-1,7.993096E-1,-4.5036012E-1,-1.0546503E0,-1.9286746E-1,1.9465032E0,-9.806835E-3,7.91639E-3,-1.8889915E-2,2.4721077E-2,-4.0824983E-2,-7.0775184E-3,1.7841658E-2,-5.472836E-2],"split_indices":[4,12,10,17,17,17,17,0,0,0,0,0,0,0,0],"split_type":[0,0,0,0,0,0,0,0,0,0,0,0,0,0,0],"sum_hessian":[5.9120636E2,4.5358722E2,1.3761917E2,3.6623184E2,8.735538E1,9.899463E1,3.8624546E1,1.4792358E2,2.1830826E2,1.1271586E1,7.6083786E1,2.5118837E1,7.3875786E1,3.6490734E1,2.1338146E0],"tree_param":{"num_deleted":"0","num_feature":"18","num_nodes":"15","size_leaf_vector":"1"}},{"base_weights":[-3.638915E-2,-1.4325696E-1,1.3337678E-1,-1.09964974E-1,-1.1182804E0,-6.1320383E-2,1.6771375E-1,-6.964285E-2,-4.0580914E-3,2.1344634E-2,-6.712961E-2,1.2628786E-2,-3.144188E-2],"categories":[],"categories_nodes":[],"categories_segments":[],"categories_sizes":[],"default_left":[0,0,0,0,0,0,0,0,0,0,0,0,0],"id":33,"left_children":[1,3,5,7,9,-1,11,-1,-1,-1,-1,-1,-1],"loss_changes":[1.0793705E1,1.1611023E1,1.0818302E1,1.2835743E1,4.7726316E0,0E0,1.5321056E1,0E0,0E0,0E0,0E0,0E0,0E0],"parents":[2147483647,0,0,1,1,2,2,3,3,4,4,6,6],"right_children":[2,4,6,8,10,-1,12,-1,-1,-1,-1,-1,-1],"split_conditions":[5.368451E-2,3.870685E-1,-1.1378154E0,-1.308234E0,-7.6705456E-1,-6.1320383E-2,1.855874E0,-6.964285E-2,-4.0580914E-3,2.1344634E-2,-6.712961E-2,1.2628786E-2,-3.144188E-2],"split_indices":[17,6,9,3,3,0,3,0,0,0,0,0,0],"split_type":[0,0,0,0,0,0,0,0,0,0,0,0,0],"sum_hessian":[5.928323E2,3.6426947E2,2.2856279E2,3.5341745E2,1.0852028E1,4.702662E0,2.2386012E2,6.6444407E0,3.46773E2,1.2046763E0,9.647351E0,2.0303761E2,2.0822512E1],"tree_param":{"num_deleted":"0","num_feature":"18","num_nodes":"13","size_leaf_vector":"1"}},{"base_weights":[-1.8444844E-2,7.3777405E-3,-5.706702E-1,3.1447008E-1,-5.1892266E-2,-7.820956E-1,6.148879E-1,5.025146E-3,4.367305E-2,-7.735252E-3,6.0302345E-3,9.914508E-3,-4.92084E-2,-0E0,4.230656E-2],"categories":[],"categories_nodes":[],"categories_segments":[],"categories_sizes":[],"default_left":[0,0,0,0,0,0,0,0,0,0,0,0,0,0,0],"id":34,"left_children":[1,3,5,7,9,11,13,-1,-1,-1,-1,-1,-1,-1,-1],"loss_changes":[8.602877E0,1.04737835E1,7.251931E0,1.095377E1,8.552013E0,4.9055157E0,6.984087E-1,0E0,0E0,0E0,0E0,0E0,0E0,0E0,0E0],"parents":[2147483647,0,0,1,1,2,2,3,3,4,4,5,5,6,6],"right_children":[2,4,6,8,10,12,14,-1,-1,-1,-1,-1,-1,-1,-1],"split_conditions":[1.9403641E0,-5.1346284E-1,1.2415435E0,-2.4498887E-1,1.5651491E-1,-2.221264E0,-7.3491293E-1,5.025146E-3,4.367305E-2,-7.735252E-3,6.0302345E-3,9.914508E-3,-4.92084E-2,-0E0,4.230656E-2],"split_indices":[6,12,16,4,12,4,12,0,0,0,0,0,0,0,0],"split_type":[0,0,0,0,0,0,0,0,0,0,0,0,0,0,0],"sum_hessian":[5.9804675E2,5.7210034E2,2.5946405E1,9.213062E1,4.799697E2,2.2379957E1,3.5664473E0,6.760998E1,2.4520649E1,3.0115573E2,1.7881396E2,3.74318E0,1.8636778E1,1.1793895E0,2.3870578E0],"tree_param":{"num_deleted":"0","num_feature":"18","num_nodes":"15","size_leaf_vector":"1"}},{"base_weights":[-5.199997E-4,3.6221504E-1,-7.8737654E-2,5.51101E-1,-6.2634493E-3,-1.3121173E-1,4.4268265E-1,-6.3327053E-3,3.6753535E-2,-2.220745E-2,2.0708418E-2,4.538483E-3,-9.50638E-3,-2.0962449E-2,3.6572583E-2],"categories":[],"categories_nodes":[],"categories_segments":[],"categories_sizes":[],"default_left":[0,0,0,0,0,0,0,0,0,0,0,0,0,0,0],"id":35,"left_children":[1,3,5,7,9,11,13,-1,-1,-1,-1,-1,-1,-1,-1],"loss_changes":[1.6647581E1,7.2985554E0,1.3261961E1,8.753141E0,6.826487E0,5.787297E0,1.1359919E1,0E0,0E0,0E0,0E0,0E0,0E0,0E0,0E0],"parents":[2147483647,0,0,1,1,2,2,3,3,4,4,5,5,6,6],"right_children":[2,4,6,8,10,12,14,-1,-1,-1,-1,-1,-1,-1,-1],"split_conditions":[-4.6769658E-1,1.2000257E-1,9.3049294E-1,-6.894372E-1,-3.0443972E-1,-7.398772E-1,-6.695901E-1,-6.3327053E-3,3.6753535E-2,-2.220745E-2,2.0708418E-2,4.538483E-3,-9.50638E-3,-2.0962449E-2,3.6572583E-2],"split_indices":[12,1,1,1,6,16,16,0,0,0,0,0,0,0,0],"split_type":[0,0,0,0,0,0,0,0,0,0,0,0,0,0,0],"sum_hessian":[5.8574896E2,1.0303126E2,4.827177E2,6.796662E1,3.506464E1,4.3943454E2,4.328315E1,1.4460664E1,5.3505955E1,1.7264679E1,1.7799963E1,9.169836E1,3.477362E2,1.0661637E1,3.2621513E1],"tree_param":{"num_deleted":"0","num_feature":"18","num_nodes":"15","size_leaf_vector":"1"}},{"base_weights":[1.9451005E-4,7.031508E-1,-1.9212337E-2,-1.08541146E-1,9.3670756E-1,3.0995929E-3,-8.8917977E-1,-2.6518656E-2,2.2057425E-2,5.566718E-2,-1.873809E-2,-1.4051999E-3,2.2716658E-2,3.2104955E-3,-5.0334156E-2],"categories":[],"categories_nodes":[],"categories_segments":[],"categories_sizes":[],"default_left":[0,0,0,0,0,0,0,0,0,0,0,0,0,0,0],"id":36,"left_children":[1,3,5,7,9,11,13,-1,-1,-1,-1,-1,-1,-1,-1],"loss_changes":[8.298997E0,3.2835093E0,1.1485097E1,1.2754852E0,3.4780102E0,8.12597E0,1.8161373E0,0E0,0E0,0E0,0E0,0E0,0E0,0E0,0E0],"parents":[2147483647,0,0,1,1,2,2,3,3,4,4,5,5,6,6],"right_children":[2,4,6,8,10,12,14,-1,-1,-1,-1,-1,-1,-1,-1],"split_conditions":[-2.0543334E0,-1.8103477E0,2.4173737E0,8.6731213E-1,1.2992792E0,1.3195549E0,6.2237555E-1,-2.6518656E-2,2.2057425E-2,5.566718E-2,-1.873809E-2,-1.4051999E-3,2.2716658E-2,3.2104955E-3,-5.0334156E-2],"split_indices":[4,10,17,16,16,16,6,0,0,0,0,0,0,0,0],"split_type":[0,0,0,0,0,0,0,0,0,0,0,0,0,0,0],"sum_hessian":[6.0133057E2,1.534711E1,5.8598346E2,3.453184E0,1.1893926E1,5.721901E2,1.3793387E1,2.0766354E0,1.3765486E0,1.0682472E1,1.2114533E0,5.3585114E2,3.6338943E1,1.4698598E0,1.2323527E1],"tree_param":{"num_deleted":"0","num_feature":"18","num_nodes":"15","size_leaf_vector":"1"}},{"base_weights":[3.06453E-3,2.3299797E-1,-1.15278035E-1,-5.916623E-2,2.6407394E-1,-2.409772E-1,1.8778168E-1,1.6558887E-2,-6.8165073E-3,2.195532E-2,-1.4751061E-2,3.8260195E-2,1.1765534E-3],"categories":[],"categories_nodes":[],"categories_segments":[],"categories_sizes":[],"default_left":[0,0,0,0,0,0,0,0,0,0,0,0,0],"id":37,"left_children":[1,3,5,-1,7,9,11,-1,-1,-1,-1,-1,-1],"loss_changes":[1.622939E1,9.146504E0,1.5029654E1,0E0,5.420416E0,1.035507E1,1.0867432E1,0E0,0E0,0E0,0E0,0E0,0E0],"parents":[2147483647,0,0,1,1,2,2,4,4,5,5,6,6],"right_children":[2,4,6,-1,8,10,12,-1,-1,-1,-1,-1,-1],"split_conditions":[-2.912287E-1,-1.1674007E0,3.6044043E-1,-5.916623E-2,-3.4835417E-2,-1.0539278E0,6.297358E-1,1.6558887E-2,-6.8165073E-3,2.195532E-2,-1.4751061E-2,3.8260195E-2,1.1765534E-3],"split_indices":[2,9,12,0,13,5,13,0,0,0,0,0,0],"split_type":[0,0,0,0,0,0,0,0,0,0,0,0,0],"sum_hessian":[5.9400977E2,2.0179967E2,3.9221008E2,3.4675133E0,1.9833215E2,2.7760394E2,1.14606125E2,1.702265E2,2.810565E1,1.977554E1,2.578284E2,2.4435537E1,9.017059E1],"tree_param":{"num_deleted":"0","num_feature":"18","num_nodes":"13","size_leaf_vector":"1"}},{"base_weights":[-2.0007648E-4,-6.0337674E-2,1.5044553E-2,-3.8404682E-1,5.8163397E-2,-2.3910716E-2,7.112878E-2,2.055705E-2,8.912794E-5],"categories":[],"categories_nodes":[],"categories_segments":[],"categories_sizes":[],"default_left":[0,0,0,0,0,0,0,0,0],"id":38,"left_children":[1,-1,3,5,7,-1,-1,-1,-1],"loss_changes":[1.0691233E1,0E0,9.75605E0,9.98427E0,1.0173013E1,0E0,0E0,0E0,0E0],"parents":[2147483647,0,0,2,2,3,3,4,4],"right_children":[2,-1,4,6,8,-1,-1,-1,-1],"split_conditions":[-1.1674007E0,-6.0337674E-2,-9.7070754E-1,-5.5711323E-1,-7.732363E-1,-2.3910716E-2,7.112878E-2,2.055705E-2,8.912794E-5],"split_indices":[9,0,6,7,7,0,0,0,0],"split_type":[0,0,0,0,0,0,0,0,0],"sum_hessian":[5.727858E2,6.253405E0,5.665324E2,5.42441E1,5.122883E2,5.2308258E1,1.9358394E0,6.944644E1,4.4284186E2],"tree_param":{"num_deleted":"0","num_feature":"18","num_nodes":"9","size_leaf_vector":"1"}},{"base_weights":[-2.3188189E-2,4.4416278E-3,-6.469576E-1,-2.9644022E-2,3.662305E-1,-6.2021714E-2,-4.1757888E-1,2.8126186E-3,-1.2159356E-2,2.3733316E-2,-2.2887768E-2,-4.332083E-2,4.563952E-3],"categories":[],"categories_nodes":[],"categories_segments":[],"categories_sizes":[],"default_left":[0,0,0,0,0,0,0,0,0,0,0,0,0],"id":39,"left_children":[1,3,5,7,9,-1,11,-1,-1,-1,-1,-1,-1],"loss_changes":[1.0359404E1,7.106882E0,2.7862816E0,9.644938E0,4.6540856E0,0E0,4.727662E0,0E0,0E0,0E0,0E0,0E0,0E0],"parents":[2147483647,0,0,1,1,2,2,3,3,4,4,6,6],"right_children":[2,4,6,8,10,-1,12,-1,-1,-1,-1,-1,-1],"split_conditions":[1.855874E0,8.8705206E-1,-4.7958824E-1,2.0002605E-1,5.28286E-1,-6.2021714E-2,2.0166345E0,2.8126186E-3,-1.2159356E-2,2.3733316E-2,-2.2887768E-2,-4.332083E-2,4.563952E-3],"split_indices":[3,10,9,3,1,0,5,0,0,0,0,0,0],"split_type":[0,0,0,0,0,0,0,0,0,0,0,0,0],"sum_hessian":[5.961858E2,5.716951E2,2.4490627E1,5.230574E2,4.8637775E1,5.4767494E0,1.9013878E1,3.732059E2,1.4985147E2,4.3463337E1,5.1744366E0,9.8338175E0,9.180061E0],"tree_param":{"num_deleted":"0","num_feature":"18","num_nodes":"13","size_leaf_vector":"1"}},{"base_weights":[2.0810308E-2,3.070447E-1,-3.855525E-2,5.48642E-1,1.5743658E-1,-1.3961041E-1,8.623523E-2,5.218045E-3,4.5135874E-2,-3.500128E-3,2.7618108E-2,1.035809E-2,-1.3444957E-2,7.6839016E-3,-2.9561544E-2],"categories":[],"categories_nodes":[],"categories_segments":[],"categories_sizes":[],"default_left":[0,0,0,0,0,0,0,0,0,0,0,0,0,0,0],"id":40,"left_children":[1,3,5,7,9,11,13,-1,-1,-1,-1,-1,-1,-1,-1],"loss_changes":[1.0125207E1,3.5429792E0,6.224666E0,5.859771E0,5.9141235E0,1.2292584E1,1.0118222E1,0E0,0E0,0E0,0E0,0E0,0E0,0E0,0E0],"parents":[2147483647,0,0,1,1,2,2,3,3,4,4,5,5,6,6],"right_children":[2,4,6,8,10,12,14,-1,-1,-1,-1,-1,-1,-1,-1],"split_conditions":[-5.036107E-1,-2.5489616E-1,-1.19889036E-1,-1.0144241E0,-2.4268761E-1,-7.220609E-1,1.855874E0,5.218045E-3,4.5135874E-2,-3.500128E-3,2.7618108E-2,1.035809E-2,-1.3444957E-2,7.6839016E-3,-2.9561544E-2],"split_indices":[11,12,6,3,3,13,3,0,0,0,0,0,0,0,0],"split_type":[0,0,0,0,0,0,0,0,0,0,0,0,0,0,0],"sum_hessian":[5.925878E2,1.0136467E2,4.9122314E2,3.748912E1,6.3875546E1,2.7180136E2,2.1942178E2,1.7326113E1,2.0163008E1,4.0894043E1,2.2981504E1,7.344224E1,1.9835913E2,2.0039311E2,1.902868E1],"tree_param":{"num_deleted":"0","num_feature":"18","num_nodes":"15","size_leaf_vector":"1"}},{"base_weights":[-1.5252638E-3,2.770163E-2,-4.775875E-1,-3.6092624E-2,3.6381862E-1,5.0429285E-2,-6.0659933E-1,4.6712747E-3,-1.1062273E-2,3.5338007E-2,-9.235646E-3,-7.057222E-2,-2.1394067E-2],"categories":[],"categories_nodes":[],"categories_segments":[],"categories_sizes":[],"default_left":[0,0,0,0,0,0,0,0,0,0,0,0,0],"id":41,"left_children":[1,3,5,7,9,-1,11,-1,-1,-1,-1,-1,-1],"loss_changes":[8.229276E0,1.1925833E1,7.132951E0,1.1216093E1,1.687252E1,0E0,3.840063E0,0E0,0E0,0E0,0E0,0E0,0E0],"parents":[2147483647,0,0,1,1,2,2,3,3,4,4,6,6],"right_children":[2,4,6,8,10,-1,12,-1,-1,-1,-1,-1,-1],"split_conditions":[1.6242739E0,4.9123314E-1,-2.8328998E0,5.7487696E-2,1.1349745E0,5.0429285E-2,-1.2208161E0,4.6712747E-3,-1.1062273E-2,3.5338007E-2,-9.235646E-3,-7.057222E-2,-2.1394067E-2],"split_indices":[7,12,3,12,12,0,0,0,0,0,0,0,0],"split_type":[0,0,0,0,0,0,0,0,0,0,0,0,0],"sum_hessian":[5.8626196E2,5.530409E2,3.322109E1,4.6531943E2,8.772148E1,2.0470343E0,3.1174055E1,2.737683E2,1.915511E2,5.3910515E1,3.3810966E1,4.309472E0,2.6864584E1],"tree_param":{"num_deleted":"0","num_feature":"18","num_nodes":"13","size_leaf_vector":"1"}},{"base_weights":[1.274623E-2,2.9595602E-2,-5.551057E-1,-7.776784E-2,2.0536056E-1,-6.311758E-2,7.788956E-2,-2.3877828E-3,-5.3857755E-2,5.278343E-3,3.4074795E-2,-4.497201E-2,3.2459162E-2],"categories":[],"categories_nodes":[],"categories_segments":[],"categories_sizes":[],"default_left":[0,0,0,0,0,0,0,0,0,0,0,0,0],"id":42,"left_children":[1,3,5,7,9,-1,11,-1,-1,-1,-1,-1,-1],"loss_changes":[5.644819E0,1.0931434E1,7.822744E0,1.0605088E1,1.0289216E1,0E0,6.048892E0,0E0,0E0,0E0,0E0,0E0,0E0],"parents":[2147483647,0,0,1,1,2,2,3,3,4,4,6,6],"right_children":[2,4,6,8,10,-1,12,-1,-1,-1,-1,-1,-1],"split_conditions":[2.0814426E0,5.368451E-2,2.116369E-1,4.128798E-1,2.327002E-1,-6.311758E-2,5.5961573E-1,-2.3877828E-3,-5.3857755E-2,5.278343E-3,3.4074795E-2,-4.497201E-2,3.2459162E-2],"split_indices":[3,17,16,6,10,0,10,0,0,0,0,0,0],"split_type":[0,0,0,0,0,0,0,0,0,0,0,0,0],"sum_hessian":[5.927471E2,5.767574E2,1.5989633E1,3.5804156E2,2.1871584E2,7.156925E0,8.832707E0,3.4871725E2,9.324335E0,1.8200166E2,3.6714176E1,2.9819536E0,5.850754E0],"tree_param":{"num_deleted":"0","num_feature":"18","num_nodes":"13","size_leaf_vector":"1"}},{"base_weights":[1.9429689E-3,-1.4583297E-1,8.262952E-2,-1.722292E-1,1.0788318E0,1.1311604E-1,-6.682104E-1,-1.198953E-2,1.2510276E-2,2.7580077E-3,7.0446484E-2,-1.5641805E-3,1.2799484E-2,-1.6064446E-2,-6.0672294E-2],"categories":[],"categories_nodes":[],"categories_segments":[],"categories_sizes":[],"default_left":[0,0,0,0,0,0,0,0,0,0,0,0,0,0,0],"id":43,"left_children":[1,3,5,7,9,11,13,-1,-1,-1,-1,-1,-1,-1,-1],"loss_changes":[6.9174047E0,6.710639E0,8.627377E0,5.803271E0,1.2544322E0,7.505715E0,2.2350883E0,0E0,0E0,0E0,0E0,0E0,0E0,0E0,0E0],"parents":[2147483647,0,0,1,1,2,2,3,3,4,4,5,5,6,6],"right_children":[2,4,6,8,10,12,14,-1,-1,-1,-1,-1,-1,-1,-1],"split_conditions":[-4.7136664E-1,1.5485307E0,1.855874E0,9.541974E-1,-9.306101E-1,-2.6010603E-1,1.9913687E0,-1.198953E-2,1.2510276E-2,2.7580077E-3,7.0446484E-2,-1.5641805E-3,1.2799484E-2,-1.6064446E-2,-6.0672294E-2],"split_indices":[8,1,3,6,3,6,17,0,0,0,0,0,0,0,0],"split_type":[0,0,0,0,0,0,0,0,0,0,0,0,0,0,0],"sum_hessian":[5.7866675E2,2.0364601E2,3.7502072E2,2.0027045E2,3.3755739E0,3.61332E2,1.3688714E1,1.7323367E2,2.7036764E1,1.1815362E0,2.1940377E0,1.7974664E2,1.8158537E2,9.44912E0,4.2395945E0],"tree_param":{"num_deleted":"0","num_feature":"18","num_nodes":"15","size_leaf_vector":"1"}},{"base_weights":[-2.5371809E-2,7.189675E-1,-5.1535983E-2,-1.6117252E-2,8.468685E-1,-1.07065834E-1,2.109284E-1,5.062436E-2,-3.878726E-2,6.0189925E-3,-9.195221E-3,2.7685395E-2,-1.733959E-3],"categories":[],"categories_nodes":[],"categories_segments":[],"categories_sizes":[],"default_left":[0,0,0,0,0,0,0,0,0,0,0,0,0],"id":44,"left_children":[1,3,5,-1,7,9,11,-1,-1,-1,-1,-1,-1],"loss_changes":[1.1563285E1,3.009241E0,8.408965E0,0E0,5.7290688E0,8.356007E0,8.5428915E0,0E0,0E0,0E0,0E0,0E0,0E0],"parents":[2147483647,0,0,1,1,2,2,4,4,5,5,6,6],"right_children":[2,4,6,-1,8,10,12,-1,-1,-1,-1,-1,-1],"split_conditions":[-1.8325424E0,-3.4804285E0,6.668425E-1,-1.6117252E-2,5.3364724E-2,-7.732363E-1,2.514174E-1,5.062436E-2,-3.878726E-2,6.0189925E-3,-9.195221E-3,2.7685395E-2,-1.733959E-3],"split_indices":[4,2,2,0,12,7,12,0,0,0,0,0,0],"split_type":[0,0,0,0,0,0,0,0,0,0,0,0,0],"sum_hessian":[5.94274E2,1.9150965E1,5.7512305E2,1.8431052E0,1.730786E1,4.7549515E2,9.962791E1,1.610199E1,1.2058709E0,1.1960142E2,3.5589374E2,4.1233517E1,5.839439E1],"tree_param":{"num_deleted":"0","num_feature":"18","num_nodes":"13","size_leaf_vector":"1"}},{"base_weights":[2.189996E-2,4.1656286E-1,-2.0119878E-2,7.2267585E-2,1.3424607E-1,-1.5737197E-1,1.3917075E-1,1.2282286E-2,-4.975857E-2,4.87812E-2,-9.691073E-3,4.9239486E-3,6.2442083E-2],"categories":[],"categories_nodes":[],"categories_segments":[],"categories_sizes":[],"default_left":[0,0,0,0,0,0,0,0,0,0,0,0,0],"id":45,"left_children":[1,3,5,-1,7,9,11,-1,-1,-1,-1,-1,-1],"loss_changes":[9.754719E0,1.6086342E1,1.1604956E1,0E0,5.905357E0,1.1895049E1,1.08218E1,0E0,0E0,0E0,0E0,0E0,0E0],"parents":[2147483647,0,0,1,1,2,2,4,4,5,5,6,6],"right_children":[2,4,6,-1,8,10,12,-1,-1,-1,-1,-1,-1],"split_conditions":[-1.4520549E0,-7.262987E-1,-1.8607959E-1,7.2267585E-2,1.3580544E0,-1.6506784E0,1.9741049E0,1.2282286E-2,-4.975857E-2,4.87812E-2,-9.691073E-3,4.9239486E-3,6.2442083E-2],"split_indices":[16,6,6,0,12,1,12,0,0,0,0,0,0],"split_type":[0,0,0,0,0,0,0,0,0,0,0,0,0],"sum_hessian":[5.8431635E2,5.5597195E1,5.287192E2,1.1008258E1,4.4588936E1,2.8435E2,2.4436916E2,4.1378616E1,3.2103202E0,7.9740653E0,2.7637595E2,2.3686224E2,7.506908E0],"tree_param":{"num_deleted":"0","num_feature":"18","num_nodes":"13","size_leaf_vector":"1"}},{"base_weights":[2.1464808E-2,1.339881E-1,-9.325893E-2,5.431889E-4,3.1406018E-1,-2.9067433E-1,1.09746486E-1,-1.86951E-2,1.1771076E-2,1.1927614E-2,3.3754073E-2,2.832211E-2,-1.6393172E-2,8.169235E-3,-4.3266974E-2],"categories":[],"categories_nodes":[],"categories_segments":[],"categories_sizes":[],"default_left":[0,0,0,0,0,0,0,0,0,0,0,0,0,0,0],"id":46,"left_children":[1,3,5,7,9,11,13,-1,-1,-1,-1,-1,-1,-1,-1],"loss_changes":[7.5326815E0,7.0519967E0,1.1609936E1,1.508133E1,3.1592245E0,4.839925E0,7.533962E0,0E0,0E0,0E0,0E0,0E0,0E0,0E0,0E0],"parents":[2147483647,0,0,1,1,2,2,3,3,4,4,5,5,6,6],"right_children":[2,4,6,8,10,12,14,-1,-1,-1,-1,-1,-1,-1,-1],"split_conditions":[-1.0402481E-2,-4.2755926E-1,-2.0856586E-1,-2.4472398E-1,3.8523543E-1,-1.1730639E0,2.0247846E0,-1.86951E-2,1.1771076E-2,1.1927614E-2,3.3754073E-2,2.832211E-2,-1.6393172E-2,8.169235E-3,-4.3266974E-2],"split_indices":[4,4,6,17,17,6,0,0,0,0,0,0,0,0,0],"split_type":[0,0,0,0,0,0,0,0,0,0,0,0,0,0,0],"sum_hessian":[5.81234E2,2.9378635E2,2.8744766E2,1.6963461E2,1.2415173E2,1.4576106E2,1.4168658E2,6.4997444E1,1.0463717E2,1.0427937E2,1.9872356E1,5.3577557E0,1.404033E2,1.3518523E2,6.501368E0],"tree_param":{"num_deleted":"0","num_feature":"18","num_nodes":"15","size_leaf_vector":"1"}},{"base_weights":[3.8085166E-2,1.6379626E-1,-4.431792E-2,4.2205104E-1,4.8329618E-2,-4.8500258E-1,3.0123717E-3,5.191815E-2,1.2528746E-2,-1.5935447E-2,6.4771264E-3,-2.8723065E-2,3.831404E-2,1.801295E-2,-2.1216827E-3],"categories":[],"categories_nodes":[],"categories_segments":[],"categories_sizes":[],"default_left":[0,0,0,0,0,0,0,0,0,0,0,0,0,0,0],"id":47,"left_children":[1,3,5,7,9,11,13,-1,-1,-1,-1,-1,-1,-1,-1],"loss_changes":[6.147471E0,6.938255E0,7.5095396E0,7.2400923E0,4.903316E0,4.3274813E0,5.3034053E0,0E0,0E0,0E0,0E0,0E0,0E0,0E0,0E0],"parents":[2147483647,0,0,1,1,2,2,3,3,4,4,5,5,6,6],"right_children":[2,4,6,8,10,12,14,-1,-1,-1,-1,-1,-1,-1,-1],"split_conditions":[-4.0648848E-1,-5.2694637E-1,-9.587597E-1,-7.830451E-1,-1.1297121E0,7.36913E-1,-7.2385585E-1,5.191815E-2,1.2528746E-2,-1.5935447E-2,6.4771264E-3,-2.8723065E-2,3.831404E-2,1.801295E-2,-2.1216827E-3],"split_indices":[13,12,7,7,3,1,7,0,0,0,0,0,0,0,0],"split_type":[0,0,0,0,0,0,0,0,0,0,0,0,0,0,0],"sum_hessian":[5.905894E2,2.3393408E2,3.5665533E2,7.1189384E1,1.6274469E2,3.3898407E1,3.2275696E2,1.4268295E1,5.6921085E1,2.87327E1,1.34012E2,3.221599E1,1.6824155E0,3.589141E1,2.8686554E2],"tree_param":{"num_deleted":"0","num_feature":"18","num_nodes":"15","size_leaf_vector":"1"}},{"base_weights":[-1.6996399E-2,3.380114E-2,-2.658274E-1,3.232351E-1,-1.8329406E-2,-6.614274E-1,-7.759495E-2,-3.9812695E-2,1.8722795E-2,-5.211022E-3,7.3993425E-3,-4.2276837E-2,2.383178E-2,1.4701686E-2,-2.049334E-2],"categories":[],"categories_nodes":[],"categories_segments":[],"categories_sizes":[],"default_left":[0,0,0,0,0,0,0,0,0,0,0,0,0,0,0],"id":48,"left_children":[1,3,5,7,9,11,13,-1,-1,-1,-1,-1,-1,-1,-1],"loss_changes":[7.3406167E0,7.2897906E0,7.207426E0,4.4829597E0,5.839508E0,7.028266E0,8.532266E0,0E0,0E0,0E0,0E0,0E0,0E0,0E0,0E0],"parents":[2147483647,0,0,1,1,2,2,3,3,4,4,5,5,6,6],"right_children":[2,4,6,8,10,12,14,-1,-1,-1,-1,-1,-1,-1,-1],"split_conditions":[7.031857E-1,-5.036107E-1,1.0157537E0,-1.0646242E0,8.249519E-3,1.2725385E0,4.279512E-1,-3.9812695E-2,1.8722795E-2,-5.211022E-3,7.3993425E-3,-4.2276837E-2,2.383178E-2,1.4701686E-2,-2.049334E-2],"split_indices":[7,11,7,8,9,13,16,0,0,0,0,0,0,0,0],"split_type":[0,0,0,0,0,0,0,0,0,0,0,0,0,0,0],"sum_hessian":[5.7719836E2,4.7972693E2,9.747144E1,7.271635E1,4.070106E2,3.0443827E1,6.702762E1,2.459667E0,7.0256676E1,2.6904288E2,1.3796773E2,2.6501476E1,3.9423501E0,3.1552227E1,3.547539E1],"tree_param":{"num_deleted":"0","num_feature":"18","num_nodes":"15","size_leaf_vector":"1"}},{"base_weights":[-3.622768E-2,-1.8898457E-2,-6.492126E-1,-5.4487232E-2,3.801968E-1,-1.0692579E0,7.476822E-3,3.7207123E-2,-3.3906903E-3,3.966819E-2,7.873942E-3,-6.8665156E-4,-6.1335694E-2,-3.9372247E-2,3.1589918E-2],"categories":[],"categories_nodes":[],"categories_segments":[],"categories_sizes":[],"default_left":[0,0,0,0,0,0,0,0,0,0,0,0,0,0,0],"id":49,"left_children":[1,3,5,7,9,11,13,-1,-1,-1,-1,-1,-1,-1,-1],"loss_changes":[6.1193748E0,8.065064E0,4.4873385E0,5.551364E0,4.054607E0,1.4827099E0,3.9981356E0,0E0,0E0,0E0,0E0,0E0,0E0,0E0,0E0],"parents":[2147483647,0,0,1,1,2,2,3,3,4,4,5,5,6,6],"right_children":[2,4,6,8,10,12,14,-1,-1,-1,-1,-1,-1,-1,-1],"split_conditions":[2.0814426E0,9.343473E-1,5.9540653E-1,-1.672393E0,2.0114328E-1,-5.174975E-1,-9.6168804E-1,3.7207123E-2,-3.3906903E-3,3.966819E-2,7.873942E-3,-6.8665156E-4,-6.1335694E-2,-3.9372247E-2,3.1589918E-2],"split_indices":[3,11,11,15,4,15,15,0,0,0,0,0,0,0,0],"split_type":[0,0,0,0,0,0,0,0,0,0,0,0,0,0,0],"sum_hessian":[5.825185E2,5.676645E2,1.4854036E1,5.2221106E2,4.5453415E1,8.769032E0,6.085005E0,7.547781E0,5.1466327E2,1.4865341E1,3.0588074E1,1.3618731E0,7.407158E0,2.4913814E0,3.5936236E0],"tree_param":{"num_deleted":"0","num_feature":"18","num_nodes":"15","size_leaf_vector":"1"}},{"base_weights":[1.6532594E-2,6.377895E-3,7.657071E-1,3.112159E-1,-3.7038956E-2,1.0235524E0,-7.3653087E-3,-4.415473E-2,2.0196576E-2,-1.042669E-2,2.550191E-3,6.1793756E-2,1.5738692E-2],"categories":[],"categories_nodes":[],"categories_segments":[],"categories_sizes":[],"default_left":[0,0,0,0,0,0,0,0,0,0,0,0,0],"id":50,"left_children":[1,3,5,7,9,11,-1,-1,-1,-1,-1,-1,-1],"loss_changes":[4.3114424E0,7.5952997E0,2.023602E0,8.233999E0,7.5812836E0,3.7757826E-1,0E0,0E0,0E0,0E0,0E0,0E0,0E0],"parents":[2147483647,0,0,1,1,2,2,3,3,4,4,5,5],"right_children":[2,4,6,8,10,12,-1,-1,-1,-1,-1,-1,-1],"split_conditions":[3.264376E0,-1.2235978E0,1.8104947E-1,-1.4023963E0,-6.187887E-1,7.593676E-1,-7.3653087E-3,-4.415473E-2,2.0196576E-2,-1.042669E-2,2.550191E-3,6.1793756E-2,1.5738692E-2],"split_indices":[7,16,12,10,17,3,0,0,0,0,0,0,0],"split_type":[0,0,0,0,0,0,0,0,0,0,0,0,0],"sum_hessian":[5.765159E2,5.6993274E2,6.5831714E0,7.0571556E1,4.993612E2,5.12443E0,1.4587412E0,4.3920665E0,6.617949E1,1.6931903E2,3.3004218E2,3.2623885E0,1.8620417E0],"tree_param":{"num_deleted":"0","num_feature":"18","num_nodes":"13","size_leaf_vector":"1"}},{"base_weights":[4.4450695E-3,-1.1236847E-1,1.3138981E-1,-1.6039811E-2,-6.9062334E-1,9.2269056E-2,7.3051864E-1,3.5267703E-3,-1.2831305E-2,-1.41100725E-2,-5.6036122E-2,1.8373987E-2,-2.7290366E-3,4.1319847E-2,-1.5106502E-2],"categories":[],"categories_nodes":[],"categories_segments":[],"categories_sizes":[],"default_left":[0,0,0,0,0,0,0,0,0,0,0,0,0,0,0],"id":51,"left_children":[1,3,5,7,9,11,13,-1,-1,-1,-1,-1,-1,-1,-1],"loss_changes":[8.734758E0,1.6980114E1,6.4742455E0,5.530017E0,7.196541E0,1.082546E1,1.9873343E0,0E0,0E0,0E0,0E0,0E0,0E0,0E0,0E0],"parents":[2147483647,0,0,1,1,2,2,3,3,4,4,5,5,6,6],"right_children":[2,4,6,8,10,12,14,-1,-1,-1,-1,-1,-1,-1,-1],"split_conditions":[-2.0856586E-1,5.2093893E-1,1.5483441E0,-4.7588223E-1,-5.239395E-1,1.4554396E-1,2.8671124E0,3.5267703E-3,-1.2831305E-2,-1.41100725E-2,-5.6036122E-2,1.8373987E-2,-2.7290366E-3,4.1319847E-2,-1.5106502E-2],"split_indices":[6,4,13,7,6,7,6,0,0,0,0,0,0,0,0],"split_type":[0,0,0,0,0,0,0,0,0,0,0,0,0,0,0],"sum_hessian":[5.869137E2,3.053032E2,2.816105E2,2.6273596E2,4.2567234E1,2.6558948E2,1.6021029E1,1.934235E2,6.931247E1,2.2802565E1,1.9764668E1,9.2122185E1,1.734673E2,1.4931274E1,1.0897546E0],"tree_param":{"num_deleted":"0","num_feature":"18","num_nodes":"15","size_leaf_vector":"1"}},{"base_weights":[-2.5687397E-2,-6.497953E-2,2.769936E-1,2.3875613E-2,-2.3292987E-1,7.5553894E-1,-1.8547751E-1,-9.714928E-3,7.2590816E-3,1.6680492E-2,-1.7266568E-2,8.50955E-3,7.0361234E-2,-1.4330471E-2,3.9873865E-2],"categories":[],"categories_nodes":[],"categories_segments":[],"categories_sizes":[],"default_left":[0,0,0,0,0,0,0,0,0,0,0,0,0,0,0],"id":52,"left_children":[1,3,5,7,9,11,13,-1,-1,-1,-1,-1,-1,-1,-1],"loss_changes":[6.9182606E0,7.7300406E0,1.4973344E1,8.971926E0,1.1520994E1,1.22353325E1,3.6219532E0,0E0,0E0,0E0,0E0,0E0,0E0,0E0,0E0],"parents":[2147483647,0,0,1,1,2,2,3,3,4,4,5,5,6,6],"right_children":[2,4,6,8,10,12,14,-1,-1,-1,-1,-1,-1,-1,-1],"split_conditions":[1.2263E0,4.7470886E-2,1.60313E0,-4.3625063E-1,-4.6769658E-1,4.4528475E-1,2.3770907E0,-9.714928E-3,7.2590816E-3,1.6680492E-2,-1.7266568E-2,8.50955E-3,7.0361234E-2,-1.4330471E-2,3.9873865E-2],"split_indices":[0,10,0,8,12,12,13,0,0,0,0,0,0,0,0],"split_type":[0,0,0,0,0,0,0,0,0,0,0,0,0,0,0],"sum_hessian":[5.809788E2,5.152128E2,6.5765976E1,3.3711993E2,1.7809291E2,3.211612E1,3.3649857E1,1.1995304E2,2.1716687E2,2.9010904E1,1.49082E2,1.7664429E1,1.445169E1,3.1245317E1,2.4045384E0],"tree_param":{"num_deleted":"0","num_feature":"18","num_nodes":"15","size_leaf_vector":"1"}},{"base_weights":[-4.3752245E-4,1.1694002E0,-1.98721E-2,-0E0,7.5447544E-2,4.7499153E-1,-5.7578836E-2,-1.6048888E-3,3.2390196E-2,-3.7783794E-2,-1.8229693E-3],"categories":[],"categories_nodes":[],"categories_segments":[],"categories_sizes":[],"default_left":[0,0,0,0,0,0,0,0,0,0,0],"id":53,"left_children":[1,3,5,-1,-1,7,9,-1,-1,-1,-1],"loss_changes":[1.3143574E1,3.6435995E0,1.0690696E1,0E0,0E0,3.6348677E0,7.7686114E0,0E0,0E0,0E0,0E0],"parents":[2147483647,0,0,1,1,2,2,5,5,6,6],"right_children":[2,4,6,-1,-1,8,10,-1,-1,-1,-1],"split_conditions":[-1.672393E0,8.608498E-1,-1.1387177E0,-0E0,7.5447544E-2,-1.4737128E0,-8.912163E-1,-1.6048888E-3,3.2390196E-2,-3.7783794E-2,-1.8229693E-3],"split_indices":[15,16,12,0,0,10,12,0,0,0,0],"split_type":[0,0,0,0,0,0,0,0,0,0,0],"sum_hessian":[5.81147E2,8.44582E0,5.727012E2,2.1725576E0,6.2732625E0,3.9539204E1,5.33162E2,1.0109665E1,2.9429539E1,1.449568E1,5.186663E2],"tree_param":{"num_deleted":"0","num_feature":"18","num_nodes":"11","size_leaf_vector":"1"}},{"base_weights":[-5.878109E-3,1.0668464E-2,-8.5542136E-1,-3.6131524E-2,4.7328994E-1,2.220275E-2,-1.061358E0,1.882983E-3,-6.001358E-3,-2.225844E-3,3.473088E-2,-6.613153E-2,-2.978999E-2],"categories":[],"categories_nodes":[],"categories_segments":[],"categories_sizes":[],"default_left":[0,0,0,0,0,0,0,0,0,0,0,0,0],"id":54,"left_children":[1,3,5,7,9,-1,11,-1,-1,-1,-1,-1,-1],"loss_changes":[8.249739E0,1.2401812E1,3.5336819E0,3.2218723E0,6.1279297E0,0E0,2.4141407E-1,0E0,0E0,0E0,0E0,0E0,0E0],"parents":[2147483647,0,0,1,1,2,2,3,3,4,4,6,6],"right_children":[2,4,6,8,10,-1,12,-1,-1,-1,-1,-1,-1],"split_conditions":[2.0247846E0,7.6011795E-1,-8.8245547E-1,-6.407384E-2,-3.3982122E-1,2.220275E-2,2.0166345E0,1.882983E-3,-6.001358E-3,-2.225844E-3,3.473088E-2,-6.613153E-2,-2.978999E-2],"split_indices":[0,11,6,4,15,0,5,0,0,0,0,0,0],"split_type":[0,0,0,0,0,0,0,0,0,0,0,0,0],"sum_hessian":[5.792177E2,5.6900494E2,1.021279E1,5.17372E2,5.1632954E1,1.1724813E0,9.040309E0,2.7492145E2,2.4245055E2,1.556498E1,3.6067974E1,4.4738283E0,4.56648E0],"tree_param":{"num_deleted":"0","num_feature":"18","num_nodes":"13","size_leaf_vector":"1"}},{"base_weights":[2.6115984E-2,3.7853286E-2,-1.120044E0,5.8596984E-2,-4.66248E-1,-6.1366495E-2,-1.400813E-2,2.1622765E-3,3.644609E-2,-3.865322E-2,2.813424E-2],"categories":[],"categories_nodes":[],"categories_segments":[],"categories_sizes":[],"default_left":[0,0,0,0,0,0,0,0,0,0,0],"id":55,"left_children":[1,3,5,7,9,-1,-1,-1,-1,-1,-1],"loss_changes":[7.8889546E0,6.1181674E0,4.066086E-2,5.697882E0,7.7474246E0,0E0,0E0,0E0,0E0,0E0,0E0],"parents":[2147483647,0,0,1,1,2,2,3,3,4,4],"right_children":[2,4,6,8,10,-1,-1,-1,-1,-1,-1],"split_conditions":[2.29905E0,1.7980324E0,5.795008E-1,2.114008E0,1.8173761E0,-6.1366495E-2,-1.400813E-2,2.1622765E-3,3.644609E-2,-3.865322E-2,2.813424E-2],"split_indices":[0,3,1,10,0,0,0,0,0,0,0],"split_type":[0,0,0,0,0,0,0,0,0,0,0],"sum_hessian":[5.903089E2,5.8536865E2,4.9402723E0,5.632722E2,2.209644E1,3.8660486E0,1.0742241E0,5.518478E2,1.1424456E1,1.7287392E1,4.8090477E0],"tree_param":{"num_deleted":"0","num_feature":"18","num_nodes":"11","size_leaf_vector":"1"}},{"base_weights":[1.8298129E-2,5.486954E-2,-3.2818425E-1,-8.076112E-2,1.1577781E-1,1.5038893E-1,-5.6714493E-1,1.3768486E-3,-2.5753522E-2,-2.4364402E-3,1.1680759E-2,-3.876498E-2,2.7925363E-2,-4.3849178E-2,-1.3022958E-2],"categories":[],"categories_nodes":[],"categories_segments":[],"categories_sizes":[],"default_left":[0,0,0,0,0,0,0,0,0,0,0,0,0,0,0],"id":56,"left_children":[1,3,5,7,9,11,13,-1,-1,-1,-1,-1,-1,-1,-1],"loss_changes":[7.4697285E0,4.432499E0,6.5578647E0,7.865032E0,7.2046695E0,7.732376E0,3.2549467E0,0E0,0E0,0E0,0E0,0E0,0E0,0E0,0E0],"parents":[2147483647,0,0,1,1,2,2,3,3,4,4,5,5,6,6],"right_children":[2,4,6,8,10,12,14,-1,-1,-1,-1,-1,-1,-1,-1],"split_conditions":[1.1665673E0,-5.515117E-1,-5.174975E-1,-7.0226413E-1,-4.4174013E-1,-6.827428E-2,3.6324793E-1,1.3768486E-3,-2.5753522E-2,-2.4364402E-3,1.1680759E-2,-3.876498E-2,2.7925363E-2,-4.3849178E-2,-1.3022958E-2],"split_indices":[3,8,15,8,17,17,17,0,0,0,0,0,0,0,0],"split_type":[0,0,0,0,0,0,0,0,0,0,0,0,0,0,0],"sum_hessian":[5.892333E2,5.339996E2,5.5233707E1,1.6487898E2,3.691206E2,1.8378584E1,3.685512E1,1.3253644E2,3.2342552E1,1.5394452E2,2.151761E2,5.27322E0,1.3105365E1,1.7246107E1,1.9609016E1],"tree_param":{"num_deleted":"0","num_feature":"18","num_nodes":"15","size_leaf_vector":"1"}},{"base_weights":[-9.7159045E-3,3.1701738E-1,-4.3351084E-2,6.454866E-1,-4.467825E-1,-6.645472E-2,8.442845E-1,-3.675143E-2,3.5638656E-2,1.800123E-2,-4.6076182E-2,-3.4649953E-2,-2.2523382E-3,5.7688333E-2,-1.0316486E-2],"categories":[],"categories_nodes":[],"categories_segments":[],"categories_sizes":[],"default_left":[0,0,0,0,0,0,0,0,0,0,0,0,0,0,0],"id":57,"left_children":[1,3,5,7,9,11,13,-1,-1,-1,-1,-1,-1,-1,-1],"loss_changes":[6.405302E0,1.3945999E1,1.0862231E1,4.0990963E0,6.840436E0,6.846937E0,4.69841E0,0E0,0E0,0E0,0E0,0E0,0E0,0E0,0E0],"parents":[2147483647,0,0,1,1,2,2,3,3,4,4,5,5,6,6],"right_children":[2,4,6,8,10,12,14,-1,-1,-1,-1,-1,-1,-1,-1],"split_conditions":[-1.2934245E0,7.525344E-1,1.7935399E0,-2.3051238E0,-5.9527576E-1,-1.1609982E0,1.1228372E0,-3.675143E-2,3.5638656E-2,1.800123E-2,-4.6076182E-2,-3.4649953E-2,-2.2523382E-3,5.7688333E-2,-1.0316486E-2],"split_indices":[13,16,16,16,7,7,13,0,0,0,0,0,0,0,0],"split_type":[0,0,0,0,0,0,0,0,0,0,0,0,0,0,0],"sum_hessian":[5.830838E2,5.335857E1,5.297252E2,3.7512352E1,1.5846218E1,5.1729865E2,1.2426608E1,1.2131026E0,3.6299248E1,5.881611E0,9.964607E0,1.5900426E1,5.013982E2,9.596687E0,2.829921E0],"tree_param":{"num_deleted":"0","num_feature":"18","num_nodes":"15","size_leaf_vector":"1"}},{"base_weights":[3.7078574E-2,1.1223798E-1,-1.8815075E-1,-1.7402655E-3,2.51344E-1,-5.1325E-1,-4.021804E-2,7.2879395E-3,-2.1230198E-2,1.6301852E-2,-1.1491661E-2,-2.8051019E-2,3.1421483E-2,3.8298683E-3,-5.6654032E-2],"categories":[],"categories_nodes":[],"categories_segments":[],"categories_sizes":[],"default_left":[0,0,0,0,0,0,0,0,0,0,0,0,0,0,0],"id":58,"left_children":[1,3,5,7,9,11,13,-1,-1,-1,-1,-1,-1,-1,-1],"loss_changes":[9.961371E0,7.0266304E0,6.997293E0,1.526537E1,7.2464094E0,2.8381739E0,1.3262172E1,0E0,0E0,0E0,0E0,0E0,0E0,0E0,0E0],"parents":[2147483647,0,0,1,1,2,2,3,3,4,4,5,5,6,6],"right_children":[2,4,6,8,10,12,14,-1,-1,-1,-1,-1,-1,-1,-1],"split_conditions":[4.7805253E-1,-2.6010603E-1,-2.0856586E-1,-5.0086397E-1,7.196591E-1,3.2311203E0,1.7708942E0,7.2879395E-3,-2.1230198E-2,1.6301852E-2,-1.1491661E-2,-2.8051019E-2,3.1421483E-2,3.8298683E-3,-5.6654032E-2],"split_indices":[4,6,6,7,1,1,7,0,0,0,0,0,0,0,0],"split_type":[0,0,0,0,0,0,0,0,0,0,0,0,0,0,0],"sum_hessian":[5.866528E2,4.4057712E2,1.4607567E2,2.4230783E2,1.982693E2,4.4698994E1,1.0137667E2,1.7995616E2,6.235167E1,1.720866E2,2.618272E1,4.347605E1,1.2229425E0,9.234444E1,9.032232E0],"tree_param":{"num_deleted":"0","num_feature":"18","num_nodes":"15","size_leaf_vector":"1"}},{"base_weights":[-4.45249E-2,-2.8230968E-1,-1.14176255E-2,-5.6126547E-1,-0E0,6.1510507E-2,-1.9679932E-1,-4.1674014E-2,4.108481E-2,2.1062277E-2,-1.6531944E-2,-3.1454977E-2,4.6699955E-3,-3.1811018E-2,-1.1372552E-3],"categories":[],"categories_nodes":[],"categories_segments":[],"categories_sizes":[],"default_left":[0,0,0,0,0,0,0,0,0,0,0,0,0,0,0],"id":59,"left_children":[1,3,5,7,9,11,13,-1,-1,-1,-1,-1,-1,-1,-1],"loss_changes":[4.565086E0,5.605008E0,6.975478E0,1.4143352E1,5.1865063E0,8.138346E0,1.1067703E1,0E0,0E0,0E0,0E0,0E0,0E0,0E0,0E0],"parents":[2147483647,0,0,1,1,2,2,3,3,4,4,5,5,6,6],"right_children":[2,4,6,8,10,12,14,-1,-1,-1,-1,-1,-1,-1,-1],"split_conditions":[-1.2079006E0,-1.4869748E-1,3.1200126E-1,1.3594549E0,5.503391E-2,-1.1609982E0,4.128798E-1,-4.1674014E-2,4.108481E-2,2.1062277E-2,-1.6531944E-2,-3.1454977E-2,4.6699955E-3,-3.1811018E-2,-1.1372552E-3],"split_indices":[0,17,7,8,8,7,6,0,0,0,0,0,0,0,0],"split_type":[0,0,0,0,0,0,0,0,0,0,0,0,0,0,0],"sum_hessian":[5.8302496E2,6.996574E1,5.130592E2,3.474671E1,3.521903E1,3.6830057E2,1.4475864E2,2.9424566E1,5.322146E0,1.5405627E1,1.98134E1,1.529091E1,3.5300964E2,4.0154327E1,1.0460431E2],"tree_param":{"num_deleted":"0","num_feature":"18","num_nodes":"15","size_leaf_vector":"1"}},{"base_weights":[3.0527823E-2,3.1015915E-3,3.3344623E-1,5.359172E-2,-3.4157452E-1,-6.443068E-1,5.1465154E-1,7.5655463E-3,-1.105896E-2,-2.9525498E-2,1.0092086E-2,-5.1576346E-2,1.2814199E-2,3.709198E-2,1.3413971E-3],"categories":[],"categories_nodes":[],"categories_segments":[],"categories_sizes":[],"default_left":[0,0,0,0,0,0,0,0,0,0,0,0,0,0,0],"id":60,"left_children":[1,3,5,7,9,11,13,-1,-1,-1,-1,-1,-1,-1,-1],"loss_changes":[4.611357E0,8.936511E0,8.489369E0,1.2096912E1,9.028164E0,2.9811451E0,4.286332E0,0E0,0E0,0E0,0E0,0E0,0E0,0E0,0E0],"parents":[2147483647,0,0,1,1,2,2,3,3,4,4,5,5,6,6],"right_children":[2,4,6,8,10,12,14,-1,-1,-1,-1,-1,-1,-1,-1],"split_conditions":[1.4982055E0,5.730928E-1,-1.5514158E0,3.616764E-1,6.668425E-1,1.5771321E0,3.5501677E-1,7.5655463E-3,-1.105896E-2,-2.9525498E-2,1.0092086E-2,-5.1576346E-2,1.2814199E-2,3.709198E-2,1.3413971E-3],"split_indices":[17,7,1,3,2,3,3,0,0,0,0,0,0,0,0],"split_type":[0,0,0,0,0,0,0,0,0,0,0,0,0,0,0],"sum_hessian":[5.582317E2,5.131146E2,4.5117035E1,4.4854398E2,6.457064E1,6.5682654E0,3.854877E1,3.314727E2,1.1707129E2,4.4351067E1,2.0219576E1,4.569291E0,1.9989744E0,2.580515E1,1.2743621E1],"tree_param":{"num_deleted":"0","num_feature":"18","num_nodes":"15","size_leaf_vector":"1"}},{"base_weights":[4.0247E-2,-9.5500237E-1,5.246857E-2,-5.5216666E-2,-1.6209163E-2,6.0352422E-2,-8.353741E-1,5.0043776E-3,-6.7097084E-3,-5.7969313E-2,1.4019753E-3],"categories":[],"categories_nodes":[],"categories_segments":[],"categories_sizes":[],"default_left":[0,0,0,0,0,0,0,0,0,0,0],"id":61,"left_children":[1,3,5,-1,-1,7,9,-1,-1,-1,-1],"loss_changes":[6.829111E0,1.4005423E-1,3.8852768E0,0E0,0E0,4.3008494E0,1.5095432E0,0E0,0E0,0E0,0E0],"parents":[2147483647,0,0,1,1,2,2,5,5,6,6],"right_children":[2,4,6,-1,-1,8,10,-1,-1,-1,-1],"split_conditions":[-1.1674007E0,5.4855996E-1,3.8759575E0,-5.5216666E-2,-1.6209163E-2,6.725401E-1,2.7008882E0,5.0043776E-3,-6.7097084E-3,-5.7969313E-2,1.4019753E-3],"split_indices":[9,15,9,0,0,7,7,0,0,0,0],"split_type":[0,0,0,0,0,0,0,0,0,0,0],"sum_hessian":[5.63743E2,5.8036847E0,5.579393E2,3.9576504E0,1.8460342E0,5.5406396E2,3.8753123E0,4.6092252E2,9.314146E1,2.6528182E0,1.2224939E0],"tree_param":{"num_deleted":"0","num_feature":"18","num_nodes":"11","size_leaf_vector":"1"}},{"base_weights":[-2.0192953E-2,-3.8313624E-2,5.745566E-1,-1.5099646E-1,3.876449E-2,9.7616017E-1,9.975999E-2,-1.664468E-2,-2.0608816E-3,7.7809296E-3,-6.3234563E-3,1.5054586E-2,6.1611094E-2,-2.034617E-2,6.5998465E-2],"categories":[],"categories_nodes":[],"categories_segments":[],"categories_sizes":[],"default_left":[0,0,0,0,0,0,0,0,0,0,0,0,0,0,0],"id":62,"left_children":[1,3,5,7,9,11,13,-1,-1,-1,-1,-1,-1,-1,-1],"loss_changes":[6.1849875E0,4.888456E0,3.0278692E0,4.5126367E0,6.458457E0,1.0239887E0,6.190977E0,0E0,0E0,0E0,0E0,0E0,0E0,0E0,0E0],"parents":[2147483647,0,0,1,1,2,2,3,3,4,4,5,5,6,6],"right_children":[2,4,6,8,10,12,14,-1,-1,-1,-1,-1,-1,-1,-1],"split_conditions":[1.981685E0,-3.48291E-1,-1.3150551E-2,-4.777394E-2,1.496247E-1,-8.842078E-1,1.3493848E0,-1.664468E-2,-2.0608816E-3,7.7809296E-3,-6.3234563E-3,1.5054586E-2,6.1611094E-2,-2.034617E-2,6.5998465E-2],"split_indices":[10,14,14,11,5,9,14,0,0,0,0,0,0,0,0],"split_type":[0,0,0,0,0,0,0,0,0,0,0,0,0,0,0],"sum_hessian":[5.7582544E2,5.5987115E2,1.5954286E1,2.2754887E2,3.3232227E2,7.957184E0,7.997102E0,8.453537E1,1.430135E2,1.9504721E2,1.3727505E2,2.8939922E0,5.0631914E0,6.0637374E0,1.9333644E0],"tree_param":{"num_deleted":"0","num_feature":"18","num_nodes":"15","size_leaf_vector":"1"}},{"base_weights":[-9.766095E-3,-7.085762E-1,1.4978147E-2,-2.9160812E-1,-1.1123729E0,3.8494125E-2,-4.3321517E-1,1.8019391E-2,-2.9800927E-2,-6.29325E-2,-4.5212912E-3,-1.05351005E-2,4.5330115E-3,-3.279649E-2,6.9538215E-3],"categories":[],"categories_nodes":[],"categories_segments":[],"categories_sizes":[],"default_left":[0,0,0,0,0,0,0,0,0,0,0,0,0,0,0],"id":63,"left_children":[1,3,5,7,9,11,13,-1,-1,-1,-1,-1,-1,-1,-1],"loss_changes":[1.0189559E1,2.928402E0,5.937433E0,2.4993713E0,1.2104416E0,7.0066113E0,3.7195544E0,0E0,0E0,0E0,0E0,0E0,0E0,0E0,0E0],"parents":[2147483647,0,0,1,1,2,2,3,3,4,4,5,5,6,6],"right_children":[2,4,6,8,10,12,14,-1,-1,-1,-1,-1,-1,-1,-1],"split_conditions":[-1.2437487E0,-2.8089985E-2,1.7363081E0,-1.2480643E0,3.4063414E-1,-8.301251E-1,2.299055E0,1.8019391E-2,-2.9800927E-2,-6.29325E-2,-4.5212912E-3,-1.05351005E-2,4.5330115E-3,-3.279649E-2,6.9538215E-3],"split_indices":[17,2,3,13,2,9,5,0,0,0,0,0,0,0,0],"split_type":[0,0,0,0,0,0,0,0,0,0,0,0,0,0,0],"sum_hessian":[5.836555E2,1.9153063E1,5.6450244E2,1.0391952E1,8.76111E0,5.3744104E2,2.706143E1,3.1445222E0,7.247429E0,7.375886E0,1.3852246E0,9.217369E1,4.4526733E2,1.9500969E1,7.560461E0],"tree_param":{"num_deleted":"0","num_feature":"18","num_nodes":"15","size_leaf_vector":"1"}},{"base_weights":[-2.0759227E-2,-3.7818514E-2,5.168717E-1,2.2637683E-1,-8.8939786E-2,-6.5497905E-1,7.7404034E-1,-6.3200325E-2,1.3756369E-2,-9.370666E-3,2.3721233E-3,-5.8851477E-2,2.3375377E-3,4.9979907E-2,-4.720971E-2],"categories":[],"categories_nodes":[],"categories_segments":[],"categories_sizes":[],"default_left":[0,0,0,0,0,0,0,0,0,0,0,0,0,0,0],"id":64,"left_children":[1,3,5,7,9,11,13,-1,-1,-1,-1,-1,-1,-1,-1],"loss_changes":[5.3099217E0,7.6407394E0,5.879674E0,6.904842E0,6.3974295E0,1.5135862E0,6.8075514E0,0E0,0E0,0E0,0E0,0E0,0E0,0E0,0E0],"parents":[2147483647,0,0,1,1,2,2,3,3,4,4,5,5,6,6],"right_children":[2,4,6,8,10,12,14,-1,-1,-1,-1,-1,-1,-1,-1],"split_conditions":[2.141648E0,-4.6769658E-1,-3.3982122E-1,-2.6587374E0,1.1488128E-1,-2.7013748E0,2.4605322E0,-6.3200325E-2,1.3756369E-2,-9.370666E-3,2.3721233E-3,-5.8851477E-2,2.3375377E-3,4.9979907E-2,-4.720971E-2],"split_indices":[11,12,15,5,12,12,12,0,0,0,0,0,0,0,0],"split_type":[0,0,0,0,0,0,0,0,0,0,0,0,0,0,0],"sum_hessian":[5.810445E2,5.6425604E2,1.6788458E1,9.060808E1,4.7364795E2,2.67292E0,1.4115538E1,2.015378E0,8.85927E1,2.752589E2,1.9838905E2,1.226011E0,1.446909E0,1.2898725E1,1.2168133E0],"tree_param":{"num_deleted":"0","num_feature":"18","num_nodes":"15","size_leaf_vector":"1"}},{"base_weights":[-2.74555E-2,-1.5739661E-1,1.01567335E-1,-5.154394E-1,-4.989502E-2,-2.9193806E-3,3.156358E-1,4.493576E-2,-2.8704172E-2,1.7422745E-3,-2.2499898E-2,9.769532E-3,-1.6473705E-2,7.105702E-2,1.067508E-2],"categories":[],"categories_nodes":[],"categories_segments":[],"categories_sizes":[],"default_left":[0,0,0,0,0,0,0,0,0,0,0,0,0,0,0],"id":65,"left_children":[1,3,5,7,9,11,13,-1,-1,-1,-1,-1,-1,-1,-1],"loss_changes":[9.737806E0,1.1061493E1,6.5415316E0,6.00119E0,7.6515136E0,1.2786228E1,1.0347426E1,0E0,0E0,0E0,0E0,0E0,0E0,0E0,0E0],"parents":[2147483647,0,0,1,1,2,2,3,3,4,4,5,5,6,6],"right_children":[2,4,6,8,10,12,14,-1,-1,-1,-1,-1,-1,-1,-1],"split_conditions":[-2.0165543E-1,-4.3793103E-1,5.053086E-1,-1.0554731E0,1.0889932E0,-2.57072E-1,4.1149423E-1,4.493576E-2,-2.8704172E-2,1.7422745E-3,-2.2499898E-2,9.769532E-3,-1.6473705E-2,7.105702E-2,1.067508E-2],"split_indices":[17,5,0,6,13,13,13,0,0,0,0,0,0,0,0],"split_type":[0,0,0,0,0,0,0,0,0,0,0,0,0,0,0],"sum_hessian":[5.78542E2,2.8852182E2,2.9002017E2,6.553322E1,2.2298862E2,1.9524191E2,9.477826E1,1.9711199E0,6.35621E1,1.8456197E2,3.8426655E1,1.215329E2,7.370901E1,6.8407E0,8.793755E1],"tree_param":{"num_deleted":"0","num_feature":"18","num_nodes":"15","size_leaf_vector":"1"}},{"base_weights":[5.4984685E-2,-4.6907082E-1,7.1102865E-2,3.7821263E-2,-6.786074E-1,5.4765224E-1,4.8708137E-2,-2.1457355E-3,-4.813583E-2,4.769773E-2,-1.1946231E-2,-3.9788157E-2,2.9780231E-3],"categories":[],"categories_nodes":[],"categories_segments":[],"categories_sizes":[],"default_left":[0,0,0,0,0,0,0,0,0,0,0,0,0],"id":66,"left_children":[1,3,5,-1,7,9,11,-1,-1,-1,-1,-1,-1],"loss_changes":[4.9107466E0,4.9522424E0,5.9522114E0,0E0,2.636757E0,8.320538E0,4.938358E0,0E0,0E0,0E0,0E0,0E0,0E0],"parents":[2147483647,0,0,1,1,2,2,4,4,5,5,6,6],"right_children":[2,4,6,-1,8,10,12,-1,-1,-1,-1,-1,-1],"split_conditions":[-1.263027E0,-3.7676942E-1,-1.1088252E0,3.7821263E-2,7.576117E-2,4.194392E-1,-1.1674007E0,-2.1457355E-3,-4.813583E-2,4.769773E-2,-1.1946231E-2,-3.9788157E-2,2.9780231E-3],"split_indices":[17,2,17,0,16,16,9,0,0,0,0,0,0],"split_type":[0,0,0,0,0,0,0,0,0,0,0,0,0],"sum_hessian":[5.811351E2,1.6316769E1,5.648183E2,1.9317126E0,1.4385056E1,2.4098286E1,5.4072003E2,4.9075246E0,9.4775305E0,1.5833771E1,8.264514E0,5.8260517E0,5.34894E2],"tree_param":{"num_deleted":"0","num_feature":"18","num_nodes":"13","size_leaf_vector":"1"}},{"base_weights":[-2.8765965E-2,-1.0874697E-1,2.3564108E-1,-5.560367E-2,-7.5963855E-1,3.037493E-1,-6.507897E-1,-6.4345E-3,2.2743138E-2,-5.7337683E-2,-4.809476E-3,5.438417E-3,2.9240107E-2,-1.0537365E-3,-5.0537925E-2],"categories":[],"categories_nodes":[],"categories_segments":[],"categories_sizes":[],"default_left":[0,0,0,0,0,0,0,0,0,0,0,0,0,0,0],"id":67,"left_children":[1,3,5,7,9,11,13,-1,-1,-1,-1,-1,-1,-1,-1],"loss_changes":[1.2151103E1,1.5153122E1,8.21229E0,1.5304826E1,8.270723E0,6.695078E0,2.0803013E0,0E0,0E0,0E0,0E0,0E0,0E0,0E0,0E0],"parents":[2147483647,0,0,1,1,2,2,3,3,4,4,5,5,6,6],"right_children":[2,4,6,8,10,12,14,-1,-1,-1,-1,-1,-1,-1,-1],"split_conditions":[2.327002E-1,5.5921465E-1,1.9175638E0,6.668425E-1,4.358695E-1,-1.2900634E-1,3.4569517E-1,-6.4345E-3,2.2743138E-2,-5.7337683E-2,-4.809476E-3,5.438417E-3,2.9240107E-2,-1.0537365E-3,-5.0537925E-2],"split_indices":[10,5,4,2,6,6,11,0,0,0,0,0,0,0,0],"split_type":[0,0,0,0,0,0,0,0,0,0,0,0,0,0,0],"sum_hessian":[5.729754E2,4.4064938E2,1.3232597E2,4.08533E2,3.21164E1,1.2359946E2,8.726521E0,3.5819238E2,5.034061E1,1.972682E1,1.2389581E1,7.400273E1,4.9596725E1,3.6600773E0,5.066443E0],"tree_param":{"num_deleted":"0","num_feature":"18","num_nodes":"15","size_leaf_vector":"1"}},{"base_weights":[2.1339202E-2,-8.517916E-1,3.4789518E-2,-3.7831136E-3,-1.0483007E0,-2.192812E-2,2.1542545E-1,-6.314837E-2,-1.2882671E-2,2.7715978E-3,-1.6053645E-2,2.3015155E-2,2.9352368E-3],"categories":[],"categories_nodes":[],"categories_segments":[],"categories_sizes":[],"default_left":[0,0,0,0,0,0,0,0,0,0,0,0,0],"id":68,"left_children":[1,3,5,-1,7,9,11,-1,-1,-1,-1,-1,-1],"loss_changes":[6.7213144E0,1.1315875E0,5.854454E0,0E0,6.6696787E-1,1.0078236E1,5.159614E0,0E0,0E0,0E0,0E0,0E0,0E0],"parents":[2147483647,0,0,1,1,2,2,4,4,5,5,6,6],"right_children":[2,4,6,-1,8,10,12,-1,-1,-1,-1,-1,-1],"split_conditions":[-1.1674007E0,-8.226036E-2,2.327002E-1,-3.7831136E-3,3.145021E-2,5.9755373E-1,4.6690604E-1,-6.314837E-2,-1.2882671E-2,2.7715978E-3,-1.6053645E-2,2.3015155E-2,2.9352368E-3],"split_indices":[9,10,10,0,11,13,11,0,0,0,0,0,0],"split_type":[0,0,0,0,0,0,0,0,0,0,0,0,0],"sum_hessian":[5.757581E2,7.6764407E0,5.6808167E2,1.9335678E0,5.7428727E0,4.325811E2,1.3550056E2,3.9472914E0,1.7955813E0,3.4408078E2,8.85003E1,5.1873127E1,8.362744E1],"tree_param":{"num_deleted":"0","num_feature":"18","num_nodes":"13","size_leaf_vector":"1"}},{"base_weights":[3.6955748E-2,1.7154073E-2,1.0014113E0,3.717736E-2,-4.6753994E-1,6.302754E-2,7.548235E-2,-1.7088121E-3,1.1083483E-2,3.297507E-2,-3.17539E-2,1.8820431E-2,-9.347182E-3],"categories":[],"categories_nodes":[],"categories_segments":[],"categories_sizes":[],"default_left":[0,0,0,0,0,0,0,0,0,0,0,0,0],"id":69,"left_children":[1,3,5,7,9,-1,11,-1,-1,-1,-1,-1,-1],"loss_changes":[1.0849971E1,5.447308E0,2.5152893E0,7.1701984E0,4.617241E0,0E0,3.7746453E-1,0E0,0E0,0E0,0E0,0E0,0E0],"parents":[2147483647,0,0,1,1,2,2,3,3,4,4,6,6],"right_children":[2,4,6,8,10,-1,12,-1,-1,-1,-1,-1,-1],"split_conditions":[2.7065458E0,1.7315258E0,1.60313E0,7.262362E-1,-1.4947168E0,6.302754E-2,3.863283E0,-1.7088121E-3,1.1083483E-2,3.297507E-2,-3.17539E-2,1.8820431E-2,-9.347182E-3],"split_indices":[11,0,0,15,15,0,11,0,0,0,0,0,0],"split_type":[0,0,0,0,0,0,0,0,0,0,0,0,0],"sum_hessian":[5.733586E2,5.629225E2,1.0436145E1,5.4167487E2,2.1247623E1,7.7873197E0,2.6488247E0,3.9080222E2,1.5087262E2,2.2924995E0,1.8955124E1,1.2090799E0,1.439745E0],"tree_param":{"num_deleted":"0","num_feature":"18","num_nodes":"13","size_leaf_vector":"1"}},{"base_weights":[2.9735839E-2,2.5693014E-1,-3.115872E-2,4.38249E-1,-9.4601415E-2,-1.0906358E-1,2.1842608E-1,6.3384497E-3,4.6397284E-2,-3.138457E-2,1.1984209E-2,-1.8874839E-2,2.2570002E-4,1.7496655E-2,-1.870699E-2],"categories":[],"categories_nodes":[],"categories_segments":[],"categories_sizes":[],"default_left":[0,0,0,0,0,0,0,0,0,0,0,0,0,0,0],"id":70,"left_children":[1,3,5,7,9,11,13,-1,-1,-1,-1,-1,-1,-1,-1],"loss_changes":[8.030413E0,7.895323E0,8.890106E0,1.2177508E1,7.7415905E0,1.0676895E1,8.594099E0,0E0,0E0,0E0,0E0,0E0,0E0,0E0,0E0],"parents":[2147483647,0,0,1,1,2,2,3,3,4,4,5,5,6,6],"right_children":[2,4,6,8,10,12,14,-1,-1,-1,-1,-1,-1,-1,-1],"split_conditions":[-7.650123E-1,9.927506E-1,7.262362E-1,-8.4576505E-1,1.4369411E0,-3.3963817E-1,5.105016E-1,6.3384497E-3,4.6397284E-2,-3.138457E-2,1.1984209E-2,-1.8874839E-2,2.2570002E-4,1.7496655E-2,-1.870699E-2],"split_indices":[7,15,15,6,15,6,9,0,0,0,0,0,0,0,0],"split_type":[0,0,0,0,0,0,0,0,0,0,0,0,0,0,0],"sum_hessian":[5.7723566E2,1.2167938E2,4.5555627E2,8.029913E1,4.138025E1,3.4792075E2,1.07635544E2,4.9974854E1,3.0324284E1,1.5724924E1,2.5655325E1,1.03013E2,2.4490773E2,8.8559845E1,1.9075699E1],"tree_param":{"num_deleted":"0","num_feature":"18","num_nodes":"15","size_leaf_vector":"1"}},{"base_weights":[-4.4500325E-3,-4.0680367E-1,2.3763979E-2,-8.306248E-1,-1.739832E-1,3.9288614E-2,-6.3282907E-1,-5.2802622E-2,4.0020954E-2,2.5916994E-2,-2.3913603E-2,1.9864624E-2,-1.4669072E-5,2.656645E-2,-5.1669933E-2],"categories":[],"categories_nodes":[],"categories_segments":[],"categories_sizes":[],"default_left":[0,0,0,0,0,0,0,0,0,0,0,0,0,0,0],"id":71,"left_children":[1,3,5,7,9,11,13,-1,-1,-1,-1,-1,-1,-1,-1],"loss_changes":[6.7960477E0,3.6269555E0,5.6350536E0,5.832946E0,5.8779387E0,7.7548447E0,6.54812E0,0E0,0E0,0E0,0E0,0E0,0E0,0E0,0E0],"parents":[2147483647,0,0,1,1,2,2,3,3,4,4,5,5,6,6],"right_children":[2,4,6,8,10,12,14,-1,-1,-1,-1,-1,-1,-1,-1],"split_conditions":[-1.4651324E0,-6.707658E-1,2.0247846E0,1.2992582E0,3.727148E-2,-1.3920417E0,1.2128724E0,-5.2802622E-2,4.0020954E-2,2.5916994E-2,-2.3913603E-2,1.9864624E-2,-1.4669072E-5,2.656645E-2,-5.1669933E-2],"split_indices":[14,0,0,6,12,16,13,0,0,0,0,0,0,0,0],"split_type":[0,0,0,0,0,0,0,0,0,0,0,0,0,0,0],"sum_hessian":[5.934389E2,3.8239525E1,5.551994E2,1.2495612E1,2.5743914E1,5.4344257E2,1.1756816E1,1.1341884E1,1.1537287E0,7.5450983E0,1.8198816E1,5.3454697E1,4.8998788E2,2.8622634E0,8.894552E0],"tree_param":{"num_deleted":"0","num_feature":"18","num_nodes":"15","size_leaf_vector":"1"}},{"base_weights":[-1.7649826E-2,-2.9405877E-1,2.7793804E-2,2.7631614E-1,-4.2107692E-1,-3.192956E-1,6.490737E-2,-2.4112437E-2,4.2592596E-2,-2.5316933E-2,2.870152E-2,-3.551E-2,2.7061247E-3,2.1597521E-2,1.9354544E-3],"categories":[],"categories_nodes":[],"categories_segments":[],"categories_sizes":[],"default_left":[0,0,0,0,0,0,0,0,0,0,0,0,0,0,0],"id":72,"left_children":[1,3,5,7,9,11,13,-1,-1,-1,-1,-1,-1,-1,-1],"loss_changes":[7.094167E0,5.90847E0,6.2204685E0,6.9900546E0,5.8635683E0,6.904929E0,4.1447663E0,0E0,0E0,0E0,0E0,0E0,0E0,0E0,0E0],"parents":[2147483647,0,0,1,1,2,2,3,3,4,4,5,5,6,6],"right_children":[2,4,6,8,10,12,14,-1,-1,-1,-1,-1,-1,-1,-1],"split_conditions":[-1.2603902E0,-1.1225419E0,-9.626538E-1,-2.0750308E0,1.3812878E0,-5.174975E-1,-8.3804744E-1,-2.4112437E-2,4.2592596E-2,-2.5316933E-2,2.870152E-2,-3.551E-2,2.7061247E-3,2.1597521E-2,1.9354544E-3],"split_indices":[14,16,6,16,16,15,6,0,0,0,0,0,0,0,0],"split_type":[0,0,0,0,0,0,0,0,0,0,0,0,0,0,0],"sum_hessian":[5.6100574E2,7.8748856E1,4.8225687E2,1.3985278E1,6.476357E1,4.559072E1,4.3666614E2,6.028267E0,7.957011E0,6.0197464E1,4.566113E0,2.1964052E1,2.362667E1,2.7805195E1,4.0886096E2],"tree_param":{"num_deleted":"0","num_feature":"18","num_nodes":"15","size_leaf_vector":"1"}},{"base_weights":[1.5523923E-2,3.1708673E-2,-5.27514E-1,-5.269747E-2,1.7488481E-1,-9.619252E-1,-9.619378E-2,-4.6951044E-3,1.4956996E-2,1.6001558E-2,4.8494953E-4,-5.6598403E-2,-0E0,7.804001E-2,-3.252228E-2],"categories":[],"categories_nodes":[],"categories_segments":[],"categories_sizes":[],"default_left":[0,0,0,0,0,0,0,0,0,0,0,0,0,0,0],"id":73,"left_children":[1,3,5,7,9,11,13,-1,-1,-1,-1,-1,-1,-1,-1],"loss_changes":[5.09408E0,6.880597E0,2.942099E0,5.188959E0,5.027098E0,1.3676977E0,9.774586E0,0E0,0E0,0E0,0E0,0E0,0E0,0E0,0E0],"parents":[2147483647,0,0,1,1,2,2,3,3,4,4,5,5,6,6],"right_children":[2,4,6,8,10,12,14,-1,-1,-1,-1,-1,-1,-1,-1],"split_conditions":[1.9761808E0,1.8425476E-2,1.2367008E0,8.8705206E-1,2.8555244E-1,1.4564384E0,1.4693986E0,-4.6951044E-3,1.4956996E-2,1.6001558E-2,4.8494953E-4,-5.6598403E-2,-0E0,7.804001E-2,-3.252228E-2],"split_indices":[3,9,7,10,7,10,7,0,0,0,0,0,0,0,0],"split_type":[0,0,0,0,0,0,0,0,0,0,0,0,0,0,0],"sum_hessian":[5.823397E2,5.665791E2,1.5760615E1,3.5640338E2,2.1017575E2,7.1237645E0,8.63685E0,3.1995047E2,3.6452923E1,1.1105265E2,9.91231E1,5.9337854E0,1.1899788E0,1.6644199E0,6.9724307E0],"tree_param":{"num_deleted":"0","num_feature":"18","num_nodes":"15","size_leaf_vector":"1"}},{"base_weights":[5.849624E-3,-1.9068563E-1,4.4573043E-2,-1.5147283E-2,-5.6473565E-1,8.1109416E-1,1.9691687E-2,2.0841207E-2,-1.28964335E-2,-1.9892463E-3,-4.8233636E-2,2.2621218E-2,6.8389945E-2,2.7648017E-3,-6.804677E-3],"categories":[],"categories_nodes":[],"categories_segments":[],"categories_sizes":[],"default_left":[0,0,0,0,0,0,0,0,0,0,0,0,0,0,0],"id":74,"left_children":[1,3,5,7,9,11,13,-1,-1,-1,-1,-1,-1,-1,-1],"loss_changes":[4.4665837E0,6.2696137E0,9.288229E0,7.106367E0,6.288148E0,2.2588072E0,2.650051E0,0E0,0E0,0E0,0E0,0E0,0E0,0E0,0E0],"parents":[2147483647,0,0,1,1,2,2,3,3,4,4,5,5,6,6],"right_children":[2,4,6,8,10,12,14,-1,-1,-1,-1,-1,-1,-1,-1],"split_conditions":[-5.3189325E-1,-7.530778E-1,-4.6587563E-1,-4.2865935E-1,-6.435235E-1,2.327002E-1,1.2176582E0,2.0841207E-2,-1.28964335E-2,-1.9892463E-3,-4.8233636E-2,2.2621218E-2,6.8389945E-2,2.7648017E-3,-6.804677E-3],"split_indices":[1,1,1,15,13,10,14,0,0,0,0,0,0,0,0],"split_type":[0,0,0,0,0,0,0,0,0,0,0,0,0,0,0],"sum_hessian":[5.8669934E2,9.5499306E1,4.912E2,6.588698E1,2.9612333E1,1.4323317E1,4.768767E2,2.3300516E1,4.258646E1,1.3388427E1,1.6223907E1,9.922701E0,4.4006157E0,3.892105E2,8.766618E1],"tree_param":{"num_deleted":"0","num_feature":"18","num_nodes":"15","size_leaf_vector":"1"}},{"base_weights":[-4.8370074E-2,1.0815663E-1,-1.3253972E-1,-1.2320669E-1,2.4325639E-1,2.554E-1,-1.9862092E-1,7.7984952E-3,-3.397569E-2,6.122381E-3,3.7078764E-2,4.9384885E-2,8.563497E-3,-1.7355455E-2,1.2281901E-3],"categories":[],"categories_nodes":[],"categories_segments":[],"categories_sizes":[],"default_left":[0,0,0,0,0,0,0,0,0,0,0,0,0,0,0],"id":75,"left_children":[1,3,5,7,9,11,13,-1,-1,-1,-1,-1,-1,-1,-1],"loss_changes":[7.5464644E0,6.2931557E0,9.595057E0,1.1669722E1,7.460676E0,3.0687525E0,1.0615602E1,0E0,0E0,0E0,0E0,0E0,0E0,0E0,0E0],"parents":[2147483647,0,0,1,1,2,2,3,3,4,4,5,5,6,6],"right_children":[2,4,6,8,10,12,14,-1,-1,-1,-1,-1,-1,-1,-1],"split_conditions":[-2.912287E-1,-9.5475525E-2,-6.691074E-1,6.373981E-1,7.262362E-1,-1.5835549E0,1.755281E-1,7.7984952E-3,-3.397569E-2,6.122381E-3,3.7078764E-2,4.9384885E-2,8.563497E-3,-1.7355455E-2,1.2281901E-3],"split_indices":[2,11,11,15,15,15,12,0,0,0,0,0,0,0,0],"split_type":[0,0,0,0,0,0,0,0,0,0,0,0,0,0,0],"sum_hessian":[5.7052234E2,1.9899213E2,3.715302E2,7.3119736E1,1.2587239E2,5.343771E1,3.180925E2,4.9046276E1,2.4073456E1,1.024754E2,2.3396988E1,4.277355E0,4.9160355E1,1.9094601E2,1.2714649E2],"tree_param":{"num_deleted":"0","num_feature":"18","num_nodes":"15","size_leaf_vector":"1"}},{"base_weights":[8.151379E-3,1.3400182E-1,-9.6262686E-2,8.08864E-2,6.245141E-1,-1.6943267E-1,8.876944E-2,8.52156E-3,-2.1283759E-2,2.543589E-3,5.078825E-2,-4.0172744E-3,-2.0296326E-2,9.156543E-3,-3.702436E-2],"categories":[],"categories_nodes":[],"categories_segments":[],"categories_sizes":[],"default_left":[0,0,0,0,0,0,0,0,0,0,0,0,0,0,0],"id":76,"left_children":[1,3,5,7,9,11,13,-1,-1,-1,-1,-1,-1,-1,-1],"loss_changes":[7.7155995E0,6.8229494E0,4.3604565E0,1.10158615E1,5.6115875E0,4.7710586E0,7.204879E0,0E0,0E0,0E0,0E0,0E0,0E0,0E0,0E0],"parents":[2147483647,0,0,1,1,2,2,3,3,4,4,5,5,6,6],"right_children":[2,4,6,8,10,12,14,-1,-1,-1,-1,-1,-1,-1,-1],"split_conditions":[-2.57072E-1,1.4369411E0,7.262362E-1,9.927506E-1,-1.4180295E-1,1.0436938E-1,1.1941364E0,8.52156E-3,-2.1283759E-2,2.543589E-3,5.078825E-2,-4.0172744E-3,-2.0296326E-2,9.156543E-3,-3.702436E-2],"split_indices":[13,15,15,15,11,15,4,0,0,0,0,0,0,0,0],"split_type":[0,0,0,0,0,0,0,0,0,0,0,0,0,0,0],"sum_hessian":[5.8489044E2,2.6552597E2,3.193645E2,2.4081766E2,2.4708315E1,2.2930988E2,9.005462E1,2.0537459E2,3.544307E1,1.0580728E1,1.4127586E1,1.6784521E2,6.146467E1,8.166202E1,8.392599E0],"tree_param":{"num_deleted":"0","num_feature":"18","num_nodes":"15","size_leaf_vector":"1"}},{"base_weights":[-3.9804674E-4,-1.5012565E-1,1.00733094E-1,-4.834656E-1,-6.3716605E-2,1.1137346E-1,-4.8810232E-2,-3.0415324E-2,2.2000905E-2,-5.349402E-4,-4.777568E-2,-6.648344E-3,8.296768E-3],"categories":[],"categories_nodes":[],"categories_segments":[],"categories_sizes":[],"default_left":[0,0,0,0,0,0,0,0,0,0,0,0,0],"id":77,"left_children":[1,3,5,7,9,11,-1,-1,-1,-1,-1,-1,-1],"loss_changes":[8.707557E0,6.599609E0,3.948517E0,5.747843E0,8.673504E0,4.5617805E0,0E0,0E0,0E0,0E0,0E0,0E0,0E0],"parents":[2147483647,0,0,1,1,2,2,3,3,4,4,5,5],"right_children":[2,4,6,8,10,12,-1,-1,-1,-1,-1,-1,-1],"split_conditions":[-4.0357235E-1,-4.5396662E-1,3.4652123E0,1.5797205E-1,-1.7490761E-2,-1.1338625E0,-4.8810232E-2,-3.0415324E-2,2.2000905E-2,-5.349402E-4,-4.777568E-2,-6.648344E-3,8.296768E-3],"split_indices":[17,5,5,2,7,14,0,0,0,0,0,0,0],"split_type":[0,0,0,0,0,0,0,0,0,0,0,0,0],"sum_hessian":[5.727302E2,2.3109367E2,3.416366E2,4.63885E1,1.8470517E2,3.3927393E2,2.362657E0,4.1260315E1,5.1281853E0,1.7540158E2,9.303588E0,6.133451E1,2.7793942E2],"tree_param":{"num_deleted":"0","num_feature":"18","num_nodes":"13","size_leaf_vector":"1"}},{"base_weights":[-2.1993939E-2,-5.5078417E-2,4.5700637E-1,-6.903185E-2,7.836089E-1,6.661721E-1,-1.7327818E-1,8.056288E-4,-8.261184E-3,7.2579786E-2,-9.139556E-3,4.6992503E-4,5.1880386E-2,1.52628645E-2,-5.112351E-2],"categories":[],"categories_nodes":[],"categories_segments":[],"categories_sizes":[],"default_left":[0,0,0,0,0,0,0,0,0,0,0,0,0,0,0],"id":78,"left_children":[1,3,5,7,9,11,13,-1,-1,-1,-1,-1,-1,-1,-1],"loss_changes":[9.120104E0,6.3053665E0,5.0629597E0,4.3786936E0,6.0765023E0,6.77036E0,4.4199977E0,0E0,0E0,0E0,0E0,0E0,0E0,0E0,0E0],"parents":[2147483647,0,0,1,1,2,2,3,3,4,4,5,5,6,6],"right_children":[2,4,6,8,10,12,14,-1,-1,-1,-1,-1,-1,-1,-1],"split_conditions":[1.3195549E0,2.3032389E0,1.010007E0,-1.5103838E-2,3.1558976E-1,-7.090445E-1,5.9039927E-1,8.056288E-4,-8.261184E-3,7.2579786E-2,-9.139556E-3,4.6992503E-4,5.1880386E-2,1.52628645E-2,-5.112351E-2],"split_indices":[16,2,14,3,16,14,0,0,0,0,0,0,0,0,0],"split_type":[0,0,0,0,0,0,0,0,0,0,0,0,0,0,0],"sum_hessian":[5.754404E2,5.392858E2,3.6154606E1,5.314804E2,7.805435E0,2.7222343E1,8.932264E0,2.8181982E2,2.4966055E2,4.37961E0,3.4258249E0,1.0301581E1,1.6920761E1,6.047282E0,2.8849823E0],"tree_param":{"num_deleted":"0","num_feature":"18","num_nodes":"15","size_leaf_vector":"1"}},{"base_weights":[1.4671039E-2,4.6000373E-2,-4.8667544E-1,9.358531E-2,-2.1225686E-1,-9.4022226E-1,-3.203033E-1,-2.015742E-3,1.0755918E-2,-7.4188295E-3,-5.4540407E-2,-5.85772E-2,1.216217E-2,8.828848E-3,-4.652914E-2],"categories":[],"categories_nodes":[],"categories_segments":[],"categories_sizes":[],"default_left":[0,0,0,0,0,0,0,0,0,0,0,0,0,0,0],"id":79,"left_children":[1,3,5,7,9,11,13,-1,-1,-1,-1,-1,-1,-1,-1],"loss_changes":[8.9213705E0,6.607105E0,2.0920377E0,7.4217033E0,4.4019356E0,2.6451235E0,8.155436E0,0E0,0E0,0E0,0E0,0E0,0E0,0E0,0E0],"parents":[2147483647,0,0,1,1,2,2,3,3,4,4,5,5,6,6],"right_children":[2,4,6,8,10,12,14,-1,-1,-1,-1,-1,-1,-1,-1],"split_conditions":[1.6242739E0,1.2322148E0,-1.0159844E0,-3.7277E-1,1.3619378E0,2.8412702E0,2.3643957E-2,-2.015742E-3,1.0755918E-2,-7.4188295E-3,-5.4540407E-2,-5.85772E-2,1.216217E-2,8.828848E-3,-4.652914E-2],"split_indices":[7,14,14,14,17,17,11,0,0,0,0,0,0,0,0],"split_type":[0,0,0,0,0,0,0,0,0,0,0,0,0,0,0],"sum_hessian":[5.6837256E2,5.3598627E2,3.2386276E1,4.5345938E2,8.2526886E1,7.28212E0,2.5104156E1,2.1567877E2,2.3778062E2,7.8128784E1,4.3981047E0,6.170582E0,1.1115384E0,1.41391115E1,1.0965046E1],"tree_param":{"num_deleted":"0","num_feature":"18","num_nodes":"15","size_leaf_vector":"1"}},{"base_weights":[-9.5684844E-4,-6.14597E-2,1.8430607E-1,-2.3837142E-1,3.5312466E-2,-5.8938928E-2,2.1806821E-1,3.8096725E-3,-2.0741846E-2,-2.3971325E-2,4.862618E-3,1.29574435E-2,-4.204314E-2],"categories":[],"categories_nodes":[],"categories_segments":[],"categories_sizes":[],"default_left":[0,0,0,0,0,0,0,0,0,0,0,0,0],"id":80,"left_children":[1,3,5,7,9,-1,11,-1,-1,-1,-1,-1,-1],"loss_changes":[6.594615E0,7.642384E0,6.820226E0,8.821779E0,9.189924E0,0E0,6.34215E0,0E0,0E0,0E0,0E0,0E0,0E0],"parents":[2147483647,0,0,1,1,2,2,3,3,4,4,6,6],"right_children":[2,4,6,8,10,-1,12,-1,-1,-1,-1,-1,-1],"split_conditions":[4.358695E-1,-4.579668E-1,-1.1378154E0,-3.6307195E-1,-8.5408413E-1,-5.8938928E-2,2.0247846E0,3.8096725E-3,-2.0741846E-2,-2.3971325E-2,4.862618E-3,1.29574435E-2,-4.204314E-2],"split_indices":[6,8,9,0,4,0,0,0,0,0,0,0,0],"split_type":[0,0,0,0,0,0,0,0,0,0,0,0,0],"sum_hessian":[5.8742096E2,4.4371976E2,1.4370122E2,1.5674333E2,2.8697644E2,2.5819895E0,1.4111923E2,5.633065E1,1.0041268E2,2.9926193E1,2.5705023E2,1.36667E2,4.4522166E0],"tree_param":{"num_deleted":"0","num_feature":"18","num_nodes":"13","size_leaf_vector":"1"}},{"base_weights":[8.2887E-3,3.0902722E-1,-3.452832E-2,-3.4997183E-1,4.620789E-1,7.089347E-1,-6.1496623E-2,2.0374019E-2,-6.1034974E-2,3.5290796E-2,8.532142E-3,-7.9786675E-3,4.779688E-2,-5.2091684E-3,9.8519875E-3],"categories":[],"categories_nodes":[],"categories_segments":[],"categories_sizes":[],"default_left":[0,0,0,0,0,0,0,0,0,0,0,0,0,0,0],"id":81,"left_children":[1,3,5,7,9,11,13,-1,-1,-1,-1,-1,-1,-1,-1],"loss_changes":[7.6278124E0,7.621444E0,1.0335894E1,1.0052742E1,4.0883703E0,4.100441E0,5.524098E0,0E0,0E0,0E0,0E0,0E0,0E0,0E0,0E0],"parents":[2147483647,0,0,1,1,2,2,3,3,4,4,5,5,6,6],"right_children":[2,4,6,8,10,12,14,-1,-1,-1,-1,-1,-1,-1,-1],"split_conditions":[-1.0653353E0,-9.758528E-1,-1.4580349E0,3.7088373E-1,1.030389E-3,-4.8797625E-1,8.8516283E-1,2.0374019E-2,-6.1034974E-2,3.5290796E-2,8.532142E-3,-7.9786675E-3,4.779688E-2,-5.2091684E-3,9.8519875E-3],"split_indices":[5,1,1,15,12,12,2,0,0,0,0,0,0,0,0],"split_type":[0,0,0,0,