{"learner":{"attributes":{"scikit_learn":"{\"_estimator_type\": \"classifier\"}"},"feature_names":[],"feature_types":[],"gradient_booster":{"model":{"cats":{"enc":[],"feature_segments":[],"sorted_idx":[]},"gbtree_model_param":{"num_parallel_tree":"1","num_trees":"300"},"iteration_indptr":[0,1,2,3,4,5,6,7,8,9,10,11,12,13,14,15,16,17,18,19,20,21,22,23,24,25,26,27,28,29,30,31,32,33,34,35,36,37,38,39,40,41,42,43,44,45,46,47,48,49,50,51,52,53,54,55,56,57,58,59,60,61,62,63,64,65,66,67,68,69,70,71,72,73,74,75,76,77,78,79,80,81,82,83,84,85,86,87,88,89,90,91,92,93,94,95,96,97,98,99,100,101,102,103,104,105,106,107,108,109,110,111,112,113,114,115,116,117,118,119,120,121,122,123,124,125,126,127,128,129,130,131,132,133,134,135,136,137,138,139,140,141,142,143,144,145,146,147,148,149,150,151,152,153,154,155,156,157,158,159,160,161,162,163,164,165,166,167,168,169,170,171,172,173,174,175,176,177,178,179,180,181,182,183,184,185,186,187,188,189,190,191,192,193,194,195,196,197,198,199,200,201,202,203,204,205,206,207,208,209,210,211,212,213,214,215,216,217,218,219,220,221,222,223,224,225,226,227,228,229,230,231,232,233,234,235,236,237,238,239,240,241,242,243,244,245,246,247,248,249,250,251,252,253,254,255,256,257,258,259,260,261,262,263,264,265,266,267,268,269,270,271,272,273,274,275,276,277,278,279,280,281,282,283,284,285,286,287,288,289,290,291,292,293,294,295,296,297,298,299,300],"tree_info":[0,0,0,0,0,0,0,0,0,0,0,0,0,0,0,0,0,0,0,0,0,0,0,0,0,0,0,0,0,0,0,0,0,0,0,0,0,0,0,0,0,0,0,0,0,0,0,0,0,0,0,0,0,0,0,0,0,0,0,0,0,0,0,0,0,0,0,0,0,0,0,0,0,0,0,0,0,0,0,0,0,0,0,0,0,0,0,0,0,0,0,0,0,0,0,0,0,0,0,0,0,0,0,0,0,0,0,0,0,0,0,0,0,0,0,0,0,0,0,0,0,0,0,0,0,0,0,0,0,0,0,0,0,0,0,0,0,0,0,0,0,0,0,0,0,0,0,0,0,0,0,0,0,0,0,0,0,0,0,0,0,0,0,0,0,0,0,0,0,0,0,0,0,0,0,0,0,0,0,0,0,0,0,0,0,0,0,0,0,0,0,0,0,0,0,0,0,0,0,0,0,0,0,0,0,0,0,0,0,0,0,0,0,0,0,0,0,0,0,0,0,0,0,0,0,0,0,0,0,0,0,0,0,0,0,0,0,0,0,0,0,0,0,0,0,0,0,0,0,0,0,0,0,0,0,0,0,0,0,0,0,0,0,0,0,0,0,0,0,0,0,0,0,0,0,0,0,0,0,0,0,0,0,0,0,0,0,0,0,0,0,0,0,0,0,0,0,0,0,0],"trees":[{"base_weights":[-8.700947E-3,-6.5200377E-1,2.9410914E-1,-9.391981E-1,-4.2806256E-1,5.543125E-1,-1.4542761E-1,-1.518347E-2,-6.2836185E-2,5.551267E-3,-4.4783603E-2,3.792576E-2,1.4979324E-2,7.4783415E-3,-1.2217618E-2],"categories":[],"categories_nodes":[],"categories_segments":[],"categories_sizes":[],"default_left":[0,0,0,0,0,0,0,0,0,0,0,0,0,0,0],"id":0,"left_children":[1,3,5,7,9,11,13,-1,-1,-1,-1,-1,-1,-1,-1],"loss_changes":[3.8987302E2,4.0661835E1,1.5573624E2,5.58916E1,9.1425705E1,4.4141785E1,1.4830111E1,0E0,0E0,0E0,0E0,0E0,0E0,0E0,0E0],"parents":[2147483647,0,0,1,1,2,2,3,3,4,4,5,5,6,6],"right_children":[2,4,6,8,10,12,14,-1,-1,-1,-1,-1,-1,-1,-1],"split_conditions":[-4.261656E-1,-7.46811E-1,1.8325788E-1,-2.686728E-1,-4.586031E-1,-4.066199E-1,1.3537118E-1,-1.518347E-2,-6.2836185E-2,5.551267E-3,-4.4783603E-2,3.792576E-2,1.4979324E-2,7.4783415E-3,-1.2217618E-2],"split_indices":[6,6,10,10,13,4,13,0,0,0,0,0,0,0,0],"split_type":[0,0,0,0,0,0,0,0,0,0,0,0,0,0,0],"sum_hessian":[1.9992479E3,6.396099E2,1.3596381E3,2.786341E2,3.6097583E2,8.5402576E2,5.056123E2,9.358823E1,1.8504587E2,1.6792763E2,1.9304822E2,4.7270697E2,3.8131876E2,1.2659174E2,3.7902054E2],"tree_param":{"num_deleted":"0","num_feature":"18","num_nodes":"15","size_leaf_vector":"1"}},{"base_weights":[-6.5328595E-3,-6.392282E-1,3.6815906E-1,-3.9207253E-1,-1.1692185E0,6.419199E-1,3.80334E-2,3.687022E-3,-2.6667807E-2,-1.0618742E-2,-6.504601E-2,4.1987758E-2,1.736348E-2,3.1411316E-2,-1.3838981E-3],"categories":[],"categories_nodes":[],"categories_segments":[],"categories_sizes":[],"default_left":[0,0,0,0,0,0,0,0,0,0,0,0,0,0,0],"id":1,"left_children":[1,3,5,7,9,11,13,-1,-1,-1,-1,-1,-1,-1,-1],"loss_changes":[4.7938983E2,9.79151E1,1.1467378E2,3.3952354E1,2.963855E1,4.004303E1,2.2451239E1,0E0,0E0,0E0,0E0,0E0,0E0,0E0,0E0],"parents":[2147483647,0,0,1,1,2,2,3,3,4,4,5,5,6,6],"right_children":[2,4,6,8,10,12,14,-1,-1,-1,-1,-1,-1,-1,-1],"split_conditions":[-3.790237E-1,2.0328975E-1,1.674562E-1,-4.5561764E-1,-1.8206713E0,-5.175467E-1,-3.3010316E-1,3.687022E-3,-2.6667807E-2,-1.0618742E-2,-6.504601E-2,4.1987758E-2,1.736348E-2,3.1411316E-2,-1.3838981E-3],"split_indices":[17,10,10,16,16,5,5,0,0,0,0,0,0,0,0],"split_type":[0,0,0,0,0,0,0,0,0,0,0,0,0,0,0],"sum_hessian":[2.0200732E3,7.5119135E2,1.268882E3,5.1360516E2,2.3758617E2,6.9297565E2,5.7590625E2,1.194728E2,3.9413235E2,2.9153194E1,2.0843297E2,4.1329218E2,2.7968347E2,5.699165E1,5.189146E2],"tree_param":{"num_deleted":"0","num_feature":"18","num_nodes":"15","size_leaf_vector":"1"}},{"base_weights":[-4.101761E-2,3.615066E-1,-2.8833506E-1,4.2292747E-1,-6.1423475E-1,1.5924896E-1,-3.6732563E-1,-2.4322113E-2,2.3078032E-2,-8.509497E-2,-2.0111917E-2,-1.35127455E-2,3.3146363E-2,-4.0337186E-2,2.6374016E-4],"categories":[],"categories_nodes":[],"categories_segments":[],"categories_sizes":[],"default_left":[0,0,0,0,0,0,0,0,0,0,0,0,0,0,0],"id":2,"left_children":[1,3,5,7,9,11,13,-1,-1,-1,-1,-1,-1,-1,-1],"loss_changes":[1.9863133E2,4.5744987E1,4.3778465E1,2.5341423E1,9.544807E0,4.0438828E1,1.7217711E2,0E0,0E0,0E0,0E0,0E0,0E0,0E0,0E0],"parents":[2147483647,0,0,1,1,2,2,3,3,4,4,5,5,6,6],"right_children":[2,4,6,8,10,12,14,-1,-1,-1,-1,-1,-1,-1,-1],"split_conditions":[-3.0728263E-1,1.9270699E-1,-2.4010178E-1,-9.878972E-1,-9.26519E-1,7.97203E-2,-2.3869461E-1,-2.4322113E-2,2.3078032E-2,-8.509497E-2,-2.0111917E-2,-1.35127455E-2,3.3146363E-2,-4.0337186E-2,2.6374016E-4],"split_indices":[4,10,10,7,4,4,7,0,0,0,0,0,0,0,0],"split_type":[0,0,0,0,0,0,0,0,0,0,0,0,0,0,0],"sum_hessian":[1.9932935E3,7.5828015E2,1.2350133E3,7.140041E2,4.427601E1,1.8491998E2,1.0500933E3,2.8519346E1,6.854848E2,5.998835E0,3.8277172E1,9.9952194E1,8.496779E1,4.8143124E2,5.6866205E2],"tree_param":{"num_deleted":"0","num_feature":"18","num_nodes":"15","size_leaf_vector":"1"}},{"base_weights":[3.048569E-2,6.145039E-1,-2.0629546E-1,8.4387213E-1,1.9967793E-1,2.3342736E-1,-4.0565345E-1,-1.9936662E-2,4.3889973E-2,-4.671737E-2,2.3727128E-2,-1.8186012E-2,1.7188365E-2,-5.112623E-2,-1.7713422E-3],"categories":[],"categories_nodes":[],"categories_segments":[],"categories_sizes":[],"default_left":[0,0,0,0,0,0,0,0,0,0,0,0,0,0,0],"id":3,"left_children":[1,3,5,7,9,11,13,-1,-1,-1,-1,-1,-1,-1,-1],"loss_changes":[2.8272208E2,5.5846527E1,1.2761417E2,1.639032E1,6.631348E1,3.004948E1,2.285321E2,0E0,0E0,0E0,0E0,0E0,0E0,0E0,0E0],"parents":[2147483647,0,0,1,1,2,2,3,3,4,4,5,5,6,6],"right_children":[2,4,6,8,10,12,14,-1,-1,-1,-1,-1,-1,-1,-1],"split_conditions":[-4.943959E-1,-7.780195E-1,-1.11697815E-1,-1.9380357E0,-5.312136E-1,-1.1501385E0,-4.614347E-1,-1.9936662E-2,4.3889973E-2,-4.671737E-2,2.3727128E-2,-1.8186012E-2,1.7188365E-2,-5.112623E-2,-1.7713422E-3],"split_indices":[5,3,3,13,17,13,17,0,0,0,0,0,0,0,0],"split_type":[0,0,0,0,0,0,0,0,0,0,0,0,0,0,0],"sum_hessian":[2.0422838E3,5.888121E2,1.4534718E3,3.7834167E2,2.1047043E2,4.5319327E2,1.0002785E3,9.691338E0,3.6865033E2,4.052225E1,1.6994818E2,7.018064E1,3.8301263E2,3.7440808E2,6.258704E2],"tree_param":{"num_deleted":"0","num_feature":"18","num_nodes":"15","size_leaf_vector":"1"}},{"base_weights":[3.2065026E-2,5.3452337E-1,-2.540164E-1,2.2703166E-1,6.9881135E-1,-7.649714E-1,1.3336135E-1,3.6294572E-2,6.0377E-3,3.6502868E-2,-2.376563E-2,-3.646588E-2,-8.1538156E-2,1.7763939E-2,-1.4729033E-3],"categories":[],"categories_nodes":[],"categories_segments":[],"categories_sizes":[],"default_left":[0,0,0,0,0,0,0,0,0,0,0,0,0,0,0],"id":4,"left_children":[1,3,5,7,9,11,13,-1,-1,-1,-1,-1,-1,-1,-1],"loss_changes":[2.921049E2,3.69944E1,2.5642712E2,1.3529486E1,1.7976501E1,1.5816528E1,2.6677647E1,0E0,0E0,0E0,0E0,0E0,0E0,0E0,0E0],"parents":[2147483647,0,0,1,1,2,2,3,3,4,4,5,5,6,6],"right_children":[2,4,6,8,10,12,14,-1,-1,-1,-1,-1,-1,-1,-1],"split_conditions":[-3.5289475E-1,-3.1334203E-1,-3.5086858E-1,-1.5210333E0,3.0770671E0,1.3717455E0,1.9641587E-1,3.6294572E-2,6.0377E-3,3.6502868E-2,-2.376563E-2,-3.646588E-2,-8.1538156E-2,1.7763939E-2,-1.4729033E-3],"split_indices":[3,9,17,11,9,12,11,0,0,0,0,0,0,0,0],"split_type":[0,0,0,0,0,0,0,0,0,0,0,0,0,0,0],"sum_hessian":[2.0299792E3,7.362862E2,1.2936931E3,2.5743854E2,4.7884763E2,5.575555E2,7.3613763E2,4.4023647E1,2.134149E2,4.6688614E2,1.1961492E1,5.373836E2,2.0171867E1,3.1129083E2,4.248468E2],"tree_param":{"num_deleted":"0","num_feature":"18","num_nodes":"15","size_leaf_vector":"1"}},{"base_weights":[2.1535855E-2,5.796135E-1,-1.971336E-1,7.003582E-1,2.4837115E-1,4.4362642E-2,-2.750751E-1,-2.2383964E-2,3.8627777E-2,-4.578709E-3,2.9959474E-2,-3.1399414E-2,7.41537E-3,-4.9802903E-3,-2.4858711E-2],"categories":[],"categories_nodes":[],"categories_segments":[],"categories_sizes":[],"default_left":[0,0,0,0,0,0,0,0,0,0,0,0,0,0,0],"id":5,"left_children":[1,3,5,7,9,11,13,-1,-1,-1,-1,-1,-1,-1,-1],"loss_changes":[2.4887521E2,2.2695023E1,2.7609917E1,3.5190536E1,1.8608929E1,2.5064589E1,4.3070526E1,0E0,0E0,0E0,0E0,0E0,0E0,0E0,0E0],"parents":[2147483647,0,0,1,1,2,2,3,3,4,4,5,5,6,6],"right_children":[2,4,6,8,10,12,14,-1,-1,-1,-1,-1,-1,-1,-1],"split_conditions":[-5.175467E-1,-7.908236E-1,-1.3174847E-1,-1.8252468E0,2.521559E-2,-1.2301812E0,2.8570536E-1,-2.2383964E-2,3.8627777E-2,-4.578709E-3,2.9959474E-2,-3.1399414E-2,7.41537E-3,-4.9802903E-3,-2.4858711E-2],"split_indices":[5,5,5,1,8,13,16,0,0,0,0,0,0,0,0],"split_type":[0,0,0,0,0,0,0,0,0,0,0,0,0,0,0],"sum_hessian":[2.0371337E3,5.731569E2,1.4639768E3,4.1900476E2,1.5415216E2,3.5699643E2,1.1069803E3,2.4401493E1,3.9460327E2,7.851983E1,7.563233E1,4.6997383E1,3.0999905E2,6.194683E2,4.8751202E2],"tree_param":{"num_deleted":"0","num_feature":"18","num_nodes":"15","size_leaf_vector":"1"}},{"base_weights":[3.3861328E-2,-3.004027E-1,2.7385548E-1,1.0525791E-3,-6.558763E-1,-6.8274677E-1,3.466059E-1,1.6631177E-2,-1.44630475E-2,-2.4131136E-2,-5.151813E-2,-5.2287985E-2,-6.2419614E-4,2.6176754E-2,8.415898E-3],"categories":[],"categories_nodes":[],"categories_segments":[],"categories_sizes":[],"default_left":[0,0,0,0,0,0,0,0,0,0,0,0,0,0,0],"id":6,"left_children":[1,3,5,7,9,11,13,-1,-1,-1,-1,-1,-1,-1,-1],"loss_changes":[1.6128287E2,9.00913E1,8.165314E1,4.394089E1,2.4373856E1,2.0065681E1,3.4176086E1,0E0,0E0,0E0,0E0,0E0,0E0,0E0,0E0],"parents":[2147483647,0,0,1,1,2,2,3,3,4,4,5,5,6,6],"right_children":[2,4,6,8,10,12,14,-1,-1,-1,-1,-1,-1,-1,-1],"split_conditions":[-2.7943134E-1,-1.3403183E-1,-3.790237E-1,-4.3548208E-1,4.526597E-1,4.3677562E-1,-1.3488472E-1,1.6631177E-2,-1.44630475E-2,-2.4131136E-2,-5.151813E-2,-5.2287985E-2,-6.2419614E-4,2.6176754E-2,8.415898E-3],"split_indices":[7,0,17,4,4,4,4,0,0,0,0,0,0,0,0],"split_type":[0,0,0,0,0,0,0,0,0,0,0,0,0,0,0],"sum_hessian":[2.0084791E3,8.391049E2,1.1693743E3,4.5443893E2,3.8466595E2,8.195681E1,1.0874175E3,2.1223792E2,2.4220102E2,2.647411E2,1.1992487E2,5.270336E1,2.9253445E1,5.4453503E2,5.4288245E2],"tree_param":{"num_deleted":"0","num_feature":"18","num_nodes":"15","size_leaf_vector":"1"}},{"base_weights":[-1.804138E-2,2.6264778E-1,-2.9799688E-1,-1.3733451E-1,4.5856148E-1,-8.126837E-1,7.106529E-2,-1.3072337E-2,3.0302687E-2,-4.556746E-3,2.7347324E-2,-8.166998E-2,-3.3835318E-2,2.516228E-2,-2.2967884E-3],"categories":[],"categories_nodes":[],"categories_segments":[],"categories_sizes":[],"default_left":[0,0,0,0,0,0,0,0,0,0,0,0,0,0,0],"id":7,"left_children":[1,3,5,7,9,11,13,-1,-1,-1,-1,-1,-1,-1,-1],"loss_changes":[1.575488E2,7.853462E1,1.9082518E2,3.0543167E1,3.2758636E1,4.5472015E1,2.967352E1,0E0,0E0,0E0,0E0,0E0,0E0,0E0,0E0],"parents":[2147483647,0,0,1,1,2,2,3,3,4,4,5,5,6,6],"right_children":[2,4,6,8,10,12,14,-1,-1,-1,-1,-1,-1,-1,-1],"split_conditions":[-5.246447E-2,-3.5086858E-1,-3.719415E-1,-2.3955428E-3,-9.712076E-1,-1.0794922E0,-5.8575984E-2,-1.3072337E-2,3.0302687E-2,-4.556746E-3,2.7347324E-2,-8.166998E-2,-3.3835318E-2,2.516228E-2,-2.2967884E-3],"split_indices":[5,17,17,13,1,17,13,0,0,0,0,0,0,0,0],"split_type":[0,0,0,0,0,0,0,0,0,0,0,0,0,0,0],"sum_hessian":[2.0028948E3,9.999894E2,1.0029054E3,3.286986E2,6.712908E2,4.184342E2,5.844712E2,2.8234293E2,4.635569E1,9.282401E1,5.7846674E2,5.7803448E1,3.6063074E2,1.23998215E2,4.60473E2],"tree_param":{"num_deleted":"0","num_feature":"18","num_nodes":"15","size_leaf_vector":"1"}},{"base_weights":[-9.937418E-3,-4.971884E-1,2.5065443E-1,-2.1410045E-1,-7.959804E-1,5.531236E-1,5.000938E-2,-3.8914558E-2,-5.643508E-3,-7.41275E-2,-3.1872224E-2,3.105227E-2,5.6486125E-3,7.4456385E-3,-9.402546E-3],"categories":[],"categories_nodes":[],"categories_segments":[],"categories_sizes":[],"default_left":[0,0,0,0,0,0,0,0,0,0,0,0,0,0,0],"id":8,"left_children":[1,3,5,7,9,11,13,-1,-1,-1,-1,-1,-1,-1,-1],"loss_changes":[2.5374895E2,5.8635788E1,7.891879E1,2.033542E1,3.5663162E1,1.5368835E1,1.8482197E1,0E0,0E0,0E0,0E0,0E0,0E0,0E0,0E0],"parents":[2147483647,0,0,1,1,2,2,3,3,4,4,5,5,6,6],"right_children":[2,4,6,8,10,12,14,-1,-1,-1,-1,-1,-1,-1,-1],"split_conditions":[-4.026515E-1,4.9930748E-2,-3.8284805E-1,-1.0794922E0,-1.0197953E0,1.2492876E0,8.0246055E-1,-3.8914558E-2,-5.643508E-3,-7.41275E-2,-3.1872224E-2,3.105227E-2,5.6486125E-3,7.4456385E-3,-9.402546E-3],"split_indices":[17,5,5,17,17,14,5,0,0,0,0,0,0,0,0],"split_type":[0,0,0,0,0,0,0,0,0,0,0,0,0,0,0],"sum_hessian":[1.9962625E3,6.954311E2,1.3008314E3,3.5815317E2,3.372779E2,5.1788025E2,7.829512E2,5.3317963E1,3.048352E2,6.1586002E1,2.756919E2,4.4809448E2,6.978577E1,5.5370575E2,2.2924539E2],"tree_param":{"num_deleted":"0","num_feature":"18","num_nodes":"15","size_leaf_vector":"1"}},{"base_weights":[2.022693E-2,-5.193112E-1,3.006873E-1,-1.3575484E0,-3.8404092E-1,7.729629E-1,2.1072415E-1,5.6640178E-2,-7.50662E-2,-2.9183885E-3,-3.8590338E-2,4.3809336E-2,3.8788307E-3,5.441718E-2,8.125756E-3],"categories":[],"categories_nodes":[],"categories_segments":[],"categories_sizes":[],"default_left":[0,0,0,0,0,0,0,0,0,0,0,0,0,0,0],"id":9,"left_children":[1,3,5,7,9,11,13,-1,-1,-1,-1,-1,-1,-1,-1],"loss_changes":[3.0327957E2,7.702577E1,5.577581E1,3.5661514E1,7.459421E1,1.4945305E1,4.66369E1,0E0,0E0,0E0,0E0,0E0,0E0,0E0,0E0],"parents":[2147483647,0,0,1,1,2,2,3,3,4,4,5,5,6,6],"right_children":[2,4,6,8,10,12,14,-1,-1,-1,-1,-1,-1,-1,-1],"split_conditions":[-4.2138147E-1,-1.0794922E0,-7.410549E-1,-1.5536414E0,8.19985E-3,-6.7964417E-1,-1.8761809E0,5.6640178E-2,-7.50662E-2,-2.9183885E-3,-3.8590338E-2,4.3809336E-2,3.8788307E-3,5.441718E-2,8.125756E-3],"split_indices":[17,17,11,10,3,10,3,0,0,0,0,0,0,0,0],"split_type":[0,0,0,0,0,0,0,0,0,0,0,0,0,0,0],"sum_hessian":[2.0023517E3,6.84442E2,1.3179097E3,9.374596E1,5.9069604E2,2.0948451E2,1.108425E3,4.703399E0,8.904256E1,3.218185E2,2.6887756E2,1.8205614E2,2.7428373E1,5.6485577E1,1.0519396E3],"tree_param":{"num_deleted":"0","num_feature":"18","num_nodes":"15","size_leaf_vector":"1"}},{"base_weights":[2.1389086E-2,4.7202772E-1,-2.6286557E-1,8.987405E-1,3.6481962E-1,-4.4945896E-1,1.3788738E-2,5.6043442E-2,3.885604E-2,-2.2135755E-2,1.9678196E-2,-2.6176665E-2,8.5903695E-3,-6.474743E-3,1.025855E-2],"categories":[],"categories_nodes":[],"categories_segments":[],"categories_sizes":[],"default_left":[0,0,0,0,0,0,0,0,0,0,0,0,0,0,0],"id":10,"left_children":[1,3,5,7,9,11,13,-1,-1,-1,-1,-1,-1,-1,-1],"loss_changes":[2.5885873E2,3.5306335E1,6.400835E1,3.1559753E0,1.4714241E1,3.4187836E1,1.3739869E1,0E0,0E0,0E0,0E0,0E0,0E0,0E0,0E0],"parents":[2147483647,0,0,1,1,2,2,3,3,4,4,5,5,6,6],"right_children":[2,4,6,8,10,12,14,-1,-1,-1,-1,-1,-1,-1,-1],"split_conditions":[-3.1044888E-1,-1.539573E0,-4.7394715E-2,-4.8289576E-1,-1.6234895E0,1.1291443E0,5.5357957E-1,5.6043442E-2,3.885604E-2,-2.2135755E-2,1.9678196E-2,-2.6176665E-2,8.5903695E-3,-6.474743E-3,1.025855E-2],"split_indices":[3,3,9,8,4,4,4,0,0,0,0,0,0,0,0],"split_type":[0,0,0,0,0,0,0,0,0,0,0,0,0,0,0],"sum_hessian":[2.0186844E3,7.80702E2,1.2379824E3,1.5509048E2,6.256116E2,7.391734E2,4.9880905E2,5.1673893E1,1.0341658E2,2.0888716E1,6.0472284E2,6.607139E2,7.845948E1,2.851354E2,2.1367363E2],"tree_param":{"num_deleted":"0","num_feature":"18","num_nodes":"15","size_leaf_vector":"1"}},{"base_weights":[-2.5806183E-3,-4.1779628E-1,2.2635801E-1,-8.983465E-1,-3.0846575E-1,2.3361681E-1,-8.415321E-2,8.065309E-2,-5.5048574E-2,-5.0547877E-3,-3.4576643E-2,2.4983143E-2,1.4194169E-3],"categories":[],"categories_nodes":[],"categories_segments":[],"categories_sizes":[],"default_left":[0,0,0,0,0,0,0,0,0,0,0,0,0],"id":11,"left_children":[1,3,5,7,9,11,-1,-1,-1,-1,-1,-1,-1],"loss_changes":[1.9042334E2,3.70121E1,1.8141312E1,6.8529755E1,4.606412E1,7.020437E1,0E0,0E0,0E0,0E0,0E0,0E0,0E0],"parents":[2147483647,0,0,1,1,2,2,3,3,4,4,5,5],"right_children":[2,4,6,8,10,12,-1,-1,-1,-1,-1,-1,-1],"split_conditions":[-4.2138147E-1,-1.0197953E0,5.562084E0,-1.3976978E0,1.683925E-1,-3.1044888E-1,-8.415321E-2,8.065309E-2,-5.5048574E-2,-5.0547877E-3,-3.4576643E-2,2.4983143E-2,1.4194169E-3],"split_indices":[17,17,6,11,3,3,0,0,0,0,0,0,0],"split_type":[0,0,0,0,0,0,0,0,0,0,0,0,0],"sum_hessian":[2.0010181E3,7.110431E2,1.289975E3,1.3028008E2,5.80763E2,1.2860161E3,3.958858E0,9.169952E0,1.21110115E2,3.7778006E2,2.0298296E2,5.5919147E2,7.2682465E2],"tree_param":{"num_deleted":"0","num_feature":"18","num_nodes":"13","size_leaf_vector":"1"}},{"base_weights":[9.145608E-3,-4.3034866E-1,2.296595E-1,-9.85213E-1,-3.243675E-1,3.3967036E-1,-4.927935E-2,-5.338734E-2,2.5367001E-2,-8.059402E-3,-3.6373504E-2,8.429275E-3,2.8810475E-2,-7.632137E-5,-3.92441E-2],"categories":[],"categories_nodes":[],"categories_segments":[],"categories_sizes":[],"default_left":[0,0,0,0,0,0,0,0,0,0,0,0,0,0,0],"id":12,"left_children":[1,3,5,7,9,11,13,-1,-1,-1,-1,-1,-1,-1,-1],"loss_changes":[1.9550778E2,3.9179893E1,4.1275284E1,1.3832497E1,3.712229E1,3.8837563E1,1.3290814E1,0E0,0E0,0E0,0E0,0E0,0E0,0E0,0E0],"parents":[2147483647,0,0,1,1,2,2,3,3,4,4,5,5,6,6],"right_children":[2,4,6,8,10,12,14,-1,-1,-1,-1,-1,-1,-1,-1],"split_conditions":[-4.2876333E-1,-1.0553708E0,2.1929757E-1,4.9101692E-1,5.1656264E-1,5.446822E-1,2.0468457E0,-5.338734E-2,2.5367001E-2,-8.059402E-3,-3.6373504E-2,8.429275E-3,2.8810475E-2,-7.632137E-5,-3.92441E-2],"split_indices":[17,17,11,1,0,17,0,0,0,0,0,0,0,0,0],"split_type":[0,0,0,0,0,0,0,0,0,0,0,0,0,0,0],"sum_hessian":[2.0155077E3,6.729274E2,1.3425802E3,1.0643699E2,5.664905E2,9.6294464E2,3.796356E2,1.0119293E2,5.2440567E0,4.0442398E2,1.6206647E2,5.60024E2,4.029207E2,3.5756186E2,2.207373E1],"tree_param":{"num_deleted":"0","num_feature":"18","num_nodes":"15","size_leaf_vector":"1"}},{"base_weights":[9.396616E-4,-3.7270355E-1,1.94832E-1,-1.0180938E-1,-6.051855E-1,3.2199827E-1,-7.307768E-2,-1.5423498E-2,8.264773E-3,-3.5140567E-2,3.405905E-3,2.3928082E-2,1.0107042E-2,-1.2734865E-2,8.264506E-3],"categories":[],"categories_nodes":[],"categories_segments":[],"categories_sizes":[],"default_left":[0,0,0,0,0,0,0,0,0,0,0,0,0,0,0],"id":13,"left_children":[1,3,5,7,9,11,13,-1,-1,-1,-1,-1,-1,-1,-1],"loss_changes":[1.4437639E2,4.2739952E1,4.4759335E1,1.7497597E1,2.4165756E1,1.6543404E1,1.8362888E1,0E0,0E0,0E0,0E0,0E0,0E0,0E0,0E0],"parents":[2147483647,0,0,1,1,2,2,3,3,4,4,5,5,6,6],"right_children":[2,4,6,8,10,12,14,-1,-1,-1,-1,-1,-1,-1,-1],"split_conditions":[-4.2876333E-1,-2.1719053E-1,3.9997742E-1,-7.192885E-1,7.232611E-1,-6.6967165E-1,4.6443284E-1,-1.5423498E-2,8.264773E-3,-3.5140567E-2,3.405905E-3,2.3928082E-2,1.0107042E-2,-1.2734865E-2,8.264506E-3],"split_indices":[17,0,0,17,2,0,17,0,0,0,0,0,0,0,0],"split_type":[0,0,0,0,0,0,0,0,0,0,0,0,0,0,0],"sum_hessian":[1.9911106E3,6.7975E2,1.3113607E3,3.1480215E2,3.6494785E2,8.893787E2,4.2198196E2,1.7760649E2,1.3719566E2,3.188245E2,4.612334E1,3.8397952E2,5.053992E2,2.3969904E2,1.8228293E2],"tree_param":{"num_deleted":"0","num_feature":"18","num_nodes":"15","size_leaf_vector":"1"}},{"base_weights":[-5.4436676E-2,-3.800088E-1,1.7892087E-1,-9.263418E-1,-2.9594982E-1,2.5489235E-1,-3.9024554E-2,-5.003476E-2,1.6973361E-2,-1.6479686E-2,2.6018932E-2,7.908331E-3,2.4843846E-2,4.2545674E-3,-4.60559E-2],"categories":[],"categories_nodes":[],"categories_segments":[],"categories_sizes":[],"default_left":[0,0,0,0,0,0,0,0,0,0,0,0,0,0,0],"id":14,"left_children":[1,3,5,7,9,11,13,-1,-1,-1,-1,-1,-1,-1,-1],"loss_changes":[1.4879416E2,3.7155434E1,1.8917477E1,1.06087265E1,1.9660046E1,1.96637E1,3.2497818E1,0E0,0E0,0E0,0E0,0E0,0E0,0E0,0E0],"parents":[2147483647,0,0,1,1,2,2,3,3,4,4,5,5,6,6],"right_children":[2,4,6,8,10,12,14,-1,-1,-1,-1,-1,-1,-1,-1],"split_conditions":[-2.7820885E-1,-1.0553708E0,8.840517E-1,2.2270033E0,1.9411901E0,6.721666E-1,1.3053074E0,-5.003476E-2,1.6973361E-2,-1.6479686E-2,2.6018932E-2,7.908331E-3,2.4843846E-2,4.2545674E-3,-4.60559E-2],"split_indices":[17,17,9,8,8,17,14,0,0,0,0,0,0,0,0],"split_type":[0,0,0,0,0,0,0,0,0,0,0,0,0,0,0],"sum_hessian":[1.9563099E3,8.166914E2,1.1396185E3,1.0740612E2,7.092853E2,8.4526514E2,2.9435345E2,1.0171957E2,5.686556E0,6.819004E2,2.7384872E1,6.0535876E2,2.3990634E2,2.5873767E2,3.561579E1],"tree_param":{"num_deleted":"0","num_feature":"18","num_nodes":"15","size_leaf_vector":"1"}},{"base_weights":[5.229037E-2,1.8060912E-1,-2.0103383E-1,-3.1524658E-1,2.8444555E-1,-6.206359E-1,3.3414476E-2,4.7401367E-3,-3.9914098E-2,2.943503E-2,6.779302E-3,4.3123025E-3,-4.3182712E-2,1.546405E-2,-1.4763045E-2],"categories":[],"categories_nodes":[],"categories_segments":[],"categories_sizes":[],"default_left":[0,0,0,0,0,0,0,0,0,0,0,0,0,0,0],"id":15,"left_children":[1,3,5,7,9,11,13,-1,-1,-1,-1,-1,-1,-1,-1],"loss_changes":[6.513602E1,6.857358E1,6.6343765E1,4.582527E1,4.96923E1,4.1665184E1,3.9346977E1,0E0,0E0,0E0,0E0,0E0,0E0,0E0,0E0],"parents":[2147483647,0,0,1,1,2,2,3,3,4,4,5,5,6,6],"right_children":[2,4,6,8,10,12,14,-1,-1,-1,-1,-1,-1,-1,-1],"split_conditions":[4.9631464E-1,-6.505818E-1,-3.989407E-1,8.19985E-3,-5.831073E-1,-3.1044888E-1,1.4496086E-2,4.7401367E-3,-3.9914098E-2,2.943503E-2,6.779302E-3,4.3123025E-3,-4.3182712E-2,1.546405E-2,-1.4763045E-2],"split_indices":[16,6,6,3,3,3,3,0,0,0,0,0,0,0,0],"split_type":[0,0,0,0,0,0,0,0,0,0,0,0,0,0,0],"sum_hessian":[2.0017458E3,1.329157E3,6.725889E2,2.2962367E2,1.0995333E3,2.40656E2,4.3193292E2,1.245174E2,1.0510628E2,3.6003293E2,7.3950037E2,6.1628155E1,1.7902785E2,2.350294E2,1.9690353E2],"tree_param":{"num_deleted":"0","num_feature":"18","num_nodes":"15","size_leaf_vector":"1"}},{"base_weights":[2.0635899E-3,-3.3453843E-1,2.0644565E-1,-1.8380058E-1,-7.075326E-1,3.4633815E-1,3.3985104E-2,4.8953267E-3,-2.5033373E-2,2.4607927E-2,-4.563607E-2,1.9577747E-2,-2.9156318E-2,-3.9007504E-2,3.713796E-3],"categories":[],"categories_nodes":[],"categories_segments":[],"categories_sizes":[],"default_left":[0,0,0,0,0,0,0,0,0,0,0,0,0,0,0],"id":16,"left_children":[1,3,5,7,9,11,13,-1,-1,-1,-1,-1,-1,-1,-1],"loss_changes":[1.3477426E2,4.138762E1,2.9365196E1,4.7271294E1,5.278743E1,2.8482971E1,1.7945898E1,0E0,0E0,0E0,0E0,0E0,0E0,0E0,0E0],"parents":[2147483647,0,0,1,1,2,2,3,3,4,4,5,5,6,6],"right_children":[2,4,6,8,10,12,14,-1,-1,-1,-1,-1,-1,-1,-1],"split_conditions":[-3.575534E-1,5.0837445E-1,2.9407406E-2,-1.9860196E-1,1.9583011E-2,4.8713243E-1,-2.688017E-1,4.8953267E-3,-2.5033373E-2,2.4607927E-2,-4.563607E-2,1.9577747E-2,-2.9156318E-2,-3.9007504E-2,3.713796E-3],"split_indices":[17,13,13,3,3,3,17,0,0,0,0,0,0,0,0],"split_type":[0,0,0,0,0,0,0,0,0,0,0,0,0,0,0],"sum_hessian":[1.9572413E3,7.390141E2,1.2182272E3,5.27569E2,2.1144514E2,6.717471E2,5.4648016E2,2.794777E2,2.4809123E2,3.060703E1,1.808381E2,6.412383E2,3.050876E1,2.478655E1,5.216936E2],"tree_param":{"num_deleted":"0","num_feature":"18","num_nodes":"15","size_leaf_vector":"1"}},{"base_weights":[7.825954E-2,3.879415E-1,-1.035171E-1,-9.539429E-2,4.6788305E-1,-2.921889E-2,-5.683267E-1,-1.2568794E-2,5.2969314E-2,2.631098E-2,8.65503E-3,-4.3305457E-3,1.4652574E-2,-7.235774E-3,-4.2194363E-2],"categories":[],"categories_nodes":[],"categories_segments":[],"categories_sizes":[],"default_left":[0,0,0,0,0,0,0,0,0,0,0,0,0,0,0],"id":17,"left_children":[1,3,5,7,9,11,13,-1,-1,-1,-1,-1,-1,-1,-1],"loss_changes":[1.1477144E2,2.9217987E1,4.4284584E1,1.9579851E1,1.097197E1,2.0511848E1,2.0415989E1,0E0,0E0,0E0,0E0,0E0,0E0,0E0,0E0],"parents":[2147483647,0,0,1,1,2,2,3,3,4,4,5,5,6,6],"right_children":[2,4,6,8,10,12,14,-1,-1,-1,-1,-1,-1,-1,-1],"split_conditions":[-3.5289475E-1,-1.1137555E0,1.2784652E0,-3.94874E-1,9.3751836E-1,1.275975E0,2.9335578E-3,-1.2568794E-2,5.2969314E-2,2.631098E-2,8.65503E-3,-4.3305457E-3,1.4652574E-2,-7.235774E-3,-4.2194363E-2],"split_indices":[3,15,15,3,9,3,3,0,0,0,0,0,0,0,0],"split_type":[0,0,0,0,0,0,0,0,0,0,0,0,0,0,0],"sum_hessian":[2.0366058E3,7.530669E2,1.283539E3,1.06671906E2,6.4639496E2,1.1077473E3,1.7579158E2,9.4743385E1,1.1928517E1,5.3866956E2,1.0772542E2,9.4117773E2,1.6656958E2,7.002786E1,1.05763725E2],"tree_param":{"num_deleted":"0","num_feature":"18","num_nodes":"15","size_leaf_vector":"1"}},{"base_weights":[-6.224789E-3,3.3072355E-1,-1.7168166E-1,3.688113E-1,-6.24742E-1,-7.492035E-3,-2.8000936E-1,4.13148E-2,1.5976025E-2,-6.1321773E-2,-2.1475514E-3,-7.0927576E-3,2.9657463E-2,-5.6948036E-2,-1.2762621E-2],"categories":[],"categories_nodes":[],"categories_segments":[],"categories_sizes":[],"default_left":[0,0,0,0,0,0,0,0,0,0,0,0,0,0,0],"id":18,"left_children":[1,3,5,7,9,11,13,-1,-1,-1,-1,-1,-1,-1,-1],"loss_changes":[1.0971172E2,2.3786232E1,2.3450325E1,1.3689781E1,8.610824E0,4.2503666E1,1.6475662E1,0E0,0E0,0E0,0E0,0E0,0E0,0E0,0E0],"parents":[2147483647,0,0,1,1,2,2,3,3,4,4,5,5,6,6],"right_children":[2,4,6,8,10,12,14,-1,-1,-1,-1,-1,-1,-1,-1],"split_conditions":[-3.94874E-1,1.7902052E-1,1.05624564E-1,-2.1917408E0,-6.842523E-2,6.383721E-1,1.2877305E-1,4.13148E-2,1.5976025E-2,-6.1321773E-2,-2.1475514E-3,-7.0927576E-3,2.9657463E-2,-5.6948036E-2,-1.2762621E-2],"split_indices":[3,10,3,3,8,2,3,0,0,0,0,0,0,0,0],"split_type":[0,0,0,0,0,0,0,0,0,0,0,0,0,0,0],"sum_hessian":[1.9661754E3,6.469916E2,1.3191838E3,6.228804E2,2.411125E1,5.2517755E2,7.940062E2,5.8853073E1,5.640273E2,1.122369E1,1.288756E1,4.2993228E2,9.52453E1,2.0869965E1,7.731363E2],"tree_param":{"num_deleted":"0","num_feature":"18","num_nodes":"15","size_leaf_vector":"1"}},{"base_weights":[1.7632036E-2,-3.6209548E-1,1.9122773E-1,-1.808131E-1,-6.5307015E-1,3.5039085E-1,-9.0623595E-2,1.8176598E-2,-1.5639728E-2,-3.7191987E-2,1.9597588E-2,2.2127537E-2,1.8106276E-3,6.467519E-2,-5.949754E-3],"categories":[],"categories_nodes":[],"categories_segments":[],"categories_sizes":[],"default_left":[0,0,0,0,0,0,0,0,0,0,0,0,0,0,0],"id":19,"left_children":[1,3,5,7,9,11,13,-1,-1,-1,-1,-1,-1,-1,-1],"loss_changes":[1.3051195E2,3.2559128E1,6.102382E1,2.7715122E1,2.2884659E1,2.5097076E1,1.9319519E1,0E0,0E0,0E0,0E0,0E0,0E0,0E0,0E0],"parents":[2147483647,0,0,1,1,2,2,3,3,4,4,5,5,6,6],"right_children":[2,4,6,8,10,12,14,-1,-1,-1,-1,-1,-1,-1,-1],"split_conditions":[-4.1989326E-1,1.0788804E-1,1.8325788E-1,-6.58568E-1,1.6294217E0,-8.550461E-2,-4.101891E-1,1.8176598E-2,-1.5639728E-2,-3.7191987E-2,1.9597588E-2,2.2127537E-2,1.8106276E-3,6.467519E-2,-5.949754E-3],"split_indices":[6,5,10,3,0,3,6,0,0,0,0,0,0,0,0],"split_type":[0,0,0,0,0,0,0,0,0,0,0,0,0,0,0],"sum_hessian":[1.9780907E3,6.2007074E2,1.3580199E3,3.8325882E2,2.3681192E2,8.679788E2,4.9004114E2,7.430067E1,3.0895813E2,2.1823975E2,1.8572184E1,6.705541E2,1.9742473E2,8.876507E0,4.8116464E2],"tree_param":{"num_deleted":"0","num_feature":"18","num_nodes":"15","size_leaf_vector":"1"}},{"base_weights":[-1.4231738E-2,-5.585253E-1,8.505749E-2,-9.023394E-1,-4.3627936E-1,1.8437445E-1,-2.4712354E-1,8.206951E-3,-5.1817924E-2,-3.333625E-2,7.124748E-3,-4.745166E-2,9.721879E-3,-3.142841E-2,1.2086113E-2],"categories":[],"categories_nodes":[],"categories_segments":[],"categories_sizes":[],"default_left":[0,0,0,0,0,0,0,0,0,0,0,0,0,0,0],"id":20,"left_children":[1,3,5,7,9,11,13,-1,-1,-1,-1,-1,-1,-1,-1],"loss_changes":[1.0630844E2,1.2228394E1,5.489954E1,1.1470856E1,3.0295906E1,1.4718975E1,7.1595764E1,0E0,0E0,0E0,0E0,0E0,0E0,0E0,0E0],"parents":[2147483647,0,0,1,1,2,2,3,3,4,4,5,5,6,6],"right_children":[2,4,6,8,10,12,14,-1,-1,-1,-1,-1,-1,-1,-1],"split_conditions":[-7.1344084E-1,-1.091219E0,6.6820496E-1,2.7097588E-2,7.2748584E-1,-1.6086977E0,3.252938E-1,8.206951E-3,-5.1817924E-2,-3.333625E-2,7.124748E-3,-4.745166E-2,9.721879E-3,-3.142841E-2,1.2086113E-2],"split_indices":[6,17,0,16,16,15,6,0,0,0,0,0,0,0,0],"split_type":[0,0,0,0,0,0,0,0,0,0,0,0,0,0,0],"sum_hessian":[1.9643717E3,3.0249677E2,1.661875E3,7.745549E1,2.2504128E2,1.2799391E3,3.8193585E2,8.538455E0,6.891704E1,1.6097005E2,6.407123E1,1.0355504E1,1.2695836E3,2.1448933E2,1.6744653E2],"tree_param":{"num_deleted":"0","num_feature":"18","num_nodes":"15","size_leaf_vector":"1"}},{"base_weights":[6.402954E-3,-3.018991E-1,2.1825345E-1,-1.2517339E-1,-6.017343E-1,3.805693E-1,1.0876766E-1,-2.3525244E-2,5.4816605E-4,-2.1016E-2,-3.9363053E-2,-4.6827663E-3,2.9419253E-2,-3.8561241E-3,9.812683E-3],"categories":[],"categories_nodes":[],"categories_segments":[],"categories_sizes":[],"default_left":[0,0,0,0,0,0,0,0,0,0,0,0,0,0,0],"id":21,"left_children":[1,3,5,7,9,11,13,-1,-1,-1,-1,-1,-1,-1,-1],"loss_changes":[1.2707573E2,4.1834236E1,2.0407856E1,2.3555016E1,9.4212265E0,4.5818275E1,1.125793E1,0E0,0E0,0E0,0E0,0E0,0E0,0E0,0E0],"parents":[2147483647,0,0,1,1,2,2,3,3,4,4,5,5,6,6],"right_children":[2,4,6,8,10,12,14,-1,-1,-1,-1,-1,-1,-1,-1],"split_conditions":[-2.7820885E-1,1.484555E-1,-3.8284805E-1,-2.3359527E-1,-2.278812E-1,-3.9214832E-1,-1.7866668E-1,-2.3525244E-2,5.4816605E-4,-2.1016E-2,-3.9363053E-2,-4.6827663E-3,2.9419253E-2,-3.8561241E-3,9.812683E-3],"split_indices":[17,5,5,1,8,1,1,0,0,0,0,0,0,0,0],"split_type":[0,0,0,0,0,0,0,0,0,0,0,0,0,0,0],"sum_hessian":[1.9437332E3,7.912886E2,1.1524446E3,4.9895233E2,2.9233627E2,4.6285675E2,6.8958777E2,1.4059363E2,3.583587E2,1.497299E2,1.4260637E2,1.410519E2,3.2180487E2,2.2035443E2,4.6923334E2],"tree_param":{"num_deleted":"0","num_feature":"18","num_nodes":"15","size_leaf_vector":"1"}},{"base_weights":[-7.97865E-3,2.611749E-1,-1.7628253E-1,-2.4948354E-1,3.1340083E-1,-3.4092233E-1,9.732617E-2,-4.318684E-2,3.75456E-3,-4.4858726E-3,1.9750042E-2,-4.345099E-2,-1.169016E-2,-6.9270427E-3,1.4093416E-2],"categories":[],"categories_nodes":[],"categories_segments":[],"categories_sizes":[],"default_left":[0,0,0,0,0,0,0,0,0,0,0,0,0,0,0],"id":22,"left_children":[1,3,5,7,9,11,13,-1,-1,-1,-1,-1,-1,-1,-1],"loss_changes":[8.831942E1,2.0085659E1,5.410874E1,1.4092167E1,2.2466942E1,4.2089104E1,1.969816E1,0E0,0E0,0E0,0E0,0E0,0E0,0E0,0E0],"parents":[2147483647,0,0,1,1,2,2,3,3,4,4,5,5,6,6],"right_children":[2,4,6,8,10,12,14,-1,-1,-1,-1,-1,-1,-1,-1],"split_conditions":[-3.176489E-1,-1.1294731E0,7.268355E-2,-3.0079517E-1,-5.905185E-1,-8.128522E-1,1.296748E-1,-4.318684E-2,3.75456E-3,-4.4858726E-3,1.9750042E-2,-4.345099E-2,-1.169016E-2,-6.9270427E-3,1.4093416E-2],"split_indices":[3,1,9,10,6,6,6,0,0,0,0,0,0,0,0],"split_type":[0,0,0,0,0,0,0,0,0,0,0,0,0,0,0],"sum_hessian":[1.9478453E3,7.489576E2,1.1988878E3,6.896223E1,6.7999536E2,7.48568E2,4.503198E2,2.3374073E1,4.558815E1,1.1425092E2,5.6574445E2,1.24877174E2,6.236908E2,1.9754321E2,2.5277657E2],"tree_param":{"num_deleted":"0","num_feature":"18","num_nodes":"15","size_leaf_vector":"1"}},{"base_weights":[-4.324569E-2,2.746939E-1,-2.3577105E-1,5.431097E-1,2.0026669E-1,-7.9818517E-1,-1.9120094E-1,-3.7330758E-2,3.1544905E-2,1.534828E-3,2.1658441E-2,-4.5105364E-2,2.3267549E-2,-3.1938255E-2,-4.094414E-3],"categories":[],"categories_nodes":[],"categories_segments":[],"categories_sizes":[],"default_left":[0,0,0,0,0,0,0,0,0,0,0,0,0,0,0],"id":23,"left_children":[1,3,5,7,9,11,13,-1,-1,-1,-1,-1,-1,-1,-1],"loss_changes":[1.20114525E2,1.4599838E1,3.0387978E1,1.8548569E1,2.289443E1,1.2185867E1,5.5357887E1,0E0,0E0,0E0,0E0,0E0,0E0,0E0,0E0],"parents":[2147483647,0,0,1,1,2,2,3,3,4,4,5,5,6,6],"right_children":[2,4,6,8,10,12,14,-1,-1,-1,-1,-1,-1,-1,-1],"split_conditions":[-3.4622896E-1,-1.4822532E0,-7.1043575E-1,-2.1040874E0,1.1318766E-2,4.5809844E-1,-6.855858E-1,-3.7330758E-2,3.1544905E-2,1.534828E-3,2.1658441E-2,-4.5105364E-2,2.3267549E-2,-3.1938255E-2,-4.094414E-3],"split_indices":[3,3,0,1,11,11,7,0,0,0,0,0,0,0,0],"split_type":[0,0,0,0,0,0,0,0,0,0,0,0,0,0,0],"sum_hessian":[1.9602946E3,7.389817E2,1.2213129E3,1.5876553E2,5.802161E2,8.8273155E1,1.1330398E3,9.567198E0,1.4919833E2,3.3666214E2,2.4355399E2,8.190214E1,6.3710175E0,2.2128079E2,9.11759E2],"tree_param":{"num_deleted":"0","num_feature":"18","num_nodes":"15","size_leaf_vector":"1"}},{"base_weights":[-1.4232878E-2,-2.3624001E-1,1.440979E-1,4.435549E-1,-2.979152E-1,2.6559517E-1,-2.5746517E-2,8.689766E-3,6.803782E-2,-5.4027893E-2,-1.1210713E-2,6.2720287E-3,2.1163054E-2,-7.0184073E-3,1.8642379E-2],"categories":[],"categories_nodes":[],"categories_segments":[],"categories_sizes":[],"default_left":[0,0,0,0,0,0,0,0,0,0,0,0,0,0,0],"id":24,"left_children":[1,3,5,7,9,11,13,-1,-1,-1,-1,-1,-1,-1,-1],"loss_changes":[6.848139E1,3.4126568E1,2.3490274E1,1.6370228E1,4.2566483E1,1.454673E1,2.1715204E1,0E0,0E0,0E0,0E0,0E0,0E0,0E0,0E0],"parents":[2147483647,0,0,1,1,2,2,3,3,4,4,5,5,6,6],"right_children":[2,4,6,8,10,12,14,-1,-1,-1,-1,-1,-1,-1,-1],"split_conditions":[-2.59154E-1,-1.3061926E0,1.9721901E-1,7.9166603E-1,-1.091219E0,5.446822E-1,5.552897E-1,8.689766E-3,6.803782E-2,-5.4027893E-2,-1.1210713E-2,6.2720287E-3,2.1163054E-2,-7.0184073E-3,1.8642379E-2],"split_indices":[17,11,11,8,17,17,8,0,0,0,0,0,0,0,0],"split_type":[0,0,0,0,0,0,0,0,0,0,0,0,0,0,0],"sum_hessian":[1.946E3,8.1015796E2,1.135842E3,6.673871E1,7.4341925E2,6.621802E2,4.736619E2,5.257446E1,1.41642475E1,6.2689617E1,6.807296E2,3.5184396E2,3.1033618E2,3.6857224E2,1.0508968E2],"tree_param":{"num_deleted":"0","num_feature":"18","num_nodes":"15","size_leaf_vector":"1"}},{"base_weights":[4.0747914E-2,1.5482885E-1,-1.7910331E-1,-4.6178944E-2,4.5362845E-1,-4.8150745E-1,2.5424603E-2,-1.5854163E-2,5.0774473E-3,-1.1057785E-2,2.7596295E-2,-6.219506E-2,-1.9032903E-2,-3.8545665E-3,2.2367485E-2],"categories":[],"categories_nodes":[],"categories_segments":[],"categories_sizes":[],"default_left":[0,0,0,0,0,0,0,0,0,0,0,0,0,0,0],"id":25,"left_children":[1,3,5,7,9,11,13,-1,-1,-1,-1,-1,-1,-1,-1],"loss_changes":[4.8282513E1,7.6194214E1,4.0723137E1,3.0409327E1,3.398842E1,1.9778786E1,1.7068844E1,0E0,0E0,0E0,0E0,0E0,0E0,0E0,0E0],"parents":[2147483647,0,0,1,1,2,2,3,3,4,4,5,5,6,6],"right_children":[2,4,6,8,10,12,14,-1,-1,-1,-1,-1,-1,-1,-1],"split_conditions":[2.0414934E-1,1.314189E-1,-2.1238695E-1,-7.0032114E-1,-9.009019E-1,-1.0197953E0,9.485037E-1,-1.5854163E-2,5.0774473E-3,-1.1057785E-2,2.7596295E-2,-6.219506E-2,-1.9032903E-2,-3.8545665E-3,2.2367485E-2],"split_indices":[11,17,17,17,1,17,15,0,0,0,0,0,0,0,0],"split_type":[0,0,0,0,0,0,0,0,0,0,0,0,0,0,0],"sum_hessian":[1.9230671E3,1.2665857E3,6.5648145E2,7.575076E2,5.0907803E2,2.6451633E2,3.9196512E2,2.6714536E2,4.903623E2,6.44411E1,4.4463693E2,2.9462456E1,2.3505386E2,3.1581198E2,7.615315E1],"tree_param":{"num_deleted":"0","num_feature":"18","num_nodes":"15","size_leaf_vector":"1"}},{"base_weights":[3.20425E-2,-2.4986283E-1,1.6305903E-1,-1.1010465E-2,-5.93451E-1,3.828179E-1,7.088205E-2,4.537436E-3,-4.7648463E-2,-3.1312253E-2,3.7149545E-2,2.0099824E-2,-8.4638245E-2,7.0792497E-3,-8.258856E-3],"categories":[],"categories_nodes":[],"categories_segments":[],"categories_sizes":[],"default_left":[0,0,0,0,0,0,0,0,0,0,0,0,0,0,0],"id":26,"left_children":[1,3,5,7,9,11,13,-1,-1,-1,-1,-1,-1,-1,-1],"loss_changes":[7.076348E1,4.9812065E1,2.6428879E1,3.4653896E1,1.1369072E1,1.5918724E1,1.5429796E1,0E0,0E0,0E0,0E0,0E0,0E0,0E0,0E0],"parents":[2147483647,0,0,1,1,2,2,3,3,4,4,5,5,6,6],"right_children":[2,4,6,8,10,12,14,-1,-1,-1,-1,-1,-1,-1,-1],"split_conditions":[-4.69016E-1,1.0788804E-1,-1.6648667E-1,-3.7048876E-1,3.7056432E0,1.5769075E0,8.840517E-1,4.537436E-3,-4.7648463E-2,-3.1312253E-2,3.7149545E-2,2.0099824E-2,-8.4638245E-2,7.0792497E-3,-8.258856E-3],"split_indices":[17,5,10,7,11,4,9,0,0,0,0,0,0,0,0],"split_type":[0,0,0,0,0,0,0,0,0,0,0,0,0,0,0],"sum_hessian":[1.9140627E3,6.067855E2,1.3072772E3,3.5873007E2,2.4805547E2,3.8504782E2,9.2222943E2,3.2447476E2,3.42553E1,2.4270609E2,5.3493752E0,3.823692E2,2.6786292E0,7.103067E2,2.1192273E2],"tree_param":{"num_deleted":"0","num_feature":"18","num_nodes":"15","size_leaf_vector":"1"}},{"base_weights":[-1.6541548E-2,2.8273275E-1,-7.8030296E-2,3.2397234E-1,-6.134195E-1,-9.9080235E-2,-6.599368E-2,1.8695759E-2,-3.562869E-2,4.597481E-2,-6.0747292E-2,5.6792363E-3,-1.1208043E-2],"categories":[],"categories_nodes":[],"categories_segments":[],"categories_sizes":[],"default_left":[0,0,0,0,0,0,0,0,0,0,0,0,0],"id":27,"left_children":[1,3,5,7,9,-1,11,-1,-1,-1,-1,-1,-1],"loss_changes":[3.548337E1,1.2312876E1,3.6337738E1,1.6533298E1,1.4696049E1,0E0,4.5243477E1,0E0,0E0,0E0,0E0,0E0,0E0],"parents":[2147483647,0,0,1,1,2,2,3,3,4,4,6,6],"right_children":[2,4,6,8,10,-1,12,-1,-1,-1,-1,-1,-1],"split_conditions":[-8.645011E-1,4.532709E-1,-2.881842E0,2.5452535E0,-2.1917408E0,-9.9080235E-2,-1.0785561E-2,1.8695759E-2,-3.562869E-2,4.597481E-2,-6.0747292E-2,5.6792363E-3,-1.1208043E-2],"split_indices":[5,12,12,9,3,0,3,0,0,0,0,0,0],"split_type":[0,0,0,0,0,0,0,0,0,0,0,0,0],"sum_hessian":[1.9271476E3,3.2757413E2,1.5995735E3,3.1387994E2,1.3694205E1,8.97044E0,1.590603E3,3.001537E2,1.3726254E1,3.663466E0,1.003074E1,7.4471967E2,8.4588336E2],"tree_param":{"num_deleted":"0","num_feature":"18","num_nodes":"13","size_leaf_vector":"1"}},{"base_weights":[-3.9033338E-3,2.2735772E-1,-1.4158794E-1,-4.52024E-1,2.6338908E-1,-4.5932552E-1,-5.5340614E-2,-5.728485E-3,-6.020254E-2,1.9817749E-2,8.294814E-3,-2.5878215E-2,4.128689E-2,4.4928014E-2,-4.1282424E-3],"categories":[],"categories_nodes":[],"categories_segments":[],"categories_sizes":[],"default_left":[0,0,0,0,0,0,0,0,0,0,0,0,0,0,0],"id":28,"left_children":[1,3,5,7,9,11,13,-1,-1,-1,-1,-1,-1,-1,-1],"loss_changes":[6.172988E1,1.7806442E1,3.3236042E1,9.033089E0,8.792362E0,1.9790764E1,2.4857647E1,0E0,0E0,0E0,0E0,0E0,0E0,0E0,0E0],"parents":[2147483647,0,0,1,1,2,2,3,3,4,4,5,5,6,6],"right_children":[2,4,6,8,10,12,14,-1,-1,-1,-1,-1,-1,-1,-1],"split_conditions":[-3.5289475E-1,-1.5883236E0,-6.855858E-1,-8.090312E-1,-4.227678E-1,8.3883595E-1,-6.4970255E-1,-5.728485E-3,-6.020254E-2,1.9817749E-2,8.294814E-3,-2.5878215E-2,4.128689E-2,4.4928014E-2,-4.1282424E-3],"split_indices":[3,1,7,5,11,5,7,0,0,0,0,0,0,0,0],"split_type":[0,0,0,0,0,0,0,0,0,0,0,0,0,0,0],"sum_hessian":[1.9369448E3,7.2232263E2,1.2146222E3,3.56581E1,6.8666455E2,2.581404E2,9.5648175E2,2.5500618E1,1.015748E1,2.887545E2,3.9791006E2,2.4759453E2,1.0545865E1,2.5550407E1,9.3093134E2],"tree_param":{"num_deleted":"0","num_feature":"18","num_nodes":"15","size_leaf_vector":"1"}},{"base_weights":[2.2624599E-2,-1.3352986E-1,1.24940984E-1,-9.2002255E-1,-7.580384E-2,-6.281928E-1,1.7647837E-1,-5.065586E-2,5.4420065E-2,6.216522E-4,-2.4862388E-2,-6.242745E-2,1.4145526E-3,-1.11412285E-2,1.0991974E-2],"categories":[],"categories_nodes":[],"categories_segments":[],"categories_sizes":[],"default_left":[0,0,0,0,0,0,0,0,0,0,0,0,0,0,0],"id":29,"left_children":[1,3,5,7,9,11,13,-1,-1,-1,-1,-1,-1,-1,-1],"loss_changes":[3.1180851E1,3.48915E1,4.584172E1,1.0929287E1,2.6853395E1,3.0957928E1,1.917609E1,0E0,0E0,0E0,0E0,0E0,0E0,0E0,0E0],"parents":[2147483647,0,0,1,1,2,2,3,3,4,4,5,5,6,6],"right_children":[2,4,6,8,10,12,14,-1,-1,-1,-1,-1,-1,-1,-1],"split_conditions":[-2.8501558E-1,-1.1453161E0,-4.026515E-1,5.354482E-1,7.456567E-1,2.631262E-1,-9.9443984E-1,-5.065586E-2,5.4420065E-2,6.216522E-4,-2.4862388E-2,-6.242745E-2,1.4145526E-3,-1.11412285E-2,1.0991974E-2],"split_indices":[7,17,17,1,0,4,1,0,0,0,0,0,0,0,0],"split_type":[0,0,0,0,0,0,0,0,0,0,0,0,0,0,0],"sum_hessian":[1.9495988E3,7.712463E2,1.1783524E3,5.1596443E1,7.1964984E2,7.462993E1,1.1037225E3,4.9831985E1,1.7644597E0,5.95669E2,1.2398083E2,3.7985397E1,3.6644535E1,1.0748367E2,9.9623883E2],"tree_param":{"num_deleted":"0","num_feature":"18","num_nodes":"15","size_leaf_vector":"1"}},{"base_weights":[3.6648255E-2,1.1013383E-1,-1.4074765E-1,-2.6518214E-1,1.9817942E-1,-6.1336517E-2,-1.03618994E-1,-1.6831761E-2,5.132523E-2,1.605956E-2,3.0207078E-3,-1.7517371E-2,8.884372E-4],"categories":[],"categories_nodes":[],"categories_segments":[],"categories_sizes":[],"default_left":[0,0,0,0,0,0,0,0,0,0,0,0,0],"id":30,"left_children":[1,3,5,7,9,-1,11,-1,-1,-1,-1,-1,-1],"loss_changes":[2.4902245E1,4.468995E1,2.229122E1,2.39894E1,1.8500618E1,0E0,1.6271866E1,0E0,0E0,0E0,0E0,0E0,0E0],"parents":[2147483647,0,0,1,1,2,2,3,3,4,4,6,6],"right_children":[2,4,6,8,10,-1,12,-1,-1,-1,-1,-1,-1],"split_conditions":[2.1929757E-1,-7.192885E-1,-1.0553708E0,1.9411901E0,4.1109648E-2,-6.1336517E-2,3.564459E-1,-1.6831761E-2,5.132523E-2,1.605956E-2,3.0207078E-3,-1.7517371E-2,8.884372E-4],"split_indices":[11,17,17,8,15,0,11,0,0,0,0,0,0],"split_type":[0,0,0,0,0,0,0,0,0,0,0,0,0],"sum_hessian":[1.9083071E3,1.3500126E3,5.582946E2,2.5592441E2,1.0940881E3,1.7308283E1,5.409863E2,2.4328334E2,1.264106E1,5.769063E2,5.171818E2,1.7804204E2,3.629443E2],"tree_param":{"num_deleted":"0","num_feature":"18","num_nodes":"13","size_leaf_vector":"1"}},{"base_weights":[2.2675624E-2,1.04961246E-1,-1.7258827E-1,-8.7951854E-2,1.8313244E-1,-4.5355225E-1,-7.341808E-2,6.7554094E-2,-5.857644E-3,1.2183921E-2,-9.161331E-3,-4.7651287E-2,-1.2082156E-2,-1.0412273E-2,6.3366974E-3],"categories":[],"categories_nodes":[],"categories_segments":[],"categories_sizes":[],"default_left":[0,0,0,0,0,0,0,0,0,0,0,0,0,0,0],"id":31,"left_children":[1,3,5,7,9,11,13,-1,-1,-1,-1,-1,-1,-1,-1],"loss_changes":[3.073039E1,2.032434E1,1.57079525E1,1.6358446E1,2.1313667E1,1.5253792E1,1.1379885E1,0E0,0E0,0E0,0E0,0E0,0E0,0E0,0E0],"parents":[2147483647,0,0,1,1,2,2,3,3,4,4,5,5,6,6],"right_children":[2,4,6,8,10,12,14,-1,-1,-1,-1,-1,-1,-1,-1],"split_conditions":[2.0131029E-1,-2.3924139E-1,-2.5919202E-1,-2.3956614E0,1.3561474E0,3.2678965E-1,6.325013E-1,6.7554094E-2,-5.857644E-3,1.2183921E-2,-9.161331E-3,-4.7651287E-2,-1.2082156E-2,-1.0412273E-2,6.3366974E-3],"split_indices":[10,1,1,16,14,10,10,0,0,0,0,0,0,0,0],"split_type":[0,0,0,0,0,0,0,0,0,0,0,0,0,0,0],"sum_hessian":[1.9108849E3,1.3450469E3,5.6583795E2,3.8745932E2,9.575876E2,1.4642166E2,4.194163E2,6.737569E0,3.8072177E2,8.2229895E2,1.3528862E2,4.243423E1,1.03987434E2,2.5087788E2,1.6853839E2],"tree_param":{"num_deleted":"0","num_feature":"18","num_nodes":"15","size_leaf_vector":"1"}},{"base_weights":[9.9572325E-3,1.032153E-1,-8.6660326E-2,1.1179739E-1,-8.881268E-2,-3.8367578E-1,-2.6980426E-2,-3.8389505E-3,1.0120612E-2,-6.239872E-2,-1.1659002E-2,-1.3914644E-2,9.387715E-3],"categories":[],"categories_nodes":[],"categories_segments":[],"categories_sizes":[],"default_left":[0,0,0,0,0,0,0,0,0,0,0,0,0],"id":32,"left_children":[1,3,5,7,-1,9,11,-1,-1,-1,-1,-1,-1],"loss_changes":[1.7195759E1,1.5702024E1,1.6553753E1,1.6570248E1,0E0,1.9901648E1,4.2229824E1,0E0,0E0,0E0,0E0,0E0,0E0],"parents":[2147483647,0,0,1,1,2,2,3,3,5,5,6,6],"right_children":[2,4,6,8,-1,10,12,-1,-1,-1,-1,-1,-1],"split_conditions":[-5.246447E-2,1.706042E0,-8.003236E-1,-3.790237E-1,-8.881268E-2,-1.104878E0,-8.8137254E-2,-3.8389505E-3,1.0120612E-2,-6.239872E-2,-1.1659002E-2,-1.3914644E-2,9.387715E-3],"split_indices":[5,4,9,17,0,17,17,0,0,0,0,0,0],"split_type":[0,0,0,0,0,0,0,0,0,0,0,0,0],"sum_hessian":[1.9062654E3,9.7048846E2,9.357769E2,9.6706635E2,3.4221265E0,1.5537929E2,7.803976E2,3.1356424E2,6.535021E2,2.1862995E1,1.335163E2,3.5965222E2,4.2074536E2],"tree_param":{"num_deleted":"0","num_feature":"18","num_nodes":"13","size_leaf_vector":"1"}},{"base_weights":[1.9360358E-2,-2.4993385E-1,1.614463E-1,-1.8790138E-1,-8.136488E-1,2.4563377E-1,-1.1401573E-1,3.2650568E-3,-2.6210595E-2,3.9519086E-2,-4.4358682E-2,4.8681567E-3,2.1304885E-2,-1.5097262E-2,5.7795825E-3],"categories":[],"categories_nodes":[],"categories_segments":[],"categories_sizes":[],"default_left":[0,0,0,0,0,0,0,0,0,0,0,0,0,0,0],"id":33,"left_children":[1,3,5,7,9,11,13,-1,-1,-1,-1,-1,-1,-1,-1],"loss_changes":[7.374851E1,2.3021091E1,2.9307976E1,5.126246E1,8.438091E0,2.5785984E1,1.2818214E1,0E0,0E0,0E0,0E0,0E0,0E0,0E0,0E0],"parents":[2147483647,0,0,1,1,2,2,3,3,4,4,5,5,6,6],"right_children":[2,4,6,8,10,12,14,-1,-1,-1,-1,-1,-1,-1,-1],"split_conditions":[-3.790237E-1,-2.6839188E-1,8.840517E-1,8.19985E-3,-1.1395942E0,-2.1447459E-1,1.6901509E0,3.2650568E-3,-2.6210595E-2,3.9519086E-2,-4.4358682E-2,4.8681567E-3,2.1304885E-2,-1.5097262E-2,5.7795825E-3],"split_indices":[17,6,9,3,9,8,9,0,0,0,0,0,0,0,0],"split_type":[0,0,0,0,0,0,0,0,0,0,0,0,0,0,0],"sum_hessian":[1.9255913E3,6.6457166E2,1.2610197E3,6.000514E2,6.4520294E1,9.661986E2,2.94821E2,3.426126E2,2.5743875E2,2.3408983E0,6.2179398E1,5.31559E2,4.3463962E2,1.6219104E2,1.3262997E2],"tree_param":{"num_deleted":"0","num_feature":"18","num_nodes":"15","size_leaf_vector":"1"}},{"base_weights":[-1.4217528E-2,-3.2016334E-1,8.695658E-2,-4.3514416E-2,-5.178353E-1,-9.850337E-2,1.9053057E-1,8.308733E-3,-5.6618895E-2,-3.0452514E-2,7.4773342E-3,-9.05133E-5,-1.974096E-2,1.4639981E-2,-6.9132744E-4],"categories":[],"categories_nodes":[],"categories_segments":[],"categories_sizes":[],"default_left":[0,0,0,0,0,0,0,0,0,0,0,0,0,0,0],"id":34,"left_children":[1,3,5,7,9,11,13,-1,-1,-1,-1,-1,-1,-1,-1],"loss_changes":[5.892575E1,2.579493E1,2.749434E1,4.560213E1,1.6917488E1,1.4649493E1,1.9221313E1,0E0,0E0,0E0,0E0,0E0,0E0,0E0,0E0],"parents":[2147483647,0,0,1,1,2,2,3,3,4,4,5,5,6,6],"right_children":[2,4,6,8,10,12,14,-1,-1,-1,-1,-1,-1,-1,-1],"split_conditions":[-5.521132E-1,5.2723423E-2,-4.1974458E-1,3.054248E-1,4.4868478E-1,5.16776E-1,4.0328515E-1,8.308733E-3,-5.6618895E-2,-3.0452514E-2,7.4773342E-3,-9.05133E-5,-1.974096E-2,1.4639981E-2,-6.9132744E-4],"split_indices":[6,16,8,2,2,4,4,0,0,0,0,0,0,0,0],"split_type":[0,0,0,0,0,0,0,0,0,0,0,0,0,0,0],"sum_hessian":[1.9010151E3,4.7213248E2,1.4288827E3,1.9747928E2,2.746532E2,5.117051E2,9.171776E2,1.6622404E2,3.1255226E1,2.4183716E2,3.2816032E1,3.8682187E2,1.2488325E2,6.11309E2,3.058686E2],"tree_param":{"num_deleted":"0","num_feature":"18","num_nodes":"15","size_leaf_vector":"1"}},{"base_weights":[3.4181744E-2,1.1452697E-1,-2.3188679E-1,-2.839116E-1,1.4720441E-1,-8.165666E-1,-1.49384E-1,-1.9794703E-2,1.3706328E-2,-7.297212E-3,1.3086473E-2,7.4130826E-2,-4.5614123E-2,-1.54776005E-2,8.268841E-3],"categories":[],"categories_nodes":[],"categories_segments":[],"categories_sizes":[],"default_left":[0,0,0,0,0,0,0,0,0,0,0,0,0,0,0],"id":35,"left_children":[1,3,5,7,9,11,13,-1,-1,-1,-1,-1,-1,-1,-1],"loss_changes":[4.0486557E1,1.8973003E1,2.0964613E1,7.019623E0,4.522764E1,1.3163776E1,1.9536331E1,0E0,0E0,0E0,0E0,0E0,0E0,0E0,0E0],"parents":[2147483647,0,0,1,1,2,2,3,3,4,4,5,5,6,6],"right_children":[2,4,6,8,10,12,14,-1,-1,-1,-1,-1,-1,-1,-1],"split_conditions":[2.5818565E-1,-9.9443984E-1,3.1955048E-1,1.8680964E-1,-4.8135316E-1,-2.1602504E0,3.252938E-1,-1.9794703E-2,1.3706328E-2,-7.297212E-3,1.3086473E-2,7.4130826E-2,-4.5614123E-2,-1.54776005E-2,8.268841E-3],"split_indices":[10,1,10,10,6,16,6,0,0,0,0,0,0,0,0],"split_type":[0,0,0,0,0,0,0,0,0,0,0,0,0,0,0],"sum_hessian":[1.8922074E3,1.4540657E3,4.3814163E2,1.0939957E2,1.3446661E3,5.2929806E1,3.8521182E2,9.150655E1,1.7893015E1,3.7742566E2,9.672405E2,1.4945613E0,5.1435246E1,2.5552208E2,1.2968976E2],"tree_param":{"num_deleted":"0","num_feature":"18","num_nodes":"15","size_leaf_vector":"1"}},{"base_weights":[2.3954237E-2,-1.9180882E-1,9.692828E-2,-2.845216E-1,3.532914E-1,-1.0736688E0,1.17174216E-1,-2.7582316E-2,-5.0382386E-3,2.6857397E-2,-3.0302022E-2,2.3540316E-2,-5.831551E-2,1.675899E-2,1.4414155E-3],"categories":[],"categories_nodes":[],"categories_segments":[],"categories_sizes":[],"default_left":[0,0,0,0,0,0,0,0,0,0,0,0,0,0,0],"id":36,"left_children":[1,3,5,7,9,11,13,-1,-1,-1,-1,-1,-1,-1,-1],"loss_changes":[3.016856E1,2.455893E1,3.3977364E1,2.0222412E1,1.2781293E1,4.105118E0,2.7091433E1,0E0,0E0,0E0,0E0,0E0,0E0,0E0,0E0],"parents":[2147483647,0,0,1,1,2,2,3,3,4,4,5,5,6,6],"right_children":[2,4,6,8,10,12,14,-1,-1,-1,-1,-1,-1,-1,-1],"split_conditions":[-7.0130366E-1,6.86098E-1,-1.255149E0,5.9944344E-1,2.2933605E0,-6.4335006E-1,-4.138072E-2,-2.7582316E-2,-5.0382386E-3,2.6857397E-2,-3.0302022E-2,2.3540316E-2,-5.831551E-2,1.675899E-2,1.4414155E-3],"split_indices":[15,17,17,16,6,4,15,0,0,0,0,0,0,0,0],"split_type":[0,0,0,0,0,0,0,0,0,0,0,0,0,0,0],"sum_hessian":[1.9144814E3,4.830991E2,1.4313823E3,4.1344092E2,6.965818E1,2.3366838E1,1.4080155E3,1.674602E2,2.4598071E2,5.891198E1,1.07462E1,1.0302069E0,2.2336632E1,4.049126E2,1.0031029E3],"tree_param":{"num_deleted":"0","num_feature":"18","num_nodes":"15","size_leaf_vector":"1"}},{"base_weights":[2.3975652E-2,1.2541735E-1,-1.4920822E-1,-9.5786184E-1,1.4277598E-1,-1.0510236E-1,-9.190625E-1,-6.5490715E-2,-1.9463433E-2,9.000728E-3,-7.5477967E-3,-3.820324E-3,-6.3878454E-2,-6.1610073E-2,-2.4073524E-3],"categories":[],"categories_nodes":[],"categories_segments":[],"categories_sizes":[],"default_left":[0,0,0,0,0,0,0,0,0,0,0,0,0,0,0],"id":37,"left_children":[1,3,5,7,9,11,13,-1,-1,-1,-1,-1,-1,-1,-1],"loss_changes":[3.337571E1,2.2589611E1,2.3620426E1,3.1102123E0,1.2941769E1,2.2132103E1,1.0110437E1,0E0,0E0,0E0,0E0,0E0,0E0,0E0,0E0],"parents":[2147483647,0,0,1,1,2,2,3,3,4,4,5,5,6,6],"right_children":[2,4,6,8,10,12,14,-1,-1,-1,-1,-1,-1,-1,-1],"split_conditions":[1.7991924E-1,-1.6086977E0,1.4406363E0,4.9887657E-1,1.3428851E0,1.6084266E0,1.621515E0,-6.5490715E-2,-1.9463433E-2,9.000728E-3,-7.5477967E-3,-3.820324E-3,-6.3878454E-2,-6.1610073E-2,-2.4073524E-3],"split_indices":[10,15,12,14,14,15,13,0,0,0,0,0,0,0,0],"split_type":[0,0,0,0,0,0,0,0,0,0,0,0,0,0,0],"sum_hessian":[1.8978644E3,1.1973657E3,7.004986E2,1.7938803E1,1.179427E3,6.6373865E2,3.6759945E1,1.0166429E1,7.7723737E0,1.0473716E3,1.3205542E2,6.490048E2,1.4733805E1,2.6648706E1,1.01112385E1],"tree_param":{"num_deleted":"0","num_feature":"18","num_nodes":"15","size_leaf_vector":"1"}},{"base_weights":[3.0152494E-2,-3.5041937E-1,9.6113846E-2,-1.19727775E-1,-7.5343E-1,2.4314639E-1,-8.4222026E-2,-1.0980988E-2,7.182791E-2,-4.4694383E-2,4.1383825E-2,3.2693397E-2,9.956975E-3,1.3873614E-2,-7.278591E-3],"categories":[],"categories_nodes":[],"categories_segments":[],"categories_sizes":[],"default_left":[0,0,0,0,0,0,0,0,0,0,0,0,0,0,0],"id":38,"left_children":[1,3,5,7,9,11,13,-1,-1,-1,-1,-1,-1,-1,-1],"loss_changes":[4.7983982E1,2.6068657E1,4.325219E1,2.8313763E1,2.349236E1,1.6022507E1,1.6280365E1,0E0,0E0,0E0,0E0,0E0,0E0,0E0,0E0],"parents":[2147483647,0,0,1,1,2,2,3,3,4,4,5,5,6,6],"right_children":[2,4,6,8,10,12,14,-1,-1,-1,-1,-1,-1,-1,-1],"split_conditions":[-7.0829284E-1,4.6410292E-2,1.4496086E-2,5.228265E-1,1.0018383E0,-1.8761809E0,-5.1468545E-1,-1.0980988E-2,7.182791E-2,-4.4694383E-2,4.1383825E-2,3.2693397E-2,9.956975E-3,1.3873614E-2,-7.278591E-3],"split_indices":[6,3,3,12,3,3,7,0,0,0,0,0,0,0,0],"split_type":[0,0,0,0,0,0,0,0,0,0,0,0,0,0,0],"sum_hessian":[1.9101527E3,2.813045E2,1.6288483E3,1.7988171E2,1.01422775E2,8.9738947E2,7.314588E2,1.6989966E2,9.982065E0,9.360525E1,7.817533E0,8.5284874E1,8.1210455E2,1.0532877E2,6.2613E2],"tree_param":{"num_deleted":"0","num_feature":"18","num_nodes":"15","size_leaf_vector":"1"}},{"base_weights":[-1.810285E-2,1.2787177E-1,-1.8940848E-1,-4.4447672E-1,1.8669671E-1,-2.948669E-1,2.4811218E-2,3.414301E-2,-2.8512482E-2,4.1278344E-2,7.363453E-3,-3.5114035E-2,-9.853599E-3,1.1735887E-2,-9.9437E-3],"categories":[],"categories_nodes":[],"categories_segments":[],"categories_sizes":[],"default_left":[0,0,0,0,0,0,0,0,0,0,0,0,0,0,0],"id":39,"left_children":[1,3,5,7,9,11,13,-1,-1,-1,-1,-1,-1,-1,-1],"loss_changes":[4.761798E1,3.466027E1,1.9830248E1,1.3979065E1,2.327853E1,2.3182808E1,1.3651604E1,0E0,0E0,0E0,0E0,0E0,0E0,0E0,0E0],"parents":[2147483647,0,0,1,1,2,2,3,3,4,4,5,5,6,6],"right_children":[2,4,6,8,10,12,14,-1,-1,-1,-1,-1,-1,-1,-1],"split_conditions":[-1.0785561E-2,-9.306481E-1,2.4955718E-1,-1.0210252E0,-1.9476794E0,3.8947925E-2,8.5579324E-1,3.414301E-2,-2.8512482E-2,4.1278344E-2,7.363453E-3,-3.5114035E-2,-9.853599E-3,1.1735887E-2,-9.9437E-3],"split_indices":[3,1,9,9,3,5,9,0,0,0,0,0,0,0,0],"split_type":[0,0,0,0,0,0,0,0,0,0,0,0,0,0,0],"sum_hessian":[1.9020266E3,1.026762E3,8.7526465E2,9.492409E1,9.318379E2,5.865847E2,2.8867996E2,9.003034E0,8.592105E1,5.2858852E1,8.7897906E2,1.1215268E2,4.74432E2,1.49132E2,1.3954794E2],"tree_param":{"num_deleted":"0","num_feature":"18","num_nodes":"15","size_leaf_vector":"1"}},{"base_weights":[1.0281147E-3,-2.2025716E-1,1.0017113E-1,4.6616235E-1,-2.6044762E-1,2.289068E-1,-1.0340085E-1,-6.547851E-2,3.1224594E-2,-1.783278E-2,2.3699608E-3,2.249921E-2,7.3012733E-3,2.9758835E-2,-6.8501956E-3],"categories":[],"categories_nodes":[],"categories_segments":[],"categories_sizes":[],"default_left":[0,0,0,0,0,0,0,0,0,0,0,0,0,0,0],"id":40,"left_children":[1,3,5,7,9,11,13,-1,-1,-1,-1,-1,-1,-1,-1],"loss_changes":[4.2120766E1,1.648492E1,3.4801342E1,1.0047107E1,1.6687565E1,1.4776279E1,1.2108488E1,0E0,0E0,0E0,0E0,0E0,0E0,0E0,0E0],"parents":[2147483647,0,0,1,1,2,2,3,3,4,4,5,5,6,6],"right_children":[2,4,6,8,10,12,14,-1,-1,-1,-1,-1,-1,-1,-1],"split_conditions":[-4.261656E-1,-1.4623376E0,1.9771221E-1,-1.329085E0,3.2685655E-1,-7.410549E-1,-1.4629679E0,-6.547851E-2,3.1224594E-2,-1.783278E-2,2.3699608E-3,2.249921E-2,7.3012733E-3,2.9758835E-2,-6.8501956E-3],"split_indices":[6,11,11,13,11,11,13,0,0,0,0,0,0,0,0],"split_type":[0,0,0,0,0,0,0,0,0,0,0,0,0,0,0],"sum_hessian":[1.918455E3,5.9289484E2,1.32556E3,3.20705E1,5.6082434E2,8.1226404E2,5.13296E2,1.9784603E0,3.0092037E1,4.2741525E2,1.334091E2,2.199457E2,5.9231836E2,2.26539E1,4.9064212E2],"tree_param":{"num_deleted":"0","num_feature":"18","num_nodes":"15","size_leaf_vector":"1"}},{"base_weights":[1.0895426E-2,1.3160104E-1,-1.0028503E-1,8.371805E-3,3.4387213E-1,-4.3774914E-2,-5.4140586E-1,-4.1458342E-2,2.0535917E-3,-2.0979026E-2,2.1903705E-2,-1.0768502E-2,6.9854646E-3,-1.9877685E-2,-6.7551486E-2],"categories":[],"categories_nodes":[],"categories_segments":[],"categories_sizes":[],"default_left":[0,0,0,0,0,0,0,0,0,0,0,0,0,0,0],"id":41,"left_children":[1,3,5,7,9,11,13,-1,-1,-1,-1,-1,-1,-1,-1],"loss_changes":[2.570387E1,2.399078E1,2.4758411E1,1.5909163E1,2.4428062E1,2.7890266E1,1.2433838E1,0E0,0E0,0E0,0E0,0E0,0E0,0E0,0E0],"parents":[2147483647,0,0,1,1,2,2,3,3,4,4,5,5,6,6],"right_children":[2,4,6,8,10,12,14,-1,-1,-1,-1,-1,-1,-1,-1],"split_conditions":[-1.3488472E-1,4.5356148E-1,1.2784652E0,-9.6522474E-1,-9.085887E-1,5.261634E-2,1.0513872E0,-4.1458342E-2,2.0535917E-3,-2.0979026E-2,2.1903705E-2,-1.0768502E-2,6.9854646E-3,-1.9877685E-2,-6.7551486E-2],"split_indices":[4,15,15,7,12,7,0,0,0,0,0,0,0,0,0],"split_type":[0,0,0,0,0,0,0,0,0,0,0,0,0,0,0],"sum_hessian":[1.9131088E3,9.1760535E2,9.955034E2,5.815248E2,3.360806E2,8.836311E2,1.11872314E2,2.0821196E1,5.6070355E2,3.6418E1,2.996626E2,4.5680063E2,4.2683047E2,9.636495E1,1.550736E1],"tree_param":{"num_deleted":"0","num_feature":"18","num_nodes":"15","size_leaf_vector":"1"}},{"base_weights":[-4.3979785E-3,1.8121524E-1,-9.923621E-2,1.4751822E-1,7.2361743E-1,-8.371463E-1,-5.5056047E-2,-7.2293966E-3,1.0876171E-2,8.338555E-2,1.9277647E-2,-1.3908726E-2,-5.0673194E-2,-9.8879E-3,4.6126856E-3],"categories":[],"categories_nodes":[],"categories_segments":[],"categories_sizes":[],"default_left":[0,0,0,0,0,0,0,0,0,0,0,0,0,0,0],"id":42,"left_children":[1,3,5,7,9,11,13,-1,-1,-1,-1,-1,-1,-1,-1],"loss_changes":[3.320524E1,1.146143E1,4.0585552E1,1.2345351E1,1.0919271E1,6.5234985E0,2.4827875E1,0E0,0E0,0E0,0E0,0E0,0E0,0E0,0E0],"parents":[2147483647,0,0,1,1,2,2,3,3,4,4,5,5,6,6],"right_children":[2,4,6,8,10,12,14,-1,-1,-1,-1,-1,-1,-1,-1],"split_conditions":[-4.0205237E-1,1.5259362E0,-1.0553708E0,-4.9575412E-1,-7.9382026E-1,-1.1137555E0,-9.732488E-2,-7.2293966E-3,1.0876171E-2,8.338555E-2,1.9277647E-2,-1.3908726E-2,-5.0673194E-2,-9.8879E-3,4.6126856E-3],"split_indices":[3,15,17,6,17,15,17,0,0,0,0,0,0,0,0],"split_type":[0,0,0,0,0,0,0,0,0,0,0,0,0,0,0],"sum_hessian":[1.8847593E3,6.366908E2,1.2480685E3,6.0082086E2,3.5869976E1,6.936144E1,1.178707E3,1.1567161E2,4.8514923E2,8.342746E0,2.752723E1,1.7386541E1,5.1974903E1,5.988882E2,5.798188E2],"tree_param":{"num_deleted":"0","num_feature":"18","num_nodes":"15","size_leaf_vector":"1"}},{"base_weights":[-3.7454203E-2,1.6017303E-1,-1.5685506E-1,7.108313E-1,1.269668E-1,-7.20419E-1,-1.0364217E-1,4.5002747E-2,-1.4394231E-2,-5.8658044E-3,9.193518E-3,-4.1527223E-2,1.726068E-2,-1.2992041E-2,1.3771797E-5],"categories":[],"categories_nodes":[],"categories_segments":[],"categories_sizes":[],"default_left":[0,0,0,0,0,0,0,0,0,0,0,0,0,0,0],"id":43,"left_children":[1,3,5,7,9,11,13,-1,-1,-1,-1,-1,-1,-1,-1],"loss_changes":[4.3517124E1,1.2522408E1,3.4323746E1,7.7097225E0,9.150496E0,1.1937809E1,1.7100554E1,0E0,0E0,0E0,0E0,0E0,0E0,0E0,0E0],"parents":[2147483647,0,0,1,1,2,2,3,3,4,4,5,5,6,6],"right_children":[2,4,6,8,10,12,14,-1,-1,-1,-1,-1,-1,-1,-1],"split_conditions":[-3.176489E-1,-2.338887E0,-8.6176205E-1,3.1356184E0,-8.994889E-1,6.2058103E-1,-2.59154E-1,4.5002747E-2,-1.4394231E-2,-5.8658044E-3,9.193518E-3,-4.1527223E-2,1.726068E-2,-1.2992041E-2,1.3771797E-5],"split_indices":[3,3,6,17,8,3,17,0,0,0,0,0,0,0,0],"split_type":[0,0,0,0,0,0,0,0,0,0,0,0,0,0,0],"sum_hessian":[1.8421404E3,6.9335297E2,1.1487874E3,3.810133E1,6.5525165E2,9.786862E1,1.0509187E3,3.2199505E1,5.9018254E0,1.2326495E2,5.319867E2,8.898691E1,8.881711E0,4.1963174E2,6.31287E2],"tree_param":{"num_deleted":"0","num_feature":"18","num_nodes":"15","size_leaf_vector":"1"}},{"base_weights":[2.799582E-3,-9.508843E-1,2.7735448E-2,4.63583E-2,-1.1198282E0,9.651953E-1,1.8092284E-2,6.435872E-2,-3.886728E-2,-6.335368E-2,-2.1138622E-3,1.4849673E-3,1.0050354E-1,2.83737E-3,-6.2511596E-3],"categories":[],"categories_nodes":[],"categories_segments":[],"categories_sizes":[],"default_left":[0,0,0,0,0,0,0,0,0,0,0,0,0,0,0],"id":44,"left_children":[1,3,5,7,9,11,13,-1,-1,-1,-1,-1,-1,-1,-1],"loss_changes":[4.4427567E1,8.178791E0,1.6376694E1,8.993233E0,6.2936897E0,1.7771387E1,9.996429E0,0E0,0E0,0E0,0E0,0E0,0E0,0E0,0E0],"parents":[2147483647,0,0,1,1,2,2,3,3,4,4,5,5,6,6],"right_children":[2,4,6,8,10,12,14,-1,-1,-1,-1,-1,-1,-1,-1],"split_conditions":[-1.1453161E0,-1.7058942E0,-1.0704023E0,-1.1162691E0,5.513122E-1,2.2013325E-4,7.711015E-1,6.435872E-2,-3.886728E-2,-6.335368E-2,-2.1138622E-3,1.4849673E-3,1.0050354E-1,2.83737E-3,-6.2511596E-3],"split_indices":[17,0,7,7,12,2,16,0,0,0,0,0,0,0,0],"split_type":[0,0,0,0,0,0,0,0,0,0,0,0,0,0,0],"sum_hessian":[1.8699741E3,4.6599792E1,1.8233743E3,6.7702208E0,3.982957E1,1.745063E1,1.8059237E3,2.5251327E0,4.245088E0,3.4804867E1,5.0247035E0,9.800339E0,7.6502914E0,1.4229034E3,3.8302026E2],"tree_param":{"num_deleted":"0","num_feature":"18","num_nodes":"15","size_leaf_vector":"1"}},{"base_weights":[-6.3035615E-2,-2.4993521E-1,1.046283E-2,-3.7735674E-1,1.5358774E-1,2.0410326E-1,-1.0691357E-1,-1.5529163E-2,-5.3841736E-2,1.2846579E-2,-4.1099127E-2,-1.861639E-2,1.5358919E-2,-1.5744982E-2,-8.25175E-4],"categories":[],"categories_nodes":[],"categories_segments":[],"categories_sizes":[],"default_left":[0,0,0,0,0,0,0,0,0,0,0,0,0,0,0],"id":45,"left_children":[1,3,5,7,9,11,13,-1,-1,-1,-1,-1,-1,-1,-1],"loss_changes":[2.5210901E1,2.6709126E1,2.9952913E1,1.7933006E1,1.2738107E1,2.9666464E1,1.538027E1,0E0,0E0,0E0,0E0,0E0,0E0,0E0,0E0],"parents":[2147483647,0,0,1,1,2,2,3,3,4,4,5,5,6,6],"right_children":[2,4,6,8,10,12,14,-1,-1,-1,-1,-1,-1,-1,-1],"split_conditions":[-2.5919202E-1,7.088208E-1,-3.888829E-1,5.1246727E-1,1.1665008E0,-7.46811E-1,-4.1989326E-1,-1.5529163E-2,-5.3841736E-2,1.2846579E-2,-4.1099127E-2,-1.861639E-2,1.5358919E-2,-1.5744982E-2,-8.25175E-4],"split_indices":[1,6,13,6,13,6,6,0,0,0,0,0,0,0,0],"split_type":[0,0,0,0,0,0,0,0,0,0,0,0,0,0,0],"sum_hessian":[1.8323445E3,5.168934E2,1.315451E3,3.9308163E2,1.2381177E2,4.964882E2,8.189628E2,3.60276E2,3.2805634E1,1.1271121E2,1.1100553E1,7.4769485E1,4.217187E2,2.4704742E2,5.719154E2],"tree_param":{"num_deleted":"0","num_feature":"18","num_nodes":"15","size_leaf_vector":"1"}},{"base_weights":[1.4073695E-2,3.8757688E-1,-1.8428788E-2,4.3619418E-1,-9.882015E-2,9.096569E-2,-1.442956E-1,7.1165405E-2,1.6700558E-2,-6.1979044E-2,5.551538E-3,-2.2597207E-2,3.2323052E-3],"categories":[],"categories_nodes":[],"categories_segments":[],"categories_sizes":[],"default_left":[0,0,0,0,0,0,0,0,0,0,0,0,0],"id":46,"left_children":[1,3,5,7,-1,9,11,-1,-1,-1,-1,-1,-1],"loss_changes":[2.2922327E1,1.8080885E1,2.3899788E1,1.4375332E1,0E0,2.4803076E1,5.196154E1,0E0,0E0,0E0,0E0,0E0,0E0],"parents":[2147483647,0,0,1,1,2,2,3,3,5,5,6,6],"right_children":[2,4,6,8,-1,10,12,-1,-1,-1,-1,-1,-1],"split_conditions":[-1.253465E0,1.5917389E0,1.9583011E-2,-1.091219E0,-9.882015E-2,-1.19878E0,-2.1238695E-1,7.1165405E-2,1.6700558E-2,-6.1979044E-2,5.551538E-3,-2.2597207E-2,3.2323052E-3],"split_indices":[10,16,3,17,0,17,17,0,0,0,0,0,0],"split_type":[0,0,0,0,0,0,0,0,0,0,0,0,0],"sum_hessian":[1.8835701E3,1.5015955E2,1.7334105E3,1.4797412E2,2.185431E0,9.2711285E2,8.062977E2,1.257629E1,1.3539783E2,1.27964735E1,9.1431635E2,3.2584085E2,4.8045685E2],"tree_param":{"num_deleted":"0","num_feature":"18","num_nodes":"13","size_leaf_vector":"1"}},{"base_weights":[-2.0621706E-2,6.1865017E-2,-1.2746885E-1,-2.1829647E-1,1.5149975E-1,-7.789924E-1,-8.429578E-2,1.669967E-2,-1.5276854E-2,1.104506E-2,-2.1348042E-2,-4.6675887E-2,3.4459483E-2,-2.2071993E-3,-4.0233754E-2],"categories":[],"categories_nodes":[],"categories_segments":[],"categories_sizes":[],"default_left":[0,0,0,0,0,0,0,0,0,0,0,0,0,0,0],"id":47,"left_children":[1,3,5,7,9,11,13,-1,-1,-1,-1,-1,-1,-1,-1],"loss_changes":[1.6375185E1,2.6337276E1,2.2620663E1,1.2342215E1,3.1975113E1,1.2022409E1,2.1878181E1,0E0,0E0,0E0,0E0,0E0,0E0,0E0,0E0],"parents":[2147483647,0,0,1,1,2,2,3,3,4,4,5,5,6,6],"right_children":[2,4,6,8,10,12,14,-1,-1,-1,-1,-1,-1,-1,-1],"split_conditions":[4.4209946E-2,-4.0624243E-1,-8.973284E-1,-1.992136E0,1.15468085E-1,6.46489E-1,1.621628E0,1.669967E-2,-1.5276854E-2,1.104506E-2,-2.1348042E-2,-4.6675887E-2,3.4459483E-2,-2.2071993E-3,-4.0233754E-2],"split_indices":[5,1,7,5,3,3,1,0,0,0,0,0,0,0,0],"split_type":[0,0,0,0,0,0,0,0,0,0,0,0,0,0,0],"sum_hessian":[1.8553334E3,1.0467333E3,8.086001E2,2.5309883E2,7.9363446E2,4.904866E1,7.5955145E2,3.3983902E1,2.1911493E2,7.0932355E2,8.431089E1,4.4769024E1,4.2796364E0,7.205881E2,3.8963337E1],"tree_param":{"num_deleted":"0","num_feature":"18","num_nodes":"15","size_leaf_vector":"1"}},{"base_weights":[6.580253E-3,-1.5257579E-1,6.365693E-2,1.6512926E-1,-2.487463E-1,1.6931291E-1,-3.9465684E-2,-2.574854E-3,4.367013E-2,-4.248602E-2,-8.800358E-3,1.1936046E-2,-7.985726E-3,3.7980543E-3,-1.6990874E-2],"categories":[],"categories_nodes":[],"categories_segments":[],"categories_sizes":[],"default_left":[0,0,0,0,0,0,0,0,0,0,0,0,0,0,0],"id":48,"left_children":[1,3,5,7,9,11,13,-1,-1,-1,-1,-1,-1,-1,-1],"loss_changes":[1.6808052E1,1.4965978E1,1.4870006E1,1.7587805E1,1.6158384E1,1.54356785E1,2.397666E1,0E0,0E0,0E0,0E0,0E0,0E0,0E0,0E0],"parents":[2147483647,0,0,1,1,2,2,3,3,4,4,5,5,6,6],"right_children":[2,4,6,8,10,12,14,-1,-1,-1,-1,-1,-1,-1,-1],"split_conditions":[-7.0130366E-1,-7.410549E-1,-7.865774E-2,2.8937063E-1,-9.8281384E-1,8.0967855E-1,4.525689E-1,-2.574854E-3,4.367013E-2,-4.248602E-2,-8.800358E-3,1.1936046E-2,-7.985726E-3,3.7980543E-3,-1.6990874E-2],"split_indices":[15,11,3,13,8,9,16,0,0,0,0,0,0,0,0],"split_type":[0,0,0,0,0,0,0,0,0,0,0,0,0,0,0],"sum_hessian":[1.8491813E3,4.8720483E2,1.3619764E3,1.1280148E2,3.7440335E2,6.7288696E2,6.890895E2,8.698355E1,2.5817932E1,3.9121696E1,3.3528165E2,5.561467E2,1.1674023E2,4.9808643E2,1.9100308E2],"tree_param":{"num_deleted":"0","num_feature":"18","num_nodes":"15","size_leaf_vector":"1"}},{"base_weights":[-2.8434352E-3,6.380494E-1,-3.2740034E-2,7.5748724E-1,-5.802979E-1,3.357846E-1,-6.279499E-2,7.215302E-3,4.3575086E-2,-8.106498E-2,1.4581851E-2,5.9314203E-3,4.523719E-2,-1.502821E-3,-1.4720795E-2],"categories":[],"categories_nodes":[],"categories_segments":[],"categories_sizes":[],"default_left":[0,0,0,0,0,0,0,0,0,0,0,0,0,0,0],"id":49,"left_children":[1,3,5,7,9,11,13,-1,-1,-1,-1,-1,-1,-1,-1],"loss_changes":[3.478424E1,1.2230106E1,1.9239185E1,4.95932E0,7.6081953E0,1.5967006E1,1.2149405E1,0E0,0E0,0E0,0E0,0E0,0E0,0E0,0E0],"parents":[2147483647,0,0,1,1,2,2,3,3,4,4,5,5,6,6],"right_children":[2,4,6,8,10,12,14,-1,-1,-1,-1,-1,-1,-1,-1],"split_conditions":[-1.8761809E0,1.103334E0,-1.1586658E0,-2.1826394E0,4.1109648E-2,9.268218E-2,1.3053074E0,7.215302E-3,4.3575086E-2,-8.106498E-2,1.4581851E-2,5.9314203E-3,4.523719E-2,-1.502821E-3,-1.4720795E-2],"split_indices":[3,14,11,10,15,4,14,0,0,0,0,0,0,0,0],"split_type":[0,0,0,0,0,0,0,0,0,0,0,0,0,0,0],"sum_hessian":[1.8164814E3,7.990355E1,1.7365779E3,7.318899E1,6.7145643E0,1.2992899E2,1.6066489E3,1.1967791E1,6.12212E1,2.7211037E0,3.9934607E0,9.503932E1,3.488966E1,1.4090479E3,1.9760106E2],"tree_param":{"num_deleted":"0","num_feature":"18","num_nodes":"15","size_leaf_vector":"1"}},{"base_weights":[1.0874574E-2,1.0582993E0,4.376657E-3,6.0370784E-2,-5.082212E-3,1.9560022E-2,-4.6222642E-1,7.484048E-3,-3.7794E-3,6.0825218E-2,-3.0481625E-2],"categories":[],"categories_nodes":[],"categories_segments":[],"categories_sizes":[],"default_left":[0,0,0,0,0,0,0,0,0,0,0],"id":50,"left_children":[1,3,5,-1,-1,7,9,-1,-1,-1,-1],"loss_changes":[1.2337651E1,2.1666918E0,1.2850652E1,0E0,0E0,2.18423E1,1.4823929E1,0E0,0E0,0E0,0E0],"parents":[2147483647,0,0,1,1,2,2,5,5,6,6],"right_children":[2,4,6,-1,-1,8,10,-1,-1,-1,-1],"split_conditions":[-5.8176565E0,2.0716533E-1,1.4578173E0,6.0370784E-2,-5.082212E-3,-2.2701217E-1,-9.225755E-1,7.484048E-3,-3.7794E-3,6.0825218E-2,-3.0481625E-2],"split_indices":[10,7,16,0,0,3,17,0,0,0,0],"split_type":[0,0,0,0,0,0,0,0,0,0,0],"sum_hessian":[1.8280339E3,1.0177799E1,1.8178562E3,9.058561E0,1.1192374E0,1.7617024E3,5.615378E1,7.443012E2,1.0174012E3,3.89254E0,5.2261242E1],"tree_param":{"num_deleted":"0","num_feature":"18","num_nodes":"11","size_leaf_vector":"1"}},{"base_weights":[-1.7945472E-2,-1.3943237E-1,3.8625874E-2,-1.9362979E-1,2.733078E-1,1.2883876E-1,-7.20641E-2,-3.8285262E-3,-2.986429E-2,7.110172E-2,4.26432E-3,1.9492155E-2,-2.31334E-4,-1.9539997E-2,2.1278607E-3],"categories":[],"categories_nodes":[],"categories_segments":[],"categories_sizes":[],"default_left":[0,0,0,0,0,0,0,0,0,0,0,0,0,0,0],"id":51,"left_children":[1,3,5,7,9,11,13,-1,-1,-1,-1,-1,-1,-1,-1],"loss_changes":[1.2623826E1,1.3100712E1,1.2516219E1,2.4301746E1,1.4402851E1,2.4098038E1,2.0594578E1,0E0,0E0,0E0,0E0,0E0,0E0,0E0,0E0],"parents":[2147483647,0,0,1,1,2,2,3,3,4,4,5,5,6,6],"right_children":[2,4,6,8,10,12,14,-1,-1,-1,-1,-1,-1,-1,-1],"split_conditions":[-4.101891E-1,6.142899E-1,1.693573E-1,-5.326064E-1,-9.302857E-1,-1.1157991E-1,-6.759879E-2,-3.8285262E-3,-2.986429E-2,7.110172E-2,4.26432E-3,1.9492155E-2,-2.31334E-4,-1.9539997E-2,2.1278607E-3],"split_indices":[6,10,10,7,6,7,6,0,0,0,0,0,0,0,0],"split_type":[0,0,0,0,0,0,0,0,0,0,0,0,0,0,0],"sum_hessian":[1.833563E3,5.826423E2,1.2509207E3,5.156984E2,6.694385E1,6.8961804E2,5.613027E2,4.0088126E2,1.1481718E2,8.418089E0,5.8525757E1,2.3292989E2,4.5668814E2,1.4805588E2,4.132468E2],"tree_param":{"num_deleted":"0","num_feature":"18","num_nodes":"15","size_leaf_vector":"1"}},{"base_weights":[5.8434494E-3,-1.5810221E-1,7.529826E-2,-9.6489534E-2,-4.046872E-1,2.1939895E-1,2.057787E-3,1.8868152E-2,-7.662033E-3,-4.2260613E-2,-8.187541E-3,-8.725111E-3,1.5705548E-2,2.3337182E-2,-1.0728753E-3],"categories":[],"categories_nodes":[],"categories_segments":[],"categories_sizes":[],"default_left":[0,0,0,0,0,0,0,0,0,0,0,0,0,0,0],"id":52,"left_children":[1,3,5,7,9,11,13,-1,-1,-1,-1,-1,-1,-1,-1],"loss_changes":[2.1207666E1,8.328095E0,1.3793926E1,1.1999802E1,1.1448715E1,1.6509485E1,9.555126E0,0E0,0E0,0E0,0E0,0E0,0E0,0E0,0E0],"parents":[2147483647,0,0,1,1,2,2,3,3,4,4,5,5,6,6],"right_children":[2,4,6,8,10,12,14,-1,-1,-1,-1,-1,-1,-1,-1],"split_conditions":[-2.4403495E-1,1.19578645E-1,-1.0110148E-1,-1.0037038E0,-1.1216182E-1,-9.085887E-1,-9.424013E-1,1.8868152E-2,-7.662033E-3,-4.2260613E-2,-8.187541E-3,-8.725111E-3,1.5705548E-2,2.3337182E-2,-1.0728753E-3],"split_indices":[1,12,12,8,9,12,13,0,0,0,0,0,0,0,0],"split_type":[0,0,0,0,0,0,0,0,0,0,0,0,0,0,0],"sum_hessian":[1.8611575E3,5.5303094E2,1.3081265E3,4.4391055E2,1.0912039E2,4.3968497E2,8.684415E2,4.6686092E1,3.9722446E2,3.7546944E1,7.157345E1,8.4859886E1,3.5482507E2,4.112737E1,8.2731415E2],"tree_param":{"num_deleted":"0","num_feature":"18","num_nodes":"15","size_leaf_vector":"1"}},{"base_weights":[-4.3977387E-2,2.515772E-2,-1.8187502E-1,4.7557032E-1,-8.522763E-3,-6.94623E-1,-1.4198501E-1,1.3554007E-2,5.3544667E-2,-5.721109E-2,2.9997592E-4,2.4163516E-2,-4.8627477E-2,1.2413646E-2,-1.2882947E-2],"categories":[],"categories_nodes":[],"categories_segments":[],"categories_sizes":[],"default_left":[0,0,0,0,0,0,0,0,0,0,0,0,0,0,0],"id":53,"left_children":[1,3,5,7,9,11,13,-1,-1,-1,-1,-1,-1,-1,-1],"loss_changes":[1.7571123E1,1.8658342E1,1.2404005E1,9.99184E0,1.8956139E1,1.4916414E1,2.5903725E1,0E0,0E0,0E0,0E0,0E0,0E0,0E0,0E0],"parents":[2147483647,0,0,1,1,2,2,3,3,4,4,5,5,6,6],"right_children":[2,4,6,8,10,12,14,-1,-1,-1,-1,-1,-1,-1,-1],"split_conditions":[4.9631464E-1,-1.5933853E0,-9.403074E-1,-6.1638124E-2,-2.4098215E0,-2.3731744E0,-3.706981E-1,1.3554007E-2,5.3544667E-2,-5.721109E-2,2.9997592E-4,2.4163516E-2,-4.8627477E-2,1.2413646E-2,-1.2882947E-2],"split_indices":[16,0,12,12,12,4,10,0,0,0,0,0,0,0,0],"split_type":[0,0,0,0,0,0,0,0,0,0,0,0,0,0,0],"sum_hessian":[1.8399557E3,1.2255948E3,6.143608E2,8.4563774E1,1.1410311E3,4.297953E1,5.713813E2,6.415143E1,2.0412342E1,1.3511031E1,1.12752E3,7.9953628E0,3.498417E1,1.3017822E2,4.4120303E2],"tree_param":{"num_deleted":"0","num_feature":"18","num_nodes":"15","size_leaf_vector":"1"}},{"base_weights":[1.8293748E-2,2.3596737E-1,-2.7509764E-2,2.6702854E-1,-8.053877E-1,-2.9976407E-1,4.7588856E-3,1.4342173E-2,-8.829068E-2,4.353066E-2,-8.7412946E-2,-1.7229816E-2,1.0510295E-1,-5.679658E-3,3.3962482E-3],"categories":[],"categories_nodes":[],"categories_segments":[],"categories_sizes":[],"default_left":[0,0,0,0,0,0,0,0,0,0,0,0,0,0,0],"id":54,"left_children":[1,3,5,7,9,11,13,-1,-1,-1,-1,-1,-1,-1,-1],"loss_changes":[1.8301527E1,1.0483261E1,1.3338533E1,1.2874496E1,1.6461891E1,1.786937E1,1.0132209E1,0E0,0E0,0E0,0E0,0E0,0E0,0E0,0E0],"parents":[2147483647,0,0,1,1,2,2,3,3,4,4,5,5,6,6],"right_children":[2,4,6,8,10,12,14,-1,-1,-1,-1,-1,-1,-1,-1],"split_conditions":[-8.645011E-1,1.9861671E-1,-8.1933004E-1,7.2935015E-1,-2.8932564E0,3.7056432E0,7.264801E-2,1.4342173E-2,-8.829068E-2,4.353066E-2,-8.7412946E-2,-1.7229816E-2,1.0510295E-1,-5.679658E-3,3.3962482E-3],"split_indices":[5,11,6,4,4,11,11,0,0,0,0,0,0,0,0],"split_type":[0,0,0,0,0,0,0,0,0,0,0,0,0,0,0],"sum_hessian":[1.831878E3,3.1811597E2,1.5137621E3,3.0971744E2,8.39854E0,1.5985515E2,1.353907E3,3.0762695E2,2.0904741E0,3.0131288E0,5.3854113E0,1.5780768E2,2.0474665E0,4.7031424E2,8.8359265E2],"tree_param":{"num_deleted":"0","num_feature":"18","num_nodes":"15","size_leaf_vector":"1"}},{"base_weights":[-1.4024749E-2,9.713158E-2,-1.1446977E-1,-3.2691813E-1,1.5154867E-1,3.3635072E-2,-2.096631E-1,-3.2188684E-2,-3.6955469E-3,8.6743785E-3,-6.5012224E-2,-7.744163E-3,1.3690284E-2,2.1419099E-2,-1.2507381E-2],"categories":[],"categories_nodes":[],"categories_segments":[],"categories_sizes":[],"default_left":[0,0,0,0,0,0,0,0,0,0,0,0,0,0,0],"id":55,"left_children":[1,3,5,7,9,11,13,-1,-1,-1,-1,-1,-1,-1,-1],"loss_changes":[2.0885548E1,2.051113E1,1.388325E1,7.980937E0,2.5193396E1,1.7488148E1,1.5560141E1,0E0,0E0,0E0,0E0,0E0,0E0,0E0,0E0],"parents":[2147483647,0,0,1,1,2,2,3,3,4,4,5,5,6,6],"right_children":[2,4,6,8,10,12,14,-1,-1,-1,-1,-1,-1,-1,-1],"split_conditions":[-2.4076302E-3,-7.612608E-1,-2.8598085E-1,-8.2631785E-1,1.8885596E0,-3.0079517E-1,-6.000018E-1,-3.2188684E-2,-3.6955469E-3,8.6743785E-3,-6.5012224E-2,-7.744163E-3,1.3690284E-2,2.1419099E-2,-1.2507381E-2],"split_indices":[16,1,3,16,4,10,10,0,0,0,0,0,0,0,0],"split_type":[0,0,0,0,0,0,0,0,0,0,0,0,0,0,0],"sum_hessian":[1.8684589E3,8.8648157E2,9.819773E2,1.0004298E2,7.864386E2,3.8405237E2,5.979249E2,4.3555798E1,5.648718E1,7.7566644E2,1.0772164E1,2.151289E2,1.6892346E2,3.495619E1,5.629687E2],"tree_param":{"num_deleted":"0","num_feature":"18","num_nodes":"15","size_leaf_vector":"1"}},{"base_weights":[2.1827737E-2,1.6363515E-1,-7.731246E-2,-6.016518E-1,1.8783304E-1,-4.1759858E-1,-2.8346319E-2,-9.516902E-3,-6.0591668E-2,5.423219E-3,1.9741112E-2,-3.4472745E-2,1.0723077E-2,-1.5418834E-2,4.357018E-3],"categories":[],"categories_nodes":[],"categories_segments":[],"categories_sizes":[],"default_left":[0,0,0,0,0,0,0,0,0,0,0,0,0,0,0],"id":56,"left_children":[1,3,5,7,9,11,13,-1,-1,-1,-1,-1,-1,-1,-1],"loss_changes":[2.6178627E1,1.4261921E1,1.8193705E1,5.5516634E0,1.2124449E1,2.3813618E1,3.1057352E1,0E0,0E0,0E0,0E0,0E0,0E0,0E0,0E0],"parents":[2147483647,0,0,1,1,2,2,3,3,4,4,5,5,6,6],"right_children":[2,4,6,8,10,12,14,-1,-1,-1,-1,-1,-1,-1,-1],"split_conditions":[-2.772078E-1,-2.3177264E0,-2.3334746E-1,1.5030526E0,7.0451844E-1,4.938609E-1,-5.773108E-1,-9.516902E-3,-6.0591668E-2,5.423219E-3,1.9741112E-2,-3.4472745E-2,1.0723077E-2,-1.5418834E-2,4.357018E-3],"split_indices":[3,1,5,17,17,17,17,0,0,0,0,0,0,0,0],"split_type":[0,0,0,0,0,0,0,0,0,0,0,0,0,0,0],"sum_hessian":[1.8595654E3,7.652833E2,1.0942821E3,2.2598024E1,7.426853E2,1.364517E2,9.578304E2,1.4380308E1,8.217716E0,5.38289E2,2.043963E2,9.546048E1,4.099123E1,2.7944122E2,6.7838916E2],"tree_param":{"num_deleted":"0","num_feature":"18","num_nodes":"15","size_leaf_vector":"1"}},{"base_weights":[2.9704474E-2,6.254273E-2,-2.1323723E-1,1.3239202E-2,3.928716E-1,-6.191259E-1,4.7220584E-2,2.1276383E-3,-1.1809795E-2,4.0389955E-2,1.2634895E-2,1.0147031E-2,-4.3814458E-2,8.594225E-3,-4.7771733E-2],"categories":[],"categories_nodes":[],"categories_segments":[],"categories_sizes":[],"default_left":[0,0,0,0,0,0,0,0,0,0,0,0,0,0,0],"id":57,"left_children":[1,3,5,7,9,11,13,-1,-1,-1,-1,-1,-1,-1,-1],"loss_changes":[1.4858177E1,2.669647E1,2.3519524E1,1.0446981E1,1.2075485E1,1.8608204E1,1.7059834E1,0E0,0E0,0E0,0E0,0E0,0E0,0E0,0E0],"parents":[2147483647,0,0,1,1,2,2,3,3,4,4,5,5,6,6],"right_children":[2,4,6,8,10,12,14,-1,-1,-1,-1,-1,-1,-1,-1],"split_conditions":[1.2221353E0,6.9579196E-1,-4.1309204E-2,9.2829925E-1,-2.2433345E-1,-7.819042E-1,1.1985104E0,2.1276383E-3,-1.1809795E-2,4.0389955E-2,1.2634895E-2,1.0147031E-2,-4.3814458E-2,8.594225E-3,-4.7771733E-2],"split_indices":[13,2,7,7,7,7,10,0,0,0,0,0,0,0,0],"split_type":[0,0,0,0,0,0,0,0,0,0,0,0,0,0,0],"sum_hessian":[1.8616619E3,1.6410028E3,2.20659E2,1.4290513E3,2.119515E2,8.586177E1,1.3479723E2,1.2798715E3,1.4917992E2,5.2138966E1,1.5981255E2,2.0417072E1,6.54447E1,1.2071641E2,1.4080822E1],"tree_param":{"num_deleted":"0","num_feature":"18","num_nodes":"15","size_leaf_vector":"1"}},{"base_weights":[1.6592884E-2,2.5510978E-2,-1.3707403E0,-3.773757E-1,5.7848413E-2,3.0366569E-3,-7.97401E-2,-8.78309E-3,-3.4197386E-2,7.8013637E-3,-1.5403692E-3],"categories":[],"categories_nodes":[],"categories_segments":[],"categories_sizes":[],"default_left":[0,0,0,0,0,0,0,0,0,0,0],"id":58,"left_children":[1,3,5,7,9,-1,-1,-1,-1,-1,-1],"loss_changes":[2.3295597E1,2.448176E1,4.1069107E0,8.425537E0,1.517395E1,0E0,0E0,0E0,0E0,0E0,0E0],"parents":[2147483647,0,0,1,1,2,2,3,3,4,4],"right_children":[2,4,6,8,10,-1,-1,-1,-1,-1,-1],"split_conditions":[2.3525763E0,-9.9443984E-1,-2.5383872E-1,-1.4245672E0,-9.736055E-2,3.0366569E-3,-7.97401E-2,-8.78309E-3,-3.4197386E-2,7.8013637E-3,-1.5403692E-3],"split_indices":[0,1,1,1,4,0,0,0,0,0,0],"split_type":[0,0,0,0,0,0,0,0,0,0,0],"sum_hessian":[1.8899197E3,1.8788954E3,1.1024274E1,1.385806E2,1.7403148E3,1.5302886E0,9.493985E0,8.4730194E1,5.3850407E1,8.259796E2,9.143352E2],"tree_param":{"num_deleted":"0","num_feature":"18","num_nodes":"11","size_leaf_vector":"1"}},{"base_weights":[1.8436428E-2,2.9230613E-2,-7.339999E-1,-7.637486E-1,4.324898E-2,-2.7606574E-1,-8.1804544E-2,-4.7176685E-2,8.410346E-2,8.7641965E-4,1.6368618E-2,-5.996975E-2,4.9752753E-2],"categories":[],"categories_nodes":[],"categories_segments":[],"categories_sizes":[],"default_left":[0,0,0,0,0,0,0,0,0,0,0,0,0],"id":59,"left_children":[1,3,5,7,9,11,-1,-1,-1,-1,-1,-1,-1],"loss_changes":[1.4871287E1,2.0105337E1,1.0051429E1,1.5324257E1,1.2980418E1,2.2865402E1,0E0,0E0,0E0,0E0,0E0,0E0,0E0],"parents":[2147483647,0,0,1,1,2,2,3,3,4,4,5,5],"right_children":[2,4,6,8,10,12,-1,-1,-1,-1,-1,-1,-1],"split_conditions":[2.125928E0,-1.19878E0,7.0451844E-1,-6.7061967E-1,1.3923054E0,4.5587063E-1,-8.1804544E-2,-4.7176685E-2,8.410346E-2,8.7641965E-4,1.6368618E-2,-5.996975E-2,4.9752753E-2],"split_indices":[0,17,17,7,8,6,0,0,0,0,0,0,0],"split_type":[0,0,0,0,0,0,0,0,0,0,0,0,0],"sum_hessian":[1.8360381E3,1.81115E3,2.4888062E1,3.0408564E1,1.7807415E3,1.7447805E1,7.4402575E0,2.8936626E1,1.4719368E0,1.6342158E3,1.4652559E2,1.0184781E1,7.2630234E0],"tree_param":{"num_deleted":"0","num_feature":"18","num_nodes":"13","size_leaf_vector":"1"}},{"base_weights":[-3.5702784E-2,-1.5757358E-1,4.9661692E-2,-3.7544135E-2,-4.3804896E-1,1.937618E-1,-1.05697855E-1,-2.1563087E-2,3.946451E-3,-4.3183275E-2,-1.3056504E-2,1.9727897E-2,4.1902415E-3,-1.13579165E-2,5.6760614E-3],"categories":[],"categories_nodes":[],"categories_segments":[],"categories_sizes":[],"default_left":[0,0,0,0,0,0,0,0,0,0,0,0,0,0,0],"id":60,"left_children":[1,3,5,7,9,11,13,-1,-1,-1,-1,-1,-1,-1,-1],"loss_changes":[1.8436924E1,2.4511292E1,2.3343836E1,2.3573917E1,1.6109753E1,1.186322E1,1.3388814E1,0E0,0E0,0E0,0E0,0E0,0E0,0E0,0E0],"parents":[2147483647,0,0,1,1,2,2,3,3,4,4,5,5,6,6],"right_children":[2,4,6,8,10,12,14,-1,-1,-1,-1,-1,-1,-1,-1],"split_conditions":[-2.7820885E-1,-4.4903752E-1,3.2863036E-1,-2.3924139E-1,-8.662844E-1,-4.2279664E-1,6.2434685E-1,-2.1563087E-2,3.946451E-3,-4.3183275E-2,-1.3056504E-2,1.9727897E-2,4.1902415E-3,-1.13579165E-2,5.6760614E-3],"split_indices":[17,7,7,1,15,2,2,0,0,0,0,0,0,0,0],"split_type":[0,0,0,0,0,0,0,0,0,0,0,0,0,0,0],"sum_hessian":[1.7694061E3,7.2898895E2,1.0404172E3,5.1155804E2,2.1743088E2,5.3997375E2,5.004435E2,1.163643E2,3.9519376E2,6.2537212E1,1.5489366E2,1.8982683E2,3.501469E2,3.2229355E2,1.7814995E2],"tree_param":{"num_deleted":"0","num_feature":"18","num_nodes":"15","size_leaf_vector":"1"}},{"base_weights":[1.76304E-2,-3.0943513E-1,4.8825912E-2,-5.860539E-1,9.333147E-2,1.4201874E-2,2.6206204E-1,-1.1961486E-2,-4.256077E-2,-4.585367E-3,5.009636E-2,-2.7596429E-2,1.8060188E-3,2.405809E-2,-3.048425E-3],"categories":[],"categories_nodes":[],"categories_segments":[],"categories_sizes":[],"default_left":[0,0,0,0,0,0,0,0,0,0,0,0,0,0,0],"id":61,"left_children":[1,3,5,7,9,11,13,-1,-1,-1,-1,-1,-1,-1,-1],"loss_changes":[1.88402E1,1.8012207E1,1.2430397E1,8.476936E0,1.130633E1,1.8005112E1,1.672646E1,0E0,0E0,0E0,0E0,0E0,0E0,0E0,0E0],"parents":[2147483647,0,0,1,1,2,2,3,3,4,4,5,5,6,6],"right_children":[2,4,6,8,10,12,14,-1,-1,-1,-1,-1,-1,-1,-1],"split_conditions":[-9.009019E-1,1.4345574E0,9.7989136E-1,-1.1626233E0,7.0135367E-1,-1.104878E0,1.3474534E0,-1.1961486E-2,-4.256077E-2,-4.585367E-3,5.009636E-2,-2.7596429E-2,1.8060188E-3,2.405809E-2,-3.048425E-3],"split_indices":[1,9,2,13,13,17,13,0,0,0,0,0,0,0,0],"split_type":[0,0,0,0,0,0,0,0,0,0,0,0,0,0,0],"sum_hessian":[1.8466129E3,1.597377E2,1.6868752E3,9.4576256E1,6.5161446E1,1.4525537E3,2.3432161E2,4.196565E1,5.261061E1,5.479188E1,1.0369559E1,5.307005E1,1.3994836E3,1.3951425E2,9.480735E1],"tree_param":{"num_deleted":"0","num_feature":"18","num_nodes":"15","size_leaf_vector":"1"}},{"base_weights":[3.0337856E-3,4.507419E-2,-1.7108515E-1,-1.4127238E-1,1.17605425E-1,-2.2327604E-3,-3.968487E-1,-1.607612E-2,5.493131E-4,2.4556627E-2,4.5561786E-3,-6.1049987E-2,4.1116183E-3,-2.3876514E-2,2.9766595E-2],"categories":[],"categories_nodes":[],"categories_segments":[],"categories_sizes":[],"default_left":[0,0,0,0,0,0,0,0,0,0,0,0,0,0,0],"id":62,"left_children":[1,3,5,7,9,11,13,-1,-1,-1,-1,-1,-1,-1,-1],"loss_changes":[1.360187E1,2.0268856E1,1.3730996E1,1.1559433E1,1.0576491E1,2.162071E1,1.2626249E1,0E0,0E0,0E0,0E0,0E0,0E0,0E0,0E0],"parents":[2147483647,0,0,1,1,2,2,3,3,4,4,5,5,6,6],"right_children":[2,4,6,8,10,12,14,-1,-1,-1,-1,-1,-1,-1,-1],"split_conditions":[1.0355697E0,-9.8723996E-1,1.7716178E-1,-2.566899E-1,-8.811915E-1,-1.6711547E0,1.4845401E0,-1.607612E-2,5.493131E-4,2.4556627E-2,4.5561786E-3,-6.1049987E-2,4.1116183E-3,-2.3876514E-2,2.9766595E-2],"split_indices":[14,14,4,9,14,5,11,0,0,0,0,0,0,0,0],"split_type":[0,0,0,0,0,0,0,0,0,0,0,0,0,0,0],"sum_hessian":[1.857839E3,1.4975712E3,3.6026782E2,4.18931E2,1.0786401E3,2.0694385E2,1.5332397E2,1.916239E2,2.2730711E2,6.99978E1,1.0086423E3,1.2617094E1,1.9432675E2,1.423666E2,1.0957387E1],"tree_param":{"num_deleted":"0","num_feature":"18","num_nodes":"15","size_leaf_vector":"1"}},{"base_weights":[1.0228811E-2,-9.141763E-2,1.4686242E-1,-4.919786E-2,-9.872033E-1,9.920563E-2,4.4410098E-1,2.0726827E-4,-2.0141505E-2,-9.041672E-2,-1.3814858E-2,-3.3109322E-2,6.6056373E-3,2.601699E-2,-7.1496055E-2],"categories":[],"categories_nodes":[],"categories_segments":[],"categories_sizes":[],"default_left":[0,0,0,0,0,0,0,0,0,0,0,0,0,0,0],"id":63,"left_children":[1,3,5,7,9,11,13,-1,-1,-1,-1,-1,-1,-1,-1],"loss_changes":[2.5692606E1,3.9944443E1,1.1083477E1,1.9162724E1,2.7055347E1,1.7119133E1,1.6154337E1,0E0,0E0,0E0,0E0,0E0,0E0,0E0,0E0],"parents":[2147483647,0,0,1,1,2,2,3,3,4,4,5,5,6,6],"right_children":[2,4,6,8,10,12,14,-1,-1,-1,-1,-1,-1,-1,-1],"split_conditions":[1.1270015E-1,3.1573388E-1,2.0764072E0,1.0685669E0,-1.237385E-1,-1.9005911E0,3.9606397E0,2.0726827E-4,-2.0141505E-2,-9.041672E-2,-1.3814858E-2,-3.3109322E-2,6.6056373E-3,2.601699E-2,-7.1496055E-2],"split_indices":[17,7,17,13,5,2,2,0,0,0,0,0,0,0,0],"split_type":[0,0,0,0,0,0,0,0,0,0,0,0,0,0,0],"sum_hessian":[1.8475774E3,1.0592006E3,7.883768E2,1.0126399E3,4.656074E1,6.808802E2,1.0749655E2,8.805238E2,1.3211604E2,2.0823833E1,2.5736908E1,2.7290127E1,6.535901E2,1.0403972E2,3.4568336E0],"tree_param":{"num_deleted":"0","num_feature":"18","num_nodes":"15","size_leaf_vector":"1"}},{"base_weights":[-1.4567566E-2,-3.8873184E-2,4.4596595E-1,4.8145387E-2,-1.1476396E-1,5.004306E-1,-6.668696E-2,4.087073E-3,-3.2368876E-2,1.2064444E-2,-7.874885E-3,3.3311588E-3,3.938257E-2],"categories":[],"categories_nodes":[],"categories_segments":[],"categories_sizes":[],"default_left":[0,0,0,0,0,0,0,0,0,0,0,0,0],"id":64,"left_children":[1,3,5,7,9,11,-1,-1,-1,-1,-1,-1,-1],"loss_changes":[2.059185E1,1.1572354E1,9.521244E0,1.9053343E1,1.4270492E1,1.1106466E1,0E0,0E0,0E0,0E0,0E0,0E0,0E0],"parents":[2147483647,0,0,1,1,2,2,3,3,4,4,5,5],"right_children":[2,4,6,8,10,12,-1,-1,-1,-1,-1,-1,-1],"split_conditions":[2.167325E0,-9.548401E-2,2.607086E0,2.071822E-1,-2.2067636E-1,-9.886237E-3,-6.668696E-2,4.087073E-3,-3.2368876E-2,1.2064444E-2,-7.874885E-3,3.3311588E-3,3.938257E-2],"split_indices":[17,5,8,11,11,11,0,0,0,0,0,0,0],"split_type":[0,0,0,0,0,0,0,0,0,0,0,0,0],"sum_hessian":[1.8407052E3,1.7495042E3,9.1201E1,8.145572E2,9.34947E2,8.924483E1,1.9561733E0,7.780033E2,3.655389E1,9.9439705E1,8.355073E2,3.618002E1,5.3064808E1],"tree_param":{"num_deleted":"0","num_feature":"18","num_nodes":"13","size_leaf_vector":"1"}},{"base_weights":[1.5651045E-2,-6.1750233E-2,2.2239414E-1,-5.417968E-2,-6.912198E-2,-2.1790425E-1,2.6905373E-1,1.9583678E-2,-4.200632E-3,-3.704699E-2,2.095387E-2,1.6632248E-2,-2.3396788E-2],"categories":[],"categories_nodes":[],"categories_segments":[],"categories_sizes":[],"default_left":[0,0,0,0,0,0,0,0,0,0,0,0,0],"id":65,"left_children":[1,3,5,7,-1,9,11,-1,-1,-1,-1,-1,-1],"loss_changes":[2.959855E1,1.3228065E1,1.0416161E1,1.7803501E1,0E0,1.6544851E1,2.1526165E1,0E0,0E0,0E0,0E0,0E0,0E0],"parents":[2147483647,0,0,1,1,2,2,3,3,5,5,6,6],"right_children":[2,4,6,8,-1,10,12,-1,-1,-1,-1,-1,-1],"split_conditions":[5.721505E-1,2.164552E0,-2.2049363E0,-1.4623376E0,-6.912198E-2,1.6448483E0,2.0437212E0,1.9583678E-2,-4.200632E-3,-3.704699E-2,2.095387E-2,1.6632248E-2,-2.3396788E-2],"split_indices":[17,13,5,11,0,6,6,0,0,0,0,0,0],"split_type":[0,0,0,0,0,0,0,0,0,0,0,0,0],"sum_hessian":[1.8467954E3,1.3438844E3,5.02911E2,1.3373352E3,6.5492315E0,4.763116E1,4.5527985E2,8.290093E1,1.2544342E3,2.6151524E1,2.1479637E1,4.1974634E2,3.5533527E1],"tree_param":{"num_deleted":"0","num_feature":"18","num_nodes":"13","size_leaf_vector":"1"}},{"base_weights":[-5.6677934E-2,-5.6479825E-4,-2.5549552E-1,-2.6982503E-2,4.8578295E-1,5.051675E-1,-3.212055E-1,-9.420805E-3,2.2728953E-3,2.824274E-2,-4.401932E-2,-2.3029374E-2,5.8567E-2,-2.398551E-2,-3.2716093E-3],"categories":[],"categories_nodes":[],"categories_segments":[],"categories_sizes":[],"default_left":[0,0,0,0,0,0,0,0,0,0,0,0,0,0,0],"id":66,"left_children":[1,3,5,7,9,11,13,-1,-1,-1,-1,-1,-1,-1,-1],"loss_changes":[2.018391E1,1.8136715E1,2.0054068E1,1.5721912E1,8.320877E0,2.1160765E1,1.4808815E1,0E0,0E0,0E0,0E0,0E0,0E0,0E0,0E0],"parents":[2147483647,0,0,1,1,2,2,3,3,4,4,5,5,6,6],"right_children":[2,4,6,8,10,12,14,-1,-1,-1,-1,-1,-1,-1,-1],"split_conditions":[5.2552795E-1,2.0764072E0,-1.0346006E0,-2.5383872E-1,1.3516793E0,9.0052515E-2,5.976962E-1,-9.420805E-3,2.2728953E-3,2.824274E-2,-4.401932E-2,-2.3029374E-2,5.8567E-2,-2.398551E-2,-3.2716093E-3],"split_indices":[4,17,9,1,16,1,17,0,0,0,0,0,0,0,0],"split_type":[0,0,0,0,0,0,0,0,0,0,0,0,0,0,0],"sum_hessian":[1.8105055E3,1.4131671E3,3.9733835E2,1.3414515E3,7.171557E1,3.0941998E1,3.6639636E2,4.1543448E2,9.260171E2,6.841552E1,3.3000512E0,1.2695597E1,1.82464E1,2.2542946E2,1.4096689E2],"tree_param":{"num_deleted":"0","num_feature":"18","num_nodes":"15","size_leaf_vector":"1"}},{"base_weights":[-1.4881325E-2,-3.7420828E-2,4.8254606E-1,-5.683686E-1,-2.0213623E-2,8.613055E-1,-3.580439E-2,6.890949E-2,-4.888861E-2,2.740981E-2,-1.6776987E-3,-7.051464E-3,5.0721776E-2,1.41278645E-2,-4.7837358E-2],"categories":[],"categories_nodes":[],"categories_segments":[],"categories_sizes":[],"default_left":[0,0,0,0,0,0,0,0,0,0,0,0,0,0,0],"id":67,"left_children":[1,3,5,7,9,11,13,-1,-1,-1,-1,-1,-1,-1,-1],"loss_changes":[2.026128E1,1.5755125E1,1.5489561E1,4.4465923E1,1.2698655E1,7.1992836E0,1.0281223E1,0E0,0E0,0E0,0E0,0E0,0E0,0E0,0E0],"parents":[2147483647,0,0,1,1,2,2,3,3,4,4,5,5,6,6],"right_children":[2,4,6,8,10,12,14,-1,-1,-1,-1,-1,-1,-1,-1],"split_conditions":[1.3696834E0,-1.104878E0,9.2086285E-2,-1.3976978E0,-9.592269E-1,-1.5033178E-1,1.9682518E0,6.890949E-2,-4.888861E-2,2.740981E-2,-1.6776987E-3,-7.051464E-3,5.0721776E-2,1.41278645E-2,-4.7837358E-2],"split_indices":[11,17,17,11,6,4,11,0,0,0,0,0,0,0,0],"split_type":[0,0,0,0,0,0,0,0,0,0,0,0,0,0,0],"sum_hessian":[1.8085039E3,1.731186E3,7.7317955E1,5.3155975E1,1.67803E3,4.4403526E1,3.291443E1,8.783444E0,4.437253E1,3.7388298E1,1.6406417E3,5.808585E0,3.859494E1,2.4893553E1,8.020876E0],"tree_param":{"num_deleted":"0","num_feature":"18","num_nodes":"15","size_leaf_vector":"1"}},{"base_weights":[-1.8388514E-3,5.5129703E-2,-1.04534596E-1,6.2252775E-2,-1.0516142E0,-5.574417E-1,-2.321645E-2,-1.7446617E-2,4.3327785E-3,1.1121269E-2,-6.8460435E-2,-4.5275632E-2,-8.498724E-3,1.341362E-2,-9.576822E-3],"categories":[],"categories_nodes":[],"categories_segments":[],"categories_sizes":[],"default_left":[0,0,0,0,0,0,0,0,0,0,0,0,0,0,0],"id":68,"left_children":[1,3,5,7,9,11,13,-1,-1,-1,-1,-1,-1,-1,-1],"loss_changes":[1.0702079E1,9.233025E0,2.3979073E1,1.1733416E1,3.447033E0,1.311301E1,2.726612E1,0E0,0E0,0E0,0E0,0E0,0E0,0E0,0E0],"parents":[2147483647,0,0,1,1,2,2,3,3,4,4,5,5,6,6],"right_children":[2,4,6,8,10,12,14,-1,-1,-1,-1,-1,-1,-1,-1],"split_conditions":[4.708331E-1,2.164552E0,-1.0603027E0,-1.1333079E0,1.5593363E-3,-1.1539488E0,-2.7262965E-1,-1.7446617E-2,4.3327785E-3,1.1121269E-2,-6.8460435E-2,-4.5275632E-2,-8.498724E-3,1.341362E-2,-9.576822E-3],"split_indices":[16,13,13,12,12,0,0,0,0,0,0,0,0,0,0],"split_type":[0,0,0,0,0,0,0,0,0,0,0,0,0,0,0],"sum_hessian":[1.8264515E3,1.1744415E3,6.5201013E2,1.1679585E3,6.4829464E0,9.816857E1,5.5384155E2,6.445754E1,1.103501E3,1.2905712E0,5.1923757E0,5.087304E1,4.7295532E1,2.0230722E2,3.5153433E2],"tree_param":{"num_deleted":"0","num_feature":"18","num_nodes":"15","size_leaf_vector":"1"}},{"base_weights":[-7.882286E-3,2.4325056E-2,-2.0325862E-1,1.7197192E-2,1.1793368E0,-1.2453748E0,-8.501479E-2,-6.7615346E-3,3.7634445E-3,8.289347E-2,2.14127E-2,2.7432842E-2,-7.063612E-2,-1.1157137E-2,6.9928537E-3],"categories":[],"categories_nodes":[],"categories_segments":[],"categories_sizes":[],"default_left":[0,0,0,0,0,0,0,0,0,0,0,0,0,0,0],"id":69,"left_children":[1,3,5,7,9,11,13,-1,-1,-1,-1,-1,-1,-1,-1],"loss_changes":[1.1572717E1,1.2836409E1,3.1836437E1,1.388032E1,2.5197697E0,8.777283E0,7.3368917E0,0E0,0E0,0E0,0E0,0E0,0E0,0E0,0E0],"parents":[2147483647,0,0,1,1,2,2,3,3,4,4,5,5,6,6],"right_children":[2,4,6,8,10,12,14,-1,-1,-1,-1,-1,-1,-1,-1],"split_conditions":[8.5205084E-1,3.747468E0,3.9409432E-1,-7.0130366E-1,1.6685551E0,-1.027167E0,5.075946E-1,-6.7615346E-3,3.7634445E-3,8.289347E-2,2.14127E-2,2.7432842E-2,-7.063612E-2,-1.1157137E-2,6.9928537E-3],"split_indices":[7,10,6,15,0,8,0,0,0,0,0,0,0,0,0],"split_type":[0,0,0,0,0,0,0,0,0,0,0,0,0,0,0],"sum_hessian":[1.834484E3,1.5751825E3,2.5930157E2,1.566616E3,8.566509E0,2.5365988E1,2.3393558E2,4.3134952E2,1.1352665E3,4.4138765E0,4.1526327E0,1.9188683E0,2.344712E1,1.4519914E2,8.873645E1],"tree_param":{"num_deleted":"0","num_feature":"18","num_nodes":"15","size_leaf_vector":"1"}},{"base_weights":[-5.2458774E-3,-8.992952E-1,9.055332E-3,-9.91813E-1,3.5775147E-2,3.981673E-1,-6.2414343E-3,-1.566006E-2,-6.195853E-2,2.9495198E-2,-5.817629E-2,-3.6268313E-3,4.510823E-3],"categories":[],"categories_nodes":[],"categories_segments":[],"categories_sizes":[],"default_left":[0,0,0,0,0,0,0,0,0,0,0,0,0],"id":70,"left_children":[1,3,5,7,-1,9,11,-1,-1,-1,-1,-1,-1],"loss_changes":[2.3469446E1,5.0548267E0,1.0755918E1,4.125061E0,0E0,2.1095314E1,1.1084931E1,0E0,0E0,0E0,0E0,0E0,0E0],"parents":[2147483647,0,0,1,1,2,2,3,3,5,5,6,6],"right_children":[2,4,6,8,-1,10,12,-1,-1,-1,-1,-1,-1],"split_conditions":[-1.0212715E0,4.8991916E-1,-1.9469379E0,-3.2678288E-1,3.5775147E-2,2.2991936E0,3.5944797E-2,-1.566006E-2,-6.195853E-2,2.9495198E-2,-5.817629E-2,-3.6268313E-3,4.510823E-3],"split_indices":[6,4,4,11,0,9,9,0,0,0,0,0,0],"split_type":[0,0,0,0,0,0,0,0,0,0,0,0,0],"sum_hessian":[1.8269603E3,2.7899746E1,1.7990607E3,2.6811348E1,1.0883968E0,6.735003E1,1.7317106E3,7.8755817E0,1.8935766E1,6.059659E1,6.7534375E0,1.027084E3,7.0462665E2],"tree_param":{"num_deleted":"0","num_feature":"18","num_nodes":"13","size_leaf_vector":"1"}},{"base_weights":[4.2600702E-2,-1.3731556E-1,1.12411E-1,1.9288585E-1,-2.1574421E-1,-2.2473691E-1,1.330306E-1,-1.5858434E-2,2.485898E-2,-3.644262E-2,-8.473921E-3,2.7567362E-2,-2.0499986E-2,1.2573701E-2,2.9499894E-3],"categories":[],"categories_nodes":[],"categories_segments":[],"categories_sizes":[],"default_left":[0,0,0,0,0,0,0,0,0,0,0,0,0,0,0],"id":71,"left_children":[1,3,5,7,9,11,13,-1,-1,-1,-1,-1,-1,-1,-1],"loss_changes":[2.36234E1,1.3654082E1,9.442343E0,1.5875058E1,9.8852215E0,1.1455742E1,1.1160776E1,0E0,0E0,0E0,0E0,0E0,0E0,0E0,0E0],"parents":[2147483647,0,0,1,1,2,2,3,3,4,4,5,5,6,6],"right_children":[2,4,6,8,10,12,14,-1,-1,-1,-1,-1,-1,-1,-1],"split_conditions":[-4.8135316E-1,-5.4076385E-1,-1.1333079E0,-9.085887E-1,-3.698905E-1,-1.6328344E0,-2.2791239E-2,-1.5858434E-2,2.485898E-2,-3.644262E-2,-8.473921E-3,2.7567362E-2,-2.0499986E-2,1.2573701E-2,2.9499894E-3],"split_indices":[6,12,12,12,12,16,12,0,0,0,0,0,0,0,0],"split_type":[0,0,0,0,0,0,0,0,0,0,0,0,0,0,0],"sum_hessian":[1.8788121E3,5.245455E2,1.3542667E3,1.0015156E2,4.243939E2,7.720185E1,1.2770648E3,3.7284557E1,6.2867E1,3.3702568E1,3.906913E2,1.4392873E1,6.2808975E1,4.897523E2,7.8731256E2],"tree_param":{"num_deleted":"0","num_feature":"18","num_nodes":"15","size_leaf_vector":"1"}},{"base_weights":[2.9001223E-2,6.0752552E-2,-2.000226E-1,3.414644E-2,4.6561345E-1,-5.389982E-1,-1.0492503E-2,2.190281E-3,-4.066024E-2,2.5399238E-2,-5.4143842E-2,-2.1517979E-2,-9.563689E-2,4.820318E-2,-4.5136916E-3],"categories":[],"categories_nodes":[],"categories_segments":[],"categories_sizes":[],"default_left":[0,0,0,0,0,0,0,0,0,0,0,0,0,0,0],"id":72,"left_children":[1,3,5,7,9,11,13,-1,-1,-1,-1,-1,-1,-1,-1],"loss_changes":[1.3343308E1,1.7307743E1,1.4285316E1,1.2356378E1,6.997753E0,1.0862179E1,1.1229132E1,0E0,0E0,0E0,0E0,0E0,0E0,0E0,0E0],"parents":[2147483647,0,0,1,1,2,2,3,3,4,4,5,5,6,6],"right_children":[2,4,6,8,10,12,14,-1,-1,-1,-1,-1,-1,-1,-1],"split_conditions":[1.3053074E0,1.5763326E0,1.4740837E0,1.3930013E0,1.5187659E0,1.3930013E0,1.4854542E0,2.190281E-3,-4.066024E-2,2.5399238E-2,-5.4143842E-2,-2.1517979E-2,-9.563689E-2,4.820318E-2,-4.5136916E-3],"split_indices":[14,6,14,6,16,6,14,0,0,0,0,0,0,0,0],"split_type":[0,0,0,0,0,0,0,0,0,0,0,0,0,0,0],"sum_hessian":[1.8341803E3,1.6118838E3,2.2229645E2,1.5137374E3,9.8146454E1,7.88684E1,1.4342805E2,1.4977307E3,1.6006704E1,9.624931E1,1.8971413E0,7.437289E1,4.4955163E0,9.919594E0,1.3350847E2],"tree_param":{"num_deleted":"0","num_feature":"18","num_nodes":"15","size_leaf_vector":"1"}},{"base_weights":[-1.1926977E-2,3.9665264E-1,-4.7384925E-2,1.0615138E0,2.9240954E-1,-1.3452972E-1,4.1606236E-2,6.729316E-2,2.8522728E-2,-2.4936352E-2,1.7603125E-2,-2.227889E-3,-1.5017998E-2,3.51994E-3,-2.6654556E-2],"categories":[],"categories_nodes":[],"categories_segments":[],"categories_sizes":[],"default_left":[0,0,0,0,0,0,0,0,0,0,0,0,0,0,0],"id":73,"left_children":[1,3,5,7,9,11,13,-1,-1,-1,-1,-1,-1,-1,-1],"loss_changes":[2.6379938E1,9.629728E0,1.3025087E1,1.7206669E0,6.1630583E0,1.2610475E1,1.3728869E1,0E0,0E0,0E0,0E0,0E0,0E0,0E0,0E0],"parents":[2147483647,0,0,1,1,2,2,3,3,4,4,5,5,6,6],"right_children":[2,4,6,8,10,12,14,-1,-1,-1,-1,-1,-1,-1,-1],"split_conditions":[-1.4822532E0,-8.430597E-2,-1.5817156E-1,-9.8646426E-1,1.6232459E-1,1.8066077E-1,1.7711858E0,6.729316E-2,2.8522728E-2,-2.4936352E-2,1.7603125E-2,-2.227889E-3,-1.5017998E-2,3.51994E-3,-2.6654556E-2],"split_indices":[3,7,9,11,7,10,7,0,0,0,0,0,0,0,0],"split_type":[0,0,0,0,0,0,0,0,0,0,0,0,0,0,0],"sum_hessian":[1.8210026E3,1.4437477E2,1.6766277E3,1.8193636E1,1.2618113E2,8.474108E2,8.292169E2,1.0290507E1,7.903129E0,8.213553E0,1.1796758E2,5.505689E2,2.9684192E2,7.9065625E2,3.856068E1],"tree_param":{"num_deleted":"0","num_feature":"18","num_nodes":"15","size_leaf_vector":"1"}},{"base_weights":[1.4649744E-2,8.007336E-3,1.1250354E0,4.3924242E-1,-6.87663E-3,1.7741266E0,2.2193353E-1,-4.565116E-2,2.7875477E-2,-9.775585E-3,2.2168697E-3,4.0239133E-2,1.0589309E-1,-4.524283E-2,4.6952613E-2],"categories":[],"categories_nodes":[],"categories_segments":[],"categories_sizes":[],"default_left":[0,0,0,0,0,0,0,0,0,0,0,0,0,0,0],"id":74,"left_children":[1,3,5,7,9,11,13,-1,-1,-1,-1,-1,-1,-1,-1],"loss_changes":[1.3564172E1,1.1892843E1,5.818372E0,1.0359923E1,1.7267075E1,5.4641724E-2,5.524709E0,0E0,0E0,0E0,0E0,0E0,0E0,0E0,0E0],"parents":[2147483647,0,0,1,1,2,2,3,3,4,4,5,5,6,6],"right_children":[2,4,6,8,10,12,14,-1,-1,-1,-1,-1,-1,-1,-1],"split_conditions":[3.747468E0,-2.0628912E0,5.2552795E-1,-1.8535422E0,-9.8723996E-1,9.150195E-1,-2.8885183E-1,-4.565116E-2,2.7875477E-2,-9.775585E-3,2.2168697E-3,4.0239133E-2,1.0589309E-1,-4.524283E-2,4.6952613E-2],"split_indices":[10,4,4,13,14,13,15,0,0,0,0,0,0,0,0],"split_type":[0,0,0,0,0,0,0,0,0,0,0,0,0,0,0],"sum_hessian":[1.854635E3,1.8446971E3,9.937842E0,6.081796E1,1.7838793E3,5.1564837E0,4.7813582E0,4.282807E0,5.6535152E1,3.8071997E2,1.4031593E3,2.3006854E0,2.8557985E0,1.7034811E0,3.0778775E0],"tree_param":{"num_deleted":"0","num_feature":"18","num_nodes":"15","size_leaf_vector":"1"}},{"base_weights":[2.2113215E-2,-3.7342367E-1,5.6133386E-2,-9.426984E-2,-3.295207E-1,1.3791896E-1,-1.4082248E-2,-1.9359494E-2,2.3464363E-2,7.6732077E-3,-3.402127E-2,-3.0917468E-4,-5.8066715E-2],"categories":[],"categories_nodes":[],"categories_segments":[],"categories_sizes":[],"default_left":[0,0,0,0,0,0,0,0,0,0,0,0,0],"id":75,"left_children":[1,3,5,-1,7,9,11,-1,-1,-1,-1,-1,-1],"loss_changes":[2.4559504E1,8.7497635E0,9.675898E0,0E0,6.7014713E0,9.948074E0,8.08155E0,0E0,0E0,0E0,0E0,0E0,0E0],"parents":[2147483647,0,0,1,1,2,2,4,4,5,5,6,6],"right_children":[2,4,6,-1,8,10,12,-1,-1,-1,-1,-1,-1],"split_conditions":[-9.9443984E-1,-2.176868E0,-8.280502E-2,-9.426984E-2,6.64449E-1,1.9329604E0,5.21302E0,-1.9359494E-2,2.3464363E-2,7.6732077E-3,-3.402127E-2,-3.0917468E-4,-5.8066715E-2],"split_indices":[1,11,14,0,12,12,12,0,0,0,0,0,0],"split_type":[0,0,0,0,0,0,0,0,0,0,0,0,0],"sum_hessian":[1.82494E3,1.4350914E2,1.6814308E3,2.8016264E0,1.407075E2,7.769347E2,9.0449603E2,1.3183061E2,8.876904E0,7.633685E2,1.35662E1,8.993963E2,5.09973E0],"tree_param":{"num_deleted":"0","num_feature":"18","num_nodes":"13","size_leaf_vector":"1"}},{"base_weights":[-1.777202E-2,-3.121703E-1,2.3977296E-2,-4.9109322E-1,1.7459638E-1,-1.475854E-1,8.012506E-2,-3.372171E-2,1.271746E-2,3.6926717E-2,-2.314443E-2,-9.434218E-3,5.672347E-2,3.428592E-3,5.690186E-2],"categories":[],"categories_nodes":[],"categories_segments":[],"categories_sizes":[],"default_left":[0,0,0,0,0,0,0,0,0,0,0,0,0,0,0],"id":76,"left_children":[1,3,5,7,9,11,13,-1,-1,-1,-1,-1,-1,-1,-1],"loss_changes":[2.2672932E1,2.0071535E1,1.5548896E1,2.3166428E1,2.2718796E1,2.1079597E1,1.4673777E1,0E0,0E0,0E0,0E0,0E0,0E0,0E0,0E0],"parents":[2147483647,0,0,1,1,2,2,3,3,4,4,5,5,6,6],"right_children":[2,4,6,8,10,12,14,-1,-1,-1,-1,-1,-1,-1,-1],"split_conditions":[-7.357349E-1,8.961689E-1,-7.0130366E-1,2.631262E-1,-3.4705874E-2,2.5632765E0,2.9825535E0,-3.372171E-2,1.271746E-2,3.6926717E-2,-2.314443E-2,-9.434218E-3,5.672347E-2,3.428592E-3,5.690186E-2],"split_indices":[6,14,15,4,4,4,11,0,0,0,0,0,0,0,0],"split_type":[0,0,0,0,0,0,0,0,0,0,0,0,0,0,0],"sum_hessian":[1.840735E3,2.2811113E2,1.6126238E3,1.6694353E2,6.11676E1,3.9679245E2,1.2158313E3,1.3417314E2,3.2770386E1,3.2455162E1,2.8712437E1,3.8536945E2,1.1422997E1,1.2038438E3,1.198757E1],"tree_param":{"num_deleted":"0","num_feature":"18","num_nodes":"15","size_leaf_vector":"1"}},{"base_weights":[2.9602086E-2,7.883589E-2,-7.7258505E-2,7.455739E-3,5.562642E-1,-7.6047295E-1,-2.9102316E-2,8.30094E-3,-5.4983776E-3,6.1060518E-2,1.2835979E-2,-8.757579E-3,-6.1638433E-2,3.9021578E-2,-3.3757698E-3],"categories":[],"categories_nodes":[],"categories_segments":[],"categories_sizes":[],"default_left":[0,0,0,0,0,0,0,0,0,0,0,0,0,0,0],"id":77,"left_children":[1,3,5,7,9,11,13,-1,-1,-1,-1,-1,-1,-1,-1],"loss_changes":[9.516053E0,4.2148464E1,1.8651989E1,2.01076E1,3.1586319E1,9.969448E0,1.6575575E1,0E0,0E0,0E0,0E0,0E0,0E0,0E0,0E0],"parents":[2147483647,0,0,1,1,2,2,3,3,4,4,5,5,6,6],"right_children":[2,4,6,8,10,12,14,-1,-1,-1,-1,-1,-1,-1,-1],"split_conditions":[2.8976405E-1,6.7955893E-1,-8.7773556E-1,-4.0844193E-1,-1.8205357E-1,1.2332442E-1,-7.6840425E-1,8.30094E-3,-5.4983776E-3,6.1060518E-2,1.2835979E-2,-8.757579E-3,-6.1638433E-2,3.9021578E-2,-3.3757698E-3],"split_indices":[5,2,17,7,7,2,7,0,0,0,0,0,0,0,0],"split_type":[0,0,0,0,0,0,0,0,0,0,0,0,0,0,0],"sum_hessian":[1.8065513E3,1.2375663E3,5.68985E2,1.0776693E3,1.5989691E2,3.635343E1,5.3263153E2,4.5869983E2,6.189695E2,4.8600357E1,1.1129655E2,1.694093E1,1.9412502E1,2.3135881E1,5.0949567E2],"tree_param":{"num_deleted":"0","num_feature":"18","num_nodes":"15","size_leaf_vector":"1"}},{"base_weights":[-4.5088478E-4,2.2225682E-2,-2.4088132E-1,-4.659337E-3,4.2545164E-1,-6.694718E-1,-3.138604E-2,-1.6549058E-3,3.364687E-2,2.8723437E-2,-9.703025E-3,-4.823059E-2,-5.38798E-3,1.618546E-2,-2.6346935E-2],"categories":[],"categories_nodes":[],"categories_segments":[],"categories_sizes":[],"default_left":[0,0,0,0,0,0,0,0,0,0,0,0,0,0,0],"id":78,"left_children":[1,3,5,7,9,11,13,-1,-1,-1,-1,-1,-1,-1,-1],"loss_changes":[9.84376E0,1.788628E1,1.3883893E1,2.9705976E1,9.669413E0,8.226408E0,1.87995E1,0E0,0E0,0E0,0E0,0E0,0E0,0E0,0E0],"parents":[2147483647,0,0,1,1,2,2,3,3,4,4,5,5,6,6],"right_children":[2,4,6,8,10,12,14,-1,-1,-1,-1,-1,-1,-1,-1],"split_conditions":[1.3474534E0,1.1609178E0,9.379549E-1,1.3929901E0,6.3298583E-1,1.494085E0,1.6294217E0,-1.6549058E-3,3.364687E-2,2.8723437E-2,-9.703025E-3,-4.823059E-2,-5.38798E-3,1.618546E-2,-2.6346935E-2],"split_indices":[13,2,2,0,16,0,0,0,0,0,0,0,0,0,0],"split_type":[0,0,0,0,0,0,0,0,0,0,0,0,0,0,0],"sum_hessian":[1.7994943E3,1.6448494E3,1.5464485E2,1.5427286E3,1.0212072E2,4.989516E1,1.04749695E2,1.4816427E3,6.1085915E1,8.250833E1,1.9612387E1,3.2122017E1,1.7773142E1,6.110734E1,4.3642357E1],"tree_param":{"num_deleted":"0","num_feature":"18","num_nodes":"15","size_leaf_vector":"1"}},{"base_weights":[-4.343847E-3,-1.5414736E-1,5.009575E-2,-6.803367E-2,-5.525132E-1,1.4243126E-1,-9.1288105E-2,-2.7827818E-2,6.019416E-4,4.337532E-3,-4.677115E-2,5.7175998E-3,4.7543455E-2,-2.9057881E-3,-6.363209E-2],"categories":[],"categories_nodes":[],"categories_segments":[],"categories_sizes":[],"default_left":[0,0,0,0,0,0,0,0,0,0,0,0,0,0,0],"id":79,"left_children":[1,3,5,7,9,11,13,-1,-1,-1,-1,-1,-1,-1,-1],"loss_changes":[1.4644288E1,1.6324482E1,1.7194199E1,1.5513203E1,2.0911703E1,1.7870611E1,2.0169828E1,0E0,0E0,0E0,0E0,0E0,0E0,0E0,0E0],"parents":[2147483647,0,0,1,1,2,2,3,3,4,4,5,5,6,6],"right_children":[2,4,6,8,10,12,14,-1,-1,-1,-1,-1,-1,-1,-1],"split_conditions":[-7.0130366E-1,1.0450271E0,2.8937063E-1,-1.2305758E0,-4.1127476E-1,8.038232E-1,1.6087413E0,-2.7827818E-2,6.019416E-4,4.337532E-3,-4.677115E-2,5.7175998E-3,4.7543455E-2,-2.9057881E-3,-6.363209E-2],