{"learner":{"attributes":{"scikit_learn":"{\"_estimator_type\": \"classifier\"}"},"feature_names":[],"feature_types":[],"gradient_booster":{"model":{"cats":{"enc":[],"feature_segments":[],"sorted_idx":[]},"gbtree_model_param":{"num_parallel_tree":"1","num_trees":"300"},"iteration_indptr":[0,1,2,3,4,5,6,7,8,9,10,11,12,13,14,15,16,17,18,19,20,21,22,23,24,25,26,27,28,29,30,31,32,33,34,35,36,37,38,39,40,41,42,43,44,45,46,47,48,49,50,51,52,53,54,55,56,57,58,59,60,61,62,63,64,65,66,67,68,69,70,71,72,73,74,75,76,77,78,79,80,81,82,83,84,85,86,87,88,89,90,91,92,93,94,95,96,97,98,99,100,101,102,103,104,105,106,107,108,109,110,111,112,113,114,115,116,117,118,119,120,121,122,123,124,125,126,127,128,129,130,131,132,133,134,135,136,137,138,139,140,141,142,143,144,145,146,147,148,149,150,151,152,153,154,155,156,157,158,159,160,161,162,163,164,165,166,167,168,169,170,171,172,173,174,175,176,177,178,179,180,181,182,183,184,185,186,187,188,189,190,191,192,193,194,195,196,197,198,199,200,201,202,203,204,205,206,207,208,209,210,211,212,213,214,215,216,217,218,219,220,221,222,223,224,225,226,227,228,229,230,231,232,233,234,235,236,237,238,239,240,241,242,243,244,245,246,247,248,249,250,251,252,253,254,255,256,257,258,259,260,261,262,263,264,265,266,267,268,269,270,271,272,273,274,275,276,277,278,279,280,281,282,283,284,285,286,287,288,289,290,291,292,293,294,295,296,297,298,299,300],"tree_info":[0,0,0,0,0,0,0,0,0,0,0,0,0,0,0,0,0,0,0,0,0,0,0,0,0,0,0,0,0,0,0,0,0,0,0,0,0,0,0,0,0,0,0,0,0,0,0,0,0,0,0,0,0,0,0,0,0,0,0,0,0,0,0,0,0,0,0,0,0,0,0,0,0,0,0,0,0,0,0,0,0,0,0,0,0,0,0,0,0,0,0,0,0,0,0,0,0,0,0,0,0,0,0,0,0,0,0,0,0,0,0,0,0,0,0,0,0,0,0,0,0,0,0,0,0,0,0,0,0,0,0,0,0,0,0,0,0,0,0,0,0,0,0,0,0,0,0,0,0,0,0,0,0,0,0,0,0,0,0,0,0,0,0,0,0,0,0,0,0,0,0,0,0,0,0,0,0,0,0,0,0,0,0,0,0,0,0,0,0,0,0,0,0,0,0,0,0,0,0,0,0,0,0,0,0,0,0,0,0,0,0,0,0,0,0,0,0,0,0,0,0,0,0,0,0,0,0,0,0,0,0,0,0,0,0,0,0,0,0,0,0,0,0,0,0,0,0,0,0,0,0,0,0,0,0,0,0,0,0,0,0,0,0,0,0,0,0,0,0,0,0,0,0,0,0,0,0,0,0,0,0,0,0,0,0,0,0,0,0,0,0,0,0,0,0,0,0,0,0,0],"trees":[{"base_weights":[-0E0,2.7992958E-1,-2.672269E-1,7.9569894E-1,2.0731096E-1,6.25E-1,-3.3093524E-1,8.0000006E-2,3.251029E-2,5E-2,8.170797E-3,6.3380286E-2,5.376344E-3,-2.9724771E-2,-3.8664322E-3],"categories":[],"categories_nodes":[],"categories_segments":[],"categories_sizes":[],"default_left":[0,0,0,0,0,0,0,0,0,0,0,0,0,0,0],"id":0,"left_children":[1,3,5,7,9,11,13,-1,-1,-1,-1,-1,-1,-1,-1],"loss_changes":[8.699788E1,2.1109169E1,3.4028015E1,7.1218376E0,1.720805E1,1.3164946E1,3.7117405E1,0E0,0E0,0E0,0E0,0E0,0E0,0E0,0E0],"parents":[2147483647,0,0,1,1,2,2,3,3,4,4,5,5,6,6],"right_children":[2,4,6,8,10,12,14,-1,-1,-1,-1,-1,-1,-1,-1],"split_conditions":[-4.887488E-2,-1.1246052E0,-3.9029676E-1,-1.4970165E0,-1.8100536E0,-2.2992955E-1,-2.5627E-1,8.0000006E-2,3.251029E-2,5E-2,8.170797E-3,6.3380286E-2,5.376344E-3,-2.9724771E-2,-3.8664322E-3],"split_indices":[4,12,10,15,3,7,6,0,0,0,0,0,0,0,0],"split_type":[0,0,0,0,0,0,0,0,0,0,0,0,0,0,0],"sum_hessian":[1.161E3,5.67E2,5.94E2,6.875E1,4.9825E2,3.9E1,5.55E2,9E0,5.975E1,2.5E1,4.7325E2,1.675E1,2.225E1,2.715E2,2.835E2],"tree_param":{"num_deleted":"0","num_feature":"18","num_nodes":"15","size_leaf_vector":"1"}},{"base_weights":[1.7770471E-4,2.643002E-1,-2.5590295E-1,7.5786275E-1,1.9546232E-1,5.8802314E-2,-4.3167076E-1,7.651197E-2,3.0919706E-2,4.7625255E-2,7.6982216E-3,-2.2613669E-2,2.1896757E-2,-4.22773E-2,-5.897638E-3],"categories":[],"categories_nodes":[],"categories_segments":[],"categories_sizes":[],"default_left":[0,0,0,0,0,0,0,0,0,0,0,0,0,0,0],"id":1,"left_children":[1,3,5,7,9,11,13,-1,-1,-1,-1,-1,-1,-1,-1],"loss_changes":[7.8652534E1,1.9301155E1,3.2684658E1,6.5640907E0,1.5678232E1,4.1366726E1,4.910402E1,0E0,0E0,0E0,0E0,0E0,0E0,0E0,0E0],"parents":[2147483647,0,0,1,1,2,2,3,3,4,4,5,5,6,6],"right_children":[2,4,6,8,10,12,14,-1,-1,-1,-1,-1,-1,-1,-1],"split_conditions":[-4.1016646E-2,-1.1246052E0,1.5361509E-2,-1.4970165E0,-1.8100536E0,3.5878798E-1,2.2153366E-1,7.651197E-2,3.0919706E-2,4.7625255E-2,7.6982216E-3,-2.2613669E-2,2.1896757E-2,-4.22773E-2,-5.897638E-3],"split_indices":[4,12,11,15,3,2,11,0,0,0,0,0,0,0,0],"split_type":[0,0,0,0,0,0,0,0,0,0,0,0,0,0,0],"sum_hessian":[1.1608683E3,5.714454E2,5.894229E2,6.871983E1,5.0272556E2,2.1146632E2,3.779566E2,8.985616E0,5.9734215E1,2.4984383E1,4.7774118E2,8.997969E1,1.2148664E2,1.6223346E2,2.1572314E2],"tree_param":{"num_deleted":"0","num_feature":"18","num_nodes":"15","size_leaf_vector":"1"}},{"base_weights":[2.6743568E-4,3.043451E-1,-2.0139877E-1,1.16375126E-1,5.076791E-1,-4.383614E-1,4.8943544E-3,-3.508383E-2,1.4823197E-2,3.8024813E-2,7.377641E-3,2.541223E-2,-2.6284618E-2,6.5634632E-3,-4.5910772E-2],"categories":[],"categories_nodes":[],"categories_segments":[],"categories_sizes":[],"default_left":[0,0,0,0,0,0,0,0,0,0,0,0,0,0,0],"id":2,"left_children":[1,3,5,7,9,11,13,-1,-1,-1,-1,-1,-1,-1,-1],"loss_changes":[7.129015E1,1.7658825E1,3.417104E1,3.5886814E1,2.0135185E1,2.7160759E1,4.3827816E1,0E0,0E0,0E0,0E0,0E0,0E0,0E0,0E0],"parents":[2147483647,0,0,1,1,2,2,3,3,4,4,5,5,6,6],"right_children":[2,4,6,8,10,12,14,-1,-1,-1,-1,-1,-1,-1,-1],"split_conditions":[-4.061375E-1,-1.955145E-1,-2.5627E-1,-8.4243983E-1,-9.058957E-3,-7.24544E-1,1.8528568E0,-3.508383E-2,1.4823197E-2,3.8024813E-2,7.377641E-3,2.541223E-2,-2.6284618E-2,6.5634632E-3,-4.5910772E-2],"split_indices":[13,17,6,3,11,11,3,0,0,0,0,0,0,0,0],"split_type":[0,0,0,0,0,0,0,0,0,0,0,0,0,0,0],"sum_hessian":[1.160551E3,4.6256863E2,6.979824E2,2.4118243E2,2.2138622E2,3.2432043E2,3.73662E2,4.2992615E1,1.9818982E2,1.2941916E2,9.196705E1,2.6986452E1,2.9733398E2,3.2942154E2,4.4240433E1],"tree_param":{"num_deleted":"0","num_feature":"18","num_nodes":"15","size_leaf_vector":"1"}},{"base_weights":[2.4091618E-4,2.3974505E-1,-2.3199011E-1,7.0327413E-1,1.7522301E-1,5.912935E-1,-2.904867E-1,2.8830184E-2,7.88063E-2,4.423619E-2,6.8228953E-3,5.9598275E-2,5.454332E-3,-2.6404679E-2,-3.1907675E-3],"categories":[],"categories_nodes":[],"categories_segments":[],"categories_sizes":[],"default_left":[0,0,0,0,0,0,0,0,0,0,0,0,0,0,0],"id":3,"left_children":[1,3,5,7,9,11,13,-1,-1,-1,-1,-1,-1,-1,-1],"loss_changes":[6.463663E1,1.698685E1,2.8586287E1,6.783371E0,1.372807E1,1.1302477E1,2.9671581E1,0E0,0E0,0E0,0E0,0E0,0E0,0E0,0E0],"parents":[2147483647,0,0,1,1,2,2,3,3,4,4,5,5,6,6],"right_children":[2,4,6,8,10,12,14,-1,-1,-1,-1,-1,-1,-1,-1],"split_conditions":[-4.1016646E-2,-1.1246052E0,-3.9029676E-1,-1.1253041E-2,-1.8100536E0,-2.2992955E-1,-2.5627E-1,2.8830184E-2,7.88063E-2,4.423619E-2,6.8228953E-3,5.9598275E-2,5.454332E-3,-2.6404679E-2,-3.1907675E-3],"split_indices":[4,12,10,0,3,7,6,0,0,0,0,0,0,0,0],"split_type":[0,0,0,0,0,0,0,0,0,0,0,0,0,0,0],"sum_hessian":[1.1601051E3,5.710935E2,5.890116E2,6.857172E1,5.025218E2,3.8470314E1,5.505413E2,6.13317E1,7.240016E0,2.490338E1,4.776184E2,1.6475426E1,2.1994886E1,2.6813773E2,2.8240356E2],"tree_param":{"num_deleted":"0","num_feature":"18","num_nodes":"15","size_leaf_vector":"1"}},{"base_weights":[3.9796327E-4,2.7802786E-1,-1.8373409E-1,1.0107069E-1,4.696526E-1,-3.9975357E-1,4.05465E-3,-3.378723E-2,1.361174E-2,3.5422206E-2,6.5058707E-3,2.2968274E-2,-2.3948958E-2,6.190694E-3,-4.357853E-2],"categories":[],"categories_nodes":[],"categories_segments":[],"categories_sizes":[],"default_left":[0,0,0,0,0,0,0,0,0,0,0,0,0,0,0],"id":4,"left_children":[1,3,5,7,9,11,13,-1,-1,-1,-1,-1,-1,-1,-1],"loss_changes":[5.9376114E1,1.5657848E1,2.8330372E1,3.236996E1,1.7914303E1,2.2325096E1,3.9386818E1,0E0,0E0,0E0,0E0,0E0,0E0,0E0,0E0],"parents":[2147483647,0,0,1,1,2,2,3,3,4,4,5,5,6,6],"right_children":[2,4,6,8,10,12,14,-1,-1,-1,-1,-1,-1,-1,-1],"split_conditions":[-4.061375E-1,-1.955145E-1,-2.5627E-1,-8.4243983E-1,-9.058957E-3,-7.24544E-1,1.8528568E0,-3.378723E-2,1.361174E-2,3.5422206E-2,6.5058707E-3,2.2968274E-2,-2.3948958E-2,6.190694E-3,-4.357853E-2],"split_indices":[13,17,6,3,11,11,3,0,0,0,0,0,0,0,0],"split_type":[0,0,0,0,0,0,0,0,0,0,0,0,0,0,0],"sum_hessian":[1.1594926E3,4.6215555E2,6.97337E2,2.4106754E2,2.2108803E2,3.2376773E2,3.7356924E2,4.299411E1,1.9807343E2,1.291627E2,9.192531E1,2.6931002E1,2.9683673E2,3.2937875E2,4.4190514E1],"tree_param":{"num_deleted":"0","num_feature":"18","num_nodes":"15","size_leaf_vector":"1"}},{"base_weights":[3.6315195E-4,2.6438323E-1,-1.7472722E-1,9.597013E-2,4.469041E-1,-1.2562649E0,-1.4027746E-1,-3.2148834E-2,1.2939389E-2,3.3730574E-2,6.185E-3,-7.460636E-2,4.476087E-2,-1.266471E-2,1.1812147E-2],"categories":[],"categories_nodes":[],"categories_segments":[],"categories_sizes":[],"default_left":[0,0,0,0,0,0,0,0,0,0,0,0,0,0,0],"id":5,"left_children":[1,3,5,7,9,11,13,-1,-1,-1,-1,-1,-1,-1,-1],"loss_changes":[5.3654846E1,1.4183216E1,2.5825457E1,2.9279675E1,1.6242073E1,1.2203926E1,2.8887516E1,0E0,0E0,0E0,0E0,0E0,0E0,0E0,0E0],"parents":[2147483647,0,0,1,1,2,2,3,3,4,4,5,5,6,6],"right_children":[2,4,6,8,10,12,14,-1,-1,-1,-1,-1,-1,-1,-1],"split_conditions":[-4.061375E-1,-1.955145E-1,-1.2407644E0,-8.4243983E-1,-9.058957E-3,-9.121435E-1,8.146334E-1,-3.2148834E-2,1.2939389E-2,3.3730574E-2,6.185E-3,-7.460636E-2,4.476087E-2,-1.266471E-2,1.1812147E-2],"split_indices":[13,17,17,3,11,7,15,0,0,0,0,0,0,0,0],"split_type":[0,0,0,0,0,0,0,0,0,0,0,0,0,0,0],"sum_hessian":[1.1586733E3,4.6180466E2,6.968687E2,2.4097833E2,2.2082634E2,2.041702E1,6.764517E2,4.297726E1,1.9800107E2,1.2891467E2,9.191166E1,1.867607E1,1.7409514E0,5.205347E2,1.5591695E2],"tree_param":{"num_deleted":"0","num_feature":"18","num_nodes":"15","size_leaf_vector":"1"}},{"base_weights":[3.3681295E-4,2.0873418E-1,-2.0169924E-1,6.376362E-1,1.4926293E-1,7.646827E-2,-3.573085E-1,2.560542E-2,7.544648E-2,-3.0826207E-3,1.3477246E-2,-1.9981956E-2,2.1440655E-2,-3.783881E-2,-2.758451E-3],"categories":[],"categories_nodes":[],"categories_segments":[],"categories_sizes":[],"default_left":[0,0,0,0,0,0,0,0,0,0,0,0,0,0,0],"id":6,"left_children":[1,3,5,7,9,11,13,-1,-1,-1,-1,-1,-1,-1,-1],"loss_changes":[4.8840263E1,1.4469732E1,2.5521957E1,6.7988834E0,1.2771803E1,3.5754063E1,4.5566017E1,0E0,0E0,0E0,0E0,0E0,0E0,0E0,0E0],"parents":[2147483647,0,0,1,1,2,2,3,3,4,4,5,5,6,6],"right_children":[2,4,6,8,10,12,14,-1,-1,-1,-1,-1,-1,-1,-1],"split_conditions":[-4.1016646E-2,-1.1246052E0,1.5361509E-2,-1.1253041E-2,-4.4774774E-1,3.5878798E-1,2.2153366E-1,2.560542E-2,7.544648E-2,-3.0826207E-3,1.3477246E-2,-1.9981956E-2,2.1440655E-2,-3.783881E-2,-2.758451E-3],"split_indices":[4,12,11,0,8,2,11,0,0,0,0,0,0,0,0],"split_type":[0,0,0,0,0,0,0,0,0,0,0,0,0,0,0],"sum_hessian":[1.1579971E3,5.700083E2,5.879888E2,6.822844E1,5.0177988E2,2.1111235E2,3.768764E2,6.1024376E1,7.204064E0,1.8241003E2,3.1936984E2,8.973004E1,1.2138231E2,1.6164973E2,2.1522668E2],"tree_param":{"num_deleted":"0","num_feature":"18","num_nodes":"15","size_leaf_vector":"1"}},{"base_weights":[3.801347E-4,2.4138404E-1,-1.593652E-1,3.699701E-1,1.1477581E-2,-3.622486E-1,1.6660245E-2,1.3381274E-2,3.9571594E-2,-1.8143674E-2,9.362012E-3,2.0750038E-2,-2.2166736E-2,6.4513497E-3,-4.0393874E-2],"categories":[],"categories_nodes":[],"categories_segments":[],"categories_sizes":[],"default_left":[0,0,0,0,0,0,0,0,0,0,0,0,0,0,0],"id":7,"left_children":[1,3,5,7,9,11,13,-1,-1,-1,-1,-1,-1,-1,-1],"loss_changes":[4.4627754E1,1.3655821E1,2.4901894E1,1.2568905E1,1.1040887E1,2.0597214E1,3.4776012E1,0E0,0E0,0E0,0E0,0E0,0E0,0E0,0E0],"parents":[2147483647,0,0,1,1,2,2,3,3,4,4,5,5,6,6],"right_children":[2,4,6,8,10,12,14,-1,-1,-1,-1,-1,-1,-1,-1],"split_conditions":[-4.061375E-1,-2.9896992E-1,-2.5627E-1,-4.3508422E-1,-5.190108E-1,-1.4931599E0,1.8528568E0,1.3381274E-2,3.9571594E-2,-1.8143674E-2,9.362012E-3,2.0750038E-2,-2.2166736E-2,6.4513497E-3,-4.0393874E-2],"split_indices":[13,2,6,4,15,16,3,0,0,0,0,0,0,0,0],"split_type":[0,0,0,0,0,0,0,0,0,0,0,0,0,0,0],"sum_hessian":[1.157186E3,4.6106995E2,6.961161E2,2.9530014E2,1.657698E2,3.228954E2,3.732207E2,2.3891805E2,5.6382084E1,5.262372E1,1.1314609E2,3.0114588E1,2.927808E2,3.2920117E2,4.401952E1],"tree_param":{"num_deleted":"0","num_feature":"18","num_nodes":"15","size_leaf_vector":"1"}},{"base_weights":[3.6590453E-4,4.1280586E-1,-8.5452355E-2,1.205856E0,3.0819878E-1,9.394733E-2,-2.9761624E-1,-2.002283E-2,8.097194E-2,-2.7749753E-3,2.8327752E-2,-1.2745246E-2,1.1028294E-2,-2.5581986E-2,-5.1397686E-3],"categories":[],"categories_nodes":[],"categories_segments":[],"categories_sizes":[],"default_left":[0,0,0,0,0,0,0,0,0,0,0,0,0,0,0],"id":8,"left_children":[1,3,5,7,9,11,13,-1,-1,-1,-1,-1,-1,-1,-1],"loss_changes":[4.1000916E1,1.617994E1,3.6524708E1,1.58666E1,1.6720263E1,2.3039078E1,1.8275375E1,0E0,0E0,0E0,0E0,0E0,0E0,0E0,0E0],"parents":[2147483647,0,0,1,1,2,2,3,3,4,4,5,5,6,6],"right_children":[2,4,6,8,10,12,14,-1,-1,-1,-1,-1,-1,-1,-1],"split_conditions":[-4.727981E-1,-1.0420518E0,3.9584912E-2,-1.141378E0,-3.011705E-1,-5.788382E-1,2.2687635E-1,-2.002283E-2,8.097194E-2,-2.7749753E-3,2.8327752E-2,-1.2745246E-2,1.1028294E-2,-2.5581986E-2,-5.1397686E-3],"split_indices":[12,17,10,15,6,6,10,0,0,0,0,0,0,0,0],"split_type":[0,0,0,0,0,0,0,0,0,0,0,0,0,0,0],"sum_hessian":[1.156389E3,1.9851614E2,9.5787286E2,2.1906963E1,1.7660919E2,5.193135E2,4.3855933E2,4.49205E0,1.7414913E1,7.367673E1,1.02932465E2,1.3802412E2,3.812894E2,2.0820564E2,2.3035368E2],"tree_param":{"num_deleted":"0","num_feature":"18","num_nodes":"15","size_leaf_vector":"1"}},{"base_weights":[3.97306E-4,2.2223285E-1,-1.466291E-1,3.4374404E-1,5.240391E-3,-1.1596483E0,-1.1463129E-1,1.2257453E-2,3.752032E-2,2.0071065E-2,-7.568821E-3,-6.95247E-2,4.516078E-2,-1.1057684E-2,1.198999E-2],"categories":[],"categories_nodes":[],"categories_segments":[],"categories_sizes":[],"default_left":[0,0,0,0,0,0,0,0,0,0,0,0,0,0,0],"id":9,"left_children":[1,3,5,7,9,11,13,-1,-1,-1,-1,-1,-1,-1,-1],"loss_changes":[3.7756554E1,1.2164473E1,2.2433975E1,1.1674931E1,1.0401133E1,1.13550205E1,2.5575035E1,0E0,0E0,0E0,0E0,0E0,0E0,0E0,0E0],"parents":[2147483647,0,0,1,1,2,2,3,3,4,4,5,5,6,6],"right_children":[2,4,6,8,10,12,14,-1,-1,-1,-1,-1,-1,-1,-1],"split_conditions":[-4.061375E-1,-2.9896992E-1,-1.2407644E0,-4.3508422E-1,-5.3061646E-1,-9.121435E-1,8.146334E-1,1.2257453E-2,3.752032E-2,2.0071065E-2,-7.568821E-3,-6.95247E-2,4.516078E-2,-1.1057684E-2,1.198999E-2],"split_indices":[13,2,17,4,11,7,15,0,0,0,0,0,0,0,0],"split_type":[0,0,0,0,0,0,0,0,0,0,0,0,0,0,0],"sum_hessian":[1.1556205E3,4.604203E2,6.9520026E2,2.9477075E2,1.6564952E2,2.0207548E1,6.7499274E2,2.385398E2,5.6230957E1,4.648842E1,1.19161095E2,1.8466938E1,1.7406106E0,5.192968E2,1.5569589E2],"tree_param":{"num_deleted":"0","num_feature":"18","num_nodes":"15","size_leaf_vector":"1"}},{"base_weights":[4.0892596E-4,3.847765E-1,-7.945251E-2,1.1435882E0,2.8498474E-1,8.792988E-2,-2.775511E-1,-1.9373557E-2,7.701576E-2,-3.0213178E-3,2.6555145E-2,-1.7419502E-2,8.975983E-3,-2.316603E-2,-3.4673535E-3],"categories":[],"categories_nodes":[],"categories_segments":[],"categories_sizes":[],"default_left":[0,0,0,0,0,0,0,0,0,0,0,0,0,0,0],"id":10,"left_children":[1,3,5,7,9,11,13,-1,-1,-1,-1,-1,-1,-1,-1],"loss_changes":[3.5512165E1,1.4744549E1,3.1785898E1,1.4445454E1,1.5098E1,2.0840994E1,1.6944687E1,0E0,0E0,0E0,0E0,0E0,0E0,0E0,0E0],"parents":[2147483647,0,0,1,1,2,2,3,3,4,4,5,5,6,6],"right_children":[2,4,6,8,10,12,14,-1,-1,-1,-1,-1,-1,-1,-1],"split_conditions":[-4.727981E-1,-1.0420518E0,3.9584912E-2,-1.141378E0,-3.011705E-1,-7.559914E-1,2.2685482E-1,-1.9373557E-2,7.701576E-2,-3.0213178E-3,2.6555145E-2,-1.7419502E-2,8.975983E-3,-2.316603E-2,-3.4673535E-3],"split_indices":[12,17,10,15,6,6,11,0,0,0,0,0,0,0,0],"split_type":[0,0,0,0,0,0,0,0,0,0,0,0,0,0,0],"sum_hessian":[1.1548973E3,1.9802045E2,9.568769E2,2.1799368E1,1.7622108E2,5.1894946E2,4.3792746E2,4.4909825E0,1.7308386E1,7.363439E1,1.0258669E2,8.954877E1,4.2940067E2,2.3078494E2,2.0714252E2],"tree_param":{"num_deleted":"0","num_feature":"18","num_nodes":"15","size_leaf_vector":"1"}},{"base_weights":[4.3247791E-4,3.6671522E-1,-7.5563736E-2,1.0953703E0,2.7129486E-1,8.3540864E-2,-2.6398617E-1,-1.8578446E-2,7.391467E-2,-2.8720188E-3,2.5308406E-2,-8.554571E-3,1.1485103E-2,-2.3039734E-2,-4.2642443E-3],"categories":[],"categories_nodes":[],"categories_segments":[],"categories_sizes":[],"default_left":[0,0,0,0,0,0,0,0,0,0,0,0,0,0,0],"id":11,"left_children":[1,3,5,7,9,11,13,-1,-1,-1,-1,-1,-1,-1,-1],"loss_changes":[3.217716E1,1.3512957E1,2.8721725E1,1.3283463E1,1.3692006E1,1.9385082E1,1.5383577E1,0E0,0E0,0E0,0E0,0E0,0E0,0E0,0E0],"parents":[2147483647,0,0,1,1,2,2,3,3,4,4,5,5,6,6],"right_children":[2,4,6,8,10,12,14,-1,-1,-1,-1,-1,-1,-1,-1],"split_conditions":[-4.727981E-1,-1.0420518E0,3.9584912E-2,-1.141378E0,-3.011705E-1,-4.4774774E-1,2.2687635E-1,-1.8578446E-2,7.391467E-2,-2.8720188E-3,2.5308406E-2,-8.554571E-3,1.1485103E-2,-2.3039734E-2,-4.2642443E-3],"split_indices":[12,17,10,15,6,8,10,0,0,0,0,0,0,0,0],"split_type":[0,0,0,0,0,0,0,0,0,0,0,0,0,0,0],"sum_hessian":[1.1539551E3,1.9762526E2,9.5632983E2,2.166977E1,1.7595549E2,5.1880536E2,4.375245E2,4.4917984E0,1.717797E1,7.364097E1,1.0231453E2,1.891355E2,3.2966983E2,2.0746223E2,2.3006227E2],"tree_param":{"num_deleted":"0","num_feature":"18","num_nodes":"15","size_leaf_vector":"1"}},{"base_weights":[4.628527E-4,2.646427E-1,-9.702594E-2,1.1745644E-1,5.278969E-1,7.3552996E-2,-1.1963021E-1,1.5899865E-2,-1.3829298E-2,4.1091796E-2,1.3280424E-2,-3.1827733E-2,-3.1522405E-3],"categories":[],"categories_nodes":[],"categories_segments":[],"categories_sizes":[],"default_left":[0,0,0,0,0,0,0,0,0,0,0,0,0],"id":12,"left_children":[1,3,5,7,9,-1,11,-1,-1,-1,-1,-1,-1],"loss_changes":[2.9746738E1,1.2001421E1,3.0080439E1,1.5969303E1,8.367243E0,0E0,2.4314075E1,0E0,0E0,0E0,0E0,0E0,0E0],"parents":[2147483647,0,0,1,1,2,2,3,3,4,4,6,6],"right_children":[2,4,6,8,10,-1,12,-1,-1,-1,-1,-1,-1],"split_conditions":[-7.35816E-1,1.2640028E-1,-1.8850254E0,-1.3483158E-1,7.107199E-1,7.3552996E-2,-9.694265E-1,1.5899865E-2,-1.3829298E-2,4.1091796E-2,1.3280424E-2,-3.1827733E-2,-3.1522405E-3],"split_indices":[13,9,3,12,9,0,6,0,0,0,0,0,0],"split_type":[0,0,0,0,0,0,0,0,0,0,0,0,0],"sum_hessian":[1.1530111E3,3.103352E2,8.426759E2,1.9997484E2,1.10360374E2,1.1064138E1,8.3161176E2,1.3265529E2,6.731955E1,5.1034336E1,5.932604E1,8.103978E1,7.5057196E2],"tree_param":{"num_deleted":"0","num_feature":"18","num_nodes":"13","size_leaf_vector":"1"}},{"base_weights":[5.278717E-4,3.2537527E-2,-7.681226E-1,-1.3333973E-1,1.9723278E-1,-1.2969831E0,-3.6787087E-1,7.520548E-4,-2.7443266E-2,4.468656E-3,2.7738838E-2,-1.6155409E-2,-7.800767E-2,5.1872876E-2,-3.3186506E-2],"categories":[],"categories_nodes":[],"categories_segments":[],"categories_sizes":[],"default_left":[0,0,0,0,0,0,0,0,0,0,0,0,0,0,0],"id":13,"left_children":[1,3,5,7,9,11,13,-1,-1,-1,-1,-1,-1,-1,-1],"loss_changes":[2.8398928E1,3.0297836E1,9.290741E0,3.4082447E1,2.1408457E1,4.489258E0,1.21899605E1,0E0,0E0,0E0,0E0,0E0,0E0,0E0,0E0],"parents":[2147483647,0,0,1,1,2,2,3,3,4,4,5,5,6,6],"right_children":[2,4,6,8,10,12,14,-1,-1,-1,-1,-1,-1,-1,-1],"split_conditions":[1.8528568E0,-2.6399887E-1,2.1371213E-1,3.1093553E-1,7.257238E-1,3.519573E-2,3.610385E-1,7.520548E-4,-2.7443266E-2,4.468656E-3,2.7738838E-2,-1.6155409E-2,-7.800767E-2,5.1872876E-2,-3.3186506E-2],"split_indices":[3,6,16,3,15,11,16,0,0,0,0,0,0,0,0],"split_type":[0,0,0,0,0,0,0,0,0,0,0,0,0,0,0],"sum_hessian":[1.1522133E3,1.1070682E3,4.514505E1,5.516497E2,5.554185E2,1.848286E1,2.6662188E1,4.0720422E2,1.4444553E2,4.276577E2,1.277608E2,4.405998E0,1.4076863E1,4.2009807E0,2.2461206E1],"tree_param":{"num_deleted":"0","num_feature":"18","num_nodes":"15","size_leaf_vector":"1"}},{"base_weights":[4.333859E-4,3.3500496E-1,-6.878672E-2,1.1543598E0,2.5051033E-1,7.461077E-2,-2.3889786E-1,6.865945E-2,-8.783896E-3,-2.0324463E-2,1.779691E-2,-1.1606397E-2,9.300016E-3,-2.0684352E-2,-2.1783567E-3],"categories":[],"categories_nodes":[],"categories_segments":[],"categories_sizes":[],"default_left":[0,0,0,0,0,0,0,0,0,0,0,0,0,0,0],"id":14,"left_children":[1,3,5,7,9,11,13,-1,-1,-1,-1,-1,-1,-1,-1],"loss_changes":[2.6710146E1,1.33985195E1,2.3328957E1,5.539942E0,1.2647551E1,1.7786015E1,1.4913448E1,0E0,0E0,0E0,0E0,0E0,0E0,0E0,0E0],"parents":[2147483647,0,0,1,1,2,2,3,3,4,4,5,5,6,6],"right_children":[2,4,6,8,10,12,14,-1,-1,-1,-1,-1,-1,-1,-1],"split_conditions":[-4.727981E-1,-1.6994541E0,3.9584912E-2,4.4753134E-1,-6.7619884E-1,-5.788382E-1,2.2685482E-1,6.865945E-2,-8.783896E-3,-2.0324463E-2,1.779691E-2,-1.1606397E-2,9.300016E-3,-2.0684352E-2,-2.1783567E-3],"split_indices":[12,16,10,6,16,6,11,0,0,0,0,0,0,0,0],"split_type":[0,0,0,0,0,0,0,0,0,0,0,0,0,0,0],"sum_hessian":[1.1513387E3,1.9671034E2,9.5462836E2,1.720541E1,1.7950493E2,5.182901E2,4.3633826E2,1.4746711E1,2.4586987E0,2.4426928E1,1.55078E2,1.3778395E2,3.8050616E2,2.296875E2,2.0665076E2],"tree_param":{"num_deleted":"0","num_feature":"18","num_nodes":"15","size_leaf_vector":"1"}},{"base_weights":[4.4166754E-4,3.0572746E-2,-7.264777E-1,-1.2473944E-1,1.8475993E-1,-1.237258E0,-3.4244177E-1,5.839342E-2,-8.449919E-3,-1.088942E-3,1.774603E-2,-1.4723356E-2,-7.4721746E-2,4.9919304E-2,-3.137264E-2],"categories":[],"categories_nodes":[],"categories_segments":[],"categories_sizes":[],"default_left":[0,0,0,0,0,0,0,0,0,0,0,0,0,0,0],"id":15,"left_children":[1,3,5,7,9,11,13,-1,-1,-1,-1,-1,-1,-1,-1],"loss_changes":[2.5239847E1,2.6519978E1,8.572985E0,3.1766884E1,1.9535986E1,4.2398186E0,1.1159697E1,0E0,0E0,0E0,0E0,0E0,0E0,0E0,0E0],"parents":[2147483647,0,0,1,1,2,2,3,3,4,4,5,5,6,6],"right_children":[2,4,6,8,10,12,14,-1,-1,-1,-1,-1,-1,-1,-1],"split_conditions":[1.8528568E0,-2.6399887E-1,2.1371213E-1,-1.4450696E0,-2.75608E-1,3.519573E-2,3.610385E-1,5.839342E-2,-8.449919E-3,-1.088942E-3,1.774603E-2,-1.4723356E-2,-7.4721746E-2,4.9919304E-2,-3.137264E-2],"split_indices":[3,6,16,1,8,11,16,0,0,0,0,0,0,0,0],"split_type":[0,0,0,0,0,0,0,0,0,0,0,0,0,0,0],"sum_hessian":[1.1503398E3,1.1054753E3,4.4864426E1,5.5082367E2,5.546517E2,1.8301332E1,2.6563091E1,1.7395342E1,5.3342834E2,2.509382E2,3.0371347E2,4.382056E0,1.3919275E1,4.2177606E0,2.2345331E1],"tree_param":{"num_deleted":"0","num_feature":"18","num_nodes":"15","size_leaf_vector":"1"}},{"base_weights":[4.1197173E-4,3.166871E-1,-6.495623E-2,1.0417738E0,2.2234195E-1,6.9266014E-2,-2.2437224E-1,7.216245E-2,-1.6535217E-2,5.303408E-2,7.0915944E-3,-8.274084E-3,1.0211988E-2,-2.0600121E-2,-2.7223702E-3],"categories":[],"categories_nodes":[],"categories_segments":[],"categories_sizes":[],"default_left":[0,0,0,0,0,0,0,0,0,0,0,0,0,0,0],"id":16,"left_children":[1,3,5,7,9,11,13,-1,-1,-1,-1,-1,-1,-1,-1],"loss_changes":[2.3808216E1,1.3261517E1,2.0435808E1,1.2841156E1,1.1715523E1,1.6474293E1,1.3893467E1,0E0,0E0,0E0,0E0,0E0,0E0,0E0,0E0],"parents":[2147483647,0,0,1,1,2,2,3,3,4,4,5,5,6,6],"right_children":[2,4,6,8,10,12,14,-1,-1,-1,-1,-1,-1,-1,-1],"split_conditions":[-4.727981E-1,-1.0420518E0,3.9584912E-2,7.916196E-1,-1.6994541E0,-4.4774774E-1,2.2687635E-1,7.216245E-2,-1.6535217E-2,5.303408E-2,7.0915944E-3,-8.274084E-3,1.0211988E-2,-2.0600121E-2,-2.7223702E-3],"split_indices":[12,17,10,16,16,8,10,0,0,0,0,0,0,0,0],"split_type":[0,0,0,0,0,0,0,0,0,0,0,0,0,0,0],"sum_hessian":[1.149588E3,1.9624393E2,9.533441E2,2.1438309E1,1.7480562E2,5.178769E2,4.3546725E2,1.6546568E1,4.8917403E0,1.4249817E1,1.605558E2,1.8897815E2,3.2889874E2,2.062749E2,2.2919235E2],"tree_param":{"num_deleted":"0","num_feature":"18","num_nodes":"15","size_leaf_vector":"1"}},{"base_weights":[4.7838275E-4,2.8888559E-2,-6.8900913E-1,-1.19810715E-1,1.7649196E-1,-1.1841328E0,-3.1975502E-1,9.053109E-4,-2.537471E-2,4.216247E-3,2.739459E-2,-1.3474265E-2,-7.18253E-2,4.787728E-2,-2.9688705E-2],"categories":[],"categories_nodes":[],"categories_segments":[],"categories_sizes":[],"default_left":[0,0,0,0,0,0,0,0,0,0,0,0,0,0,0],"id":17,"left_children":[1,3,5,7,9,11,13,-1,-1,-1,-1,-1,-1,-1,-1],"loss_changes":[2.2539616E1,2.4276571E1,7.9466095E0,2.9475723E1,1.8951925E1,4.017805E0,1.0177437E1,0E0,0E0,0E0,0E0,0E0,0E0,0E0,0E0],"parents":[2147483647,0,0,1,1,2,2,3,3,4,4,5,5,6,6],"right_children":[2,4,6,8,10,12,14,-1,-1,-1,-1,-1,-1,-1,-1],"split_conditions":[1.8528568E0,-2.6399887E-1,2.1371213E-1,3.1093553E-1,8.146334E-1,3.519573E-2,3.610385E-1,9.053109E-4,-2.537471E-2,4.216247E-3,2.739459E-2,-1.3474265E-2,-7.18253E-2,4.787728E-2,-2.9688705E-2],"split_indices":[3,6,16,3,15,11,16,0,0,0,0,0,0,0,0],"split_type":[0,0,0,0,0,0,0,0,0,0,0,0,0,0,0],"sum_hessian":[1.1486417E3,1.1041053E3,4.453631E1,5.5010474E2,5.540007E2,1.808276E1,2.6453547E1,4.0646103E2,1.4364368E2,4.4483652E2,1.09164116E2,4.3576455E0,1.3725115E1,4.2320423E0,2.2221504E1],"tree_param":{"num_deleted":"0","num_feature":"18","num_nodes":"15","size_leaf_vector":"1"}},{"base_weights":[3.9364173E-4,2.2645064E-1,-8.296813E-2,9.3740016E-2,4.6493158E-1,1.3891691E0,-1.0394193E-1,1.3791121E-2,-1.3099002E-2,3.7556324E-2,1.05431E-2,2.2174707E-2,7.2670504E-2,-2.8780684E-2,-2.6261413E-3],"categories":[],"categories_nodes":[],"categories_segments":[],"categories_sizes":[],"default_left":[0,0,0,0,0,0,0,0,0,0,0,0,0,0,0],"id":18,"left_children":[1,3,5,7,9,11,13,-1,-1,-1,-1,-1,-1,-1,-1],"loss_changes":[2.1663164E1,9.758448E0,2.607637E1,1.3041475E1,7.87479E0,7.636833E-2,2.0075432E1,0E0,0E0,0E0,0E0,0E0,0E0,0E0,0E0],"parents":[2147483647,0,0,1,1,2,2,3,3,4,4,5,5,6,6],"right_children":[2,4,6,8,10,12,14,-1,-1,-1,-1,-1,-1,-1,-1],"split_conditions":[-7.35816E-1,1.2640028E-1,-1.8850254E0,-1.3483158E-1,7.107199E-1,-6.7973125E-1,-9.694265E-1,1.3791121E-2,-1.3099002E-2,3.7556324E-2,1.05431E-2,2.2174707E-2,7.2670504E-2,-2.8780684E-2,-2.6261413E-3],"split_indices":[13,9,3,12,9,2,6,0,0,0,0,0,0,0,0],"split_type":[0,0,0,0,0,0,0,0,0,0,0,0,0,0,0],"sum_hessian":[1.1475773E3,3.0871103E2,8.388662E2,1.9923383E2,1.09477196E2,1.0867256E1,8.2799896E2,1.319283E2,6.730552E1,5.0563694E1,5.89135E1,1.1940173E0,9.673239E0,8.0389046E1,7.476099E2],"tree_param":{"num_deleted":"0","num_feature":"18","num_nodes":"15","size_leaf_vector":"1"}},{"base_weights":[4.7829145E-4,2.7471373E-2,-6.582735E-1,-1.1117331E-1,1.650529E-1,-1.1403408E0,-3.0176386E-1,5.509801E-2,-7.630646E-3,-4.9765013E-2,9.677171E-3,-1.2850043E-2,-6.935204E-2,4.5963075E-2,-2.8281474E-2],"categories":[],"categories_nodes":[],"categories_segments":[],"categories_sizes":[],"default_left":[0,0,0,0,0,0,0,0,0,0,0,0,0,0,0],"id":19,"left_children":[1,3,5,7,9,11,13,-1,-1,-1,-1,-1,-1,-1,-1],"loss_changes":[2.0424908E1,2.106591E1,7.4264927E0,2.7826748E1,1.851503E1,3.7540226E0,9.332381E0,0E0,0E0,0E0,0E0,0E0,0E0,0E0,0E0],"parents":[2147483647,0,0,1,1,2,2,3,3,4,4,5,5,6,6],"right_children":[2,4,6,8,10,12,14,-1,-1,-1,-1,-1,-1,-1,-1],"split_conditions":[1.8528568E0,-2.6399887E-1,2.1371213E-1,-1.4450696E0,-1.1318167E0,3.519573E-2,3.610385E-1,5.509801E-2,-7.630646E-3,-4.9765013E-2,9.677171E-3,-1.2850043E-2,-6.935204E-2,4.5963075E-2,-2.8281474E-2],"split_indices":[3,6,16,1,9,11,16,0,0,0,0,0,0,0,0],"split_type":[0,0,0,0,0,0,0,0,0,0,0,0,0,0,0],"sum_hessian":[1.146628E3,1.1024137E3,4.421432E1,5.4918097E2,5.532327E2,1.7862406E1,2.6351915E1,1.729459E1,5.318864E2,1.2444918E1,5.4078784E2,4.3452935E0,1.3517113E1,4.241368E0,2.2110548E1],"tree_param":{"num_deleted":"0","num_feature":"18","num_nodes":"15","size_leaf_vector":"1"}},{"base_weights":[3.9958404E-4,2.8500307E-1,-6.040442E-2,1.9413365E-1,1.0813032E0,1.6525413E-1,-1.7617504E-1,3.5622355E-3,3.242461E-2,7.064351E-2,8.803453E-3,1.0149787E-2,-4.555995E-2,-1.7330462E-2,5.6179654E-4],"categories":[],"categories_nodes":[],"categories_segments":[],"categories_sizes":[],"default_left":[0,0,0,0,0,0,0,0,0,0,0,0,0,0,0],"id":20,"left_children":[1,3,5,7,9,11,13,-1,-1,-1,-1,-1,-1,-1,-1],"loss_changes":[1.9861782E1,1.4409843E1,2.473537E1,1.0147606E1,5.896948E0,1.3233703E1,1.9983913E1,0E0,0E0,0E0,0E0,0E0,0E0,0E0,0E0],"parents":[2147483647,0,0,1,1,2,2,3,3,4,4,5,5,6,6],"right_children":[2,4,6,8,10,12,14,-1,-1,-1,-1,-1,-1,-1,-1],"split_conditions":[-5.163787E-1,1.2487563E0,-2.89352E-1,1.2591815E0,9.507093E-1,1.7911744E0,-2.5627E-1,3.5622355E-3,3.242461E-2,7.064351E-2,8.803453E-3,1.0149787E-2,-4.555995E-2,-1.7330462E-2,5.6179654E-4],"split_indices":[11,16,2,15,7,3,6,0,0,0,0,0,0,0,0],"split_type":[0,0,0,0,0,0,0,0,0,0,0,0,0,0,0],"sum_hessian":[1.1457513E3,2.010439E2,9.447074E2,1.8156813E2,1.9475765E1,3.2018317E2,6.2452423E2,1.4382503E2,3.7743107E1,1.3844176E1,5.6315894E0,3.101214E2,1.00617695E1,3.2663147E2,2.9789276E2],"tree_param":{"num_deleted":"0","num_feature":"18","num_nodes":"15","size_leaf_vector":"1"}},{"base_weights":[4.3492654E-4,2.8166205E-1,-5.7538044E-2,1.0103283E0,1.8722107E-1,-7.7748054E-1,-3.3008065E-2,7.012273E-2,-1.594979E-2,1.55655965E-2,-1.6996717E-2,4.64107E-2,-4.9529098E-2,3.4175327E-3,-1.0848605E-2],"categories":[],"categories_nodes":[],"categories_segments":[],"categories_sizes":[],"default_left":[0,0,0,0,0,0,0,0,0,0,0,0,0,0,0],"id":21,"left_children":[1,3,5,7,9,11,13,-1,-1,-1,-1,-1,-1,-1,-1],"loss_changes":[1.869423E1,1.3296839E1,1.6763298E1,1.2049547E1,1.1534776E1,1.2289192E1,1.7176722E1,0E0,0E0,0E0,0E0,0E0,0E0,0E0,0E0],"parents":[2147483647,0,0,1,1,2,2,3,3,4,4,5,5,6,6],"right_children":[2,4,6,8,10,12,14,-1,-1,-1,-1,-1,-1,-1,-1],"split_conditions":[-4.727981E-1,-1.0420518E0,-1.2407644E0,7.916196E-1,1.1702719E0,-3.9056647E-1,3.0859208E-1,7.012273E-2,-1.594979E-2,1.55655965E-2,-1.6996717E-2,4.64107E-2,-4.9529098E-2,3.4175327E-3,-1.0848605E-2],"split_indices":[12,17,17,16,15,2,5,0,0,0,0,0,0,0,0],"split_type":[0,0,0,0,0,0,0,0,0,0,0,0,0,0,0],"sum_hessian":[1.1446399E3,1.949719E2,9.49668E2,2.1257805E1,1.737141E2,3.0279676E1,9.1938837E2,1.6373043E1,4.8847613E0,1.409454E2,3.2768692E1,2.9901714E0,2.7289505E1,5.9318787E2,3.2620047E2],"tree_param":{"num_deleted":"0","num_feature":"18","num_nodes":"15","size_leaf_vector":"1"}},{"base_weights":[4.528756E-4,1.22245215E-2,-1.3056954E0,-7.890457E-3,9.127512E-1,-7.9008E-2,3.0971991E-3,-2.1190468E-2,1.7225633E-3,5.9913512E-2,-2.8576836E-2],"categories":[],"categories_nodes":[],"categories_segments":[],"categories_sizes":[],"default_left":[0,0,0,0,0,0,0,0,0,0,0],"id":22,"left_children":[1,3,5,7,9,-1,-1,-1,-1,-1,-1],"loss_changes":[1.7615877E1,2.0574615E1,3.9392052E0,1.959106E1,1.1201948E1,0E0,0E0,0E0,0E0,0E0,0E0],"parents":[2147483647,0,0,1,1,2,2,3,3,4,4],"right_children":[2,4,6,8,10,-1,-1,-1,-1,-1,-1],"split_conditions":[2.2507014E0,2.1428056E0,3.875023E-1,-9.694265E-1,1.999292E0,-7.9008E-2,3.0971991E-3,-2.1190468E-2,1.7225633E-3,5.9913512E-2,-2.8576836E-2],"split_indices":[0,10,9,6,12,0,0,0,0,0,0],"split_type":[0,0,0,0,0,0,0,0,0,0,0],"sum_hessian":[1.1436718E3,1.1344382E3,9.233471E0,1.1106217E3,2.3816612E1,7.5607505E0,1.6727203E0,1.0178524E2,1.0088364E3,2.013594E1,3.680671E0],"tree_param":{"num_deleted":"0","num_feature":"18","num_nodes":"11","size_leaf_vector":"1"}},{"base_weights":[3.6881873E-4,2.5324928E-2,-6.1421335E-1,-9.893204E-2,1.4844832E-1,-1.0844703E0,-2.7122694E-1,5.2206703E-2,-6.8922164E-3,2.6104539E-3,2.3468029E-2,-1.1922524E-2,-6.62772E-2,4.4984948E-2,-2.6358897E-2],"categories":[],"categories_nodes":[],"categories_segments":[],"categories_sizes":[],"default_left":[0,0,0,0,0,0,0,0,0,0,0,0,0,0,0],"id":23,"left_children":[1,3,5,7,9,11,13,-1,-1,-1,-1,-1,-1,-1,-1],"loss_changes":[1.7567587E1,1.6854002E1,6.914913E0,2.4537312E1,1.7062706E1,3.460514E0,8.619763E0,0E0,0E0,0E0,0E0,0E0,0E0,0E0,0E0],"parents":[2147483647,0,0,1,1,2,2,3,3,4,4,5,5,6,6],"right_children":[2,4,6,8,10,12,14,-1,-1,-1,-1,-1,-1,-1,-1],"split_conditions":[1.8528568E0,-2.6399887E-1,2.1371213E-1,-1.4450696E0,7.257238E-1,3.519573E-2,3.610385E-1,5.2206703E-2,-6.8922164E-3,2.6104539E-3,2.3468029E-2,-1.1922524E-2,-6.62772E-2,4.4984948E-2,-2.6358897E-2],"split_indices":[3,6,16,1,15,11,16,0,0,0,0,0,0,0,0],"split_type":[0,0,0,0,0,0,0,0,0,0,0,0,0,0,0],"sum_hessian":[1.143381E3,1.0996852E3,4.3695717E1,5.4742084E2,5.522644E2,1.751696E1,2.6178755E1,1.7171356E1,5.3024945E2,4.2574826E2,1.2651611E2,4.325664E0,1.3191297E1,4.2447453E0,2.193401E1],"tree_param":{"num_deleted":"0","num_feature":"18","num_nodes":"15","size_leaf_vector":"1"}},{"base_weights":[3.578576E-4,2.6352674E-1,-5.586729E-2,1.7641915E-1,1.0297602E0,1.4938845E-1,-1.6119328E-1,3.0136842E-3,3.0389845E-2,6.7600064E-2,7.7871964E-3,9.187725E-3,-4.236243E-2,-1.5885925E-2,5.2301364E-4],"categories":[],"categories_nodes":[],"categories_segments":[],"categories_sizes":[],"default_left":[0,0,0,0,0,0,0,0,0,0,0,0,0,0,0],"id":24,"left_children":[1,3,5,7,9,11,13,-1,-1,-1,-1,-1,-1,-1,-1],"loss_changes":[1.6932543E1,1.3263844E1,2.0408485E1,9.086551E0,5.522743E0,1.1125462E1,1.6758873E1,0E0,0E0,0E0,0E0,0E0,0E0,0E0,0E0],"parents":[2147483647,0,0,1,1,2,2,3,3,4,4,5,5,6,6],"right_children":[2,4,6,8,10,12,14,-1,-1,-1,-1,-1,-1,-1,-1],"split_conditions":[-5.163787E-1,1.2487563E0,-2.89352E-1,1.2591815E0,9.507093E-1,1.7911744E0,-2.5627E-1,3.0136842E-3,3.0389845E-2,6.7600064E-2,7.7871964E-3,9.187725E-3,-4.236243E-2,-1.5885925E-2,5.2301364E-4],"split_indices":[11,16,2,15,7,3,6,0,0,0,0,0,0,0,0],"split_type":[0,0,0,0,0,0,0,0,0,0,0,0,0,0,0],"sum_hessian":[1.1423501E3,2.0044678E2,9.419034E2,1.8109018E2,1.93566E1,3.1928098E2,6.226224E2,1.4357368E2,3.75165E1,1.3742863E1,5.6137376E0,3.0942694E2,9.854038E0,3.2521692E2,2.974055E2],"tree_param":{"num_deleted":"0","num_feature":"18","num_nodes":"15","size_leaf_vector":"1"}},{"base_weights":[3.936719E-4,1.1491405E-2,-1.2454685E0,-7.9733515E-3,8.8229454E-1,-7.586409E-2,4.3829377E-3,1.2565809E-2,-3.2663362E-3,5.7595134E-2,-2.6684461E-2],"categories":[],"categories_nodes":[],"categories_segments":[],"categories_sizes":[],"default_left":[0,0,0,0,0,0,0,0,0,0,0],"id":25,"left_children":[1,3,5,7,9,-1,-1,-1,-1,-1,-1],"loss_changes":[1.5806083E1,1.9212467E1,3.7904272E0,1.6512714E1,1.007564E1,0E0,0E0,0E0,0E0,0E0,0E0],"parents":[2147483647,0,0,1,1,2,2,3,3,4,4],"right_children":[2,4,6,8,10,-1,-1,-1,-1,-1,-1],"split_conditions":[2.2507014E0,2.1428056E0,3.875023E-1,-5.163787E-1,1.999292E0,-7.586409E-2,4.3829377E-3,1.2565809E-2,-3.2663362E-3,5.7595134E-2,-2.6684461E-2],"split_indices":[0,10,9,11,12,0,0,0,0,0,0],"split_type":[0,0,0,0,0,0,0,0,0,0,0],"sum_hessian":[1.141159E3,1.1320657E3,9.093295E0,1.1082834E3,2.3782227E1,7.438509E0,1.6547856E0,2.0013026E2,9.081532E2,2.0134962E1,3.6472654E0],"tree_param":{"num_deleted":"0","num_feature":"18","num_nodes":"11","size_leaf_vector":"1"}},{"base_weights":[3.4440475E-4,2.3633154E-2,-5.787102E-1,1.8316148E-1,-5.8820788E-2,-1.0383234E0,-2.4820052E-1,2.8046882E-2,5.7302024E-3,5.8285844E-2,-4.1047884E-3,-1.1264771E-2,-6.374982E-2,4.378361E-2,-2.4811646E-2],"categories":[],"categories_nodes":[],"categories_segments":[],"categories_sizes":[],"default_left":[0,0,0,0,0,0,0,0,0,0,0,0,0,0,0],"id":26,"left_children":[1,3,5,7,9,11,13,-1,-1,-1,-1,-1,-1,-1,-1],"loss_changes":[1.5410412E1,1.4460765E1,6.453912E0,9.636732E0,2.0758432E1,3.2085705E0,7.965169E0,0E0,0E0,0E0,0E0,0E0,0E0,0E0,0E0],"parents":[2147483647,0,0,1,1,2,2,3,3,4,4,5,5,6,6],"right_children":[2,4,6,8,10,12,14,-1,-1,-1,-1,-1,-1,-1,-1],"split_conditions":[1.8528568E0,-2.9896992E-1,2.1371213E-1,-7.810489E-1,-1.7582996E0,3.519573E-2,3.610385E-1,2.8046882E-2,5.7302024E-3,5.8285844E-2,-4.1047884E-3,-1.1264771E-2,-6.374982E-2,4.378361E-2,-2.4811646E-2],"split_indices":[3,2,16,7,3,11,16,0,0,0,0,0,0,0,0],"split_type":[0,0,0,0,0,0,0,0,0,0,0,0,0,0,0],"sum_hessian":[1.1407288E3,1.0975463E3,4.3182556E1,3.7356583E2,7.239804E2,1.7167503E1,2.6015053E1,5.6277042E1,3.172888E2,1.2588579E1,7.1139185E2,4.3108015E0,1.2856702E1,4.2458744E0,2.1769178E1],"tree_param":{"num_deleted":"0","num_feature":"18","num_nodes":"15","size_leaf_vector":"1"}},{"base_weights":[3.5291674E-4,2.4895024E-1,-5.0772E-2,9.720356E-1,1.5593451E-1,-2.1879505E-1,4.3073755E-2,-1.91492E-2,6.694716E-2,4.9346026E-2,3.8373533E-3,-5.8074962E-2,-9.439331E-3,9.114903E-3,-7.62861E-3],"categories":[],"categories_nodes":[],"categories_segments":[],"categories_sizes":[],"default_left":[0,0,0,0,0,0,0,0,0,0,0,0,0,0,0],"id":27,"left_children":[1,3,5,7,9,11,13,-1,-1,-1,-1,-1,-1,-1,-1],"loss_changes":[1.4511258E1,1.2947331E1,1.4942167E1,1.1453598E1,1.1357572E1,9.386137E0,1.660168E1,0E0,0E0,0E0,0E0,0E0,0E0,0E0,0E0],"parents":[2147483647,0,0,1,1,2,2,3,3,4,4,5,5,6,6],"right_children":[2,4,6,8,10,12,14,-1,-1,-1,-1,-1,-1,-1,-1],"split_conditions":[-4.727981E-1,-1.0420518E0,-4.669891E-1,-1.141378E0,-1.6994541E0,-1.2595738E0,1.721963E-1,-1.91492E-2,6.694716E-2,4.9346026E-2,3.8373533E-3,-5.8074962E-2,-9.439331E-3,9.114903E-3,-7.62861E-3],"split_indices":[12,17,8,15,16,17,3,0,0,0,0,0,0,0,0],"split_type":[0,0,0,0,0,0,0,0,0,0,0,0,0,0,0],"sum_hessian":[1.1397686E3,1.9375522E2,9.4601337E2,2.1006296E1,1.7274893E2,3.3854507E2,6.0746826E2,4.4666777E0,1.653962E1,1.4032287E1,1.5871664E2,9.280965E0,3.292641E2,3.549496E2,2.525187E2],"tree_param":{"num_deleted":"0","num_feature":"18","num_nodes":"15","size_leaf_vector":"1"}},{"base_weights":[3.7249483E-4,1.0813043E-2,-1.1887857E0,-7.7637797E-3,8.435622E-1,-7.295629E-2,5.5914256E-3,-1.9540321E-2,1.5522898E-3,5.4872163E-2,-2.4929676E-2],"categories":[],"categories_nodes":[],"categories_segments":[],"categories_sizes":[],"default_left":[0,0,0,0,0,0,0,0,0,0,0],"id":28,"left_children":[1,3,5,7,9,-1,-1,-1,-1,-1,-1],"loss_changes":[1.41642275E1,1.7501215E1,3.6543808E0,1.64715E1,8.958981E0,0E0,0E0,0E0,0E0,0E0,0E0],"parents":[2147483647,0,0,1,1,2,2,3,3,4,4],"right_children":[2,4,6,8,10,-1,-1,-1,-1,-1,-1],"split_conditions":[2.2507014E0,2.1428056E0,3.875023E-1,-9.694265E-1,1.999292E0,-7.295629E-2,5.5914256E-3,-1.9540321E-2,1.5522898E-3,5.4872163E-2,-2.4929676E-2],"split_indices":[0,10,9,6,12,0,0,0,0,0,0],"split_type":[0,0,0,0,0,0,0,0,0,0,0],"sum_hessian":[1.1388182E3,1.129889E3,8.929271E0,1.1062028E3,2.36863E1,7.2917633E0,1.6375078E0,1.0093408E2,1.0052686E3,2.0071854E1,3.6144462E0],"tree_param":{"num_deleted":"0","num_feature":"18","num_nodes":"11","size_leaf_vector":"1"}},{"base_weights":[3.0026556E-4,-9.922566E-1,1.2681941E-2,-1.3657738E-1,-1.2255291E0,3.495321E-2,-5.4310477E-1,3.2765895E-2,-4.8570883E-2,-6.757733E-2,-6.1937817E-3,-4.095719E-3,7.533587E-3,-4.951344E-2,-1.1501411E-2],"categories":[],"categories_nodes":[],"categories_segments":[],"categories_sizes":[],"default_left":[0,0,0,0,0,0,0,0,0,0,0,0,0,0,0],"id":29,"left_children":[1,3,5,7,9,11,13,-1,-1,-1,-1,-1,-1,-1,-1],"loss_changes":[1.4015456E1,2.6373234E0,1.3961216E1,3.370543E0,1.3479843E0,1.467084E1,5.8560076E0,0E0,0E0,0E0,0E0,0E0,0E0,0E0,0E0],"parents":[2147483647,0,0,1,1,2,2,3,3,4,4,5,5,6,6],"right_children":[2,4,6,8,10,12,14,-1,-1,-1,-1,-1,-1,-1,-1],"split_conditions":[-1.1614968E0,-6.92795E-1,1.8528568E0,-6.2935925E-1,8.003947E-1,-2.6399887E-1,2.1371213E-1,3.2765895E-2,-4.8570883E-2,-6.757733E-2,-6.1937817E-3,-4.095719E-3,7.533587E-3,-4.951344E-2,-1.1501411E-2],"split_indices":[9,7,3,16,2,6,16,0,0,0,0,0,0,0,0],"split_type":[0,0,0,0,0,0,0,0,0,0,0,0,0,0,0],"sum_hessian":[1.1384161E3,1.305117E1,1.125365E3,3.135427E0,9.915743E0,1.0829082E3,4.245677E1,1.7194577E0,1.4159693E0,8.694365E0,1.221379E0,5.3892444E2,5.4398376E2,1.659347E1,2.58633E1],"tree_param":{"num_deleted":"0","num_feature":"18","num_nodes":"15","size_leaf_vector":"1"}},{"base_weights":[1.5006831E-4,4.188478E-1,-2.7408186E-2,1.2109704E0,2.9692358E-1,-1.7159969E-1,5.2614022E-2,1.7580938E-2,6.922393E-2,-1.6666947E-2,2.781934E-2,4.5729812E-2,-1.0056494E-2,3.961588E-3,-3.7283625E-2],"categories":[],"categories_nodes":[],"categories_segments":[],"categories_sizes":[],"default_left":[0,0,0,0,0,0,0,0,0,0,0,0,0,0,0],"id":30,"left_children":[1,3,5,7,9,11,13,-1,-1,-1,-1,-1,-1,-1,-1],"loss_changes":[1.3150224E1,6.437646E0,1.2347166E1,8.6453915E-1,1.037612E1,1.2432626E1,1.4687246E1,0E0,0E0,0E0,0E0,0E0,0E0,0E0,0E0],"parents":[2147483647,0,0,1,1,2,2,3,3,4,4,5,5,6,6],"right_children":[2,4,6,8,10,12,14,-1,-1,-1,-1,-1,-1,-1,-1],"split_conditions":[-1.1662242E0,-1.6994541E0,-4.669891E-1,-1.6037271E0,-2.549378E-1,-1.8100536E0,1.897805E0,1.7580938E-2,6.922393E-2,-1.6666947E-2,2.781934E-2,4.5729812E-2,-1.0056494E-2,3.961588E-3,-3.7283625E-2],"split_indices":[12,16,8,10,16,3,3,0,0,0,0,0,0,0,0],"split_type":[0,0,0,0,0,0,0,0,0,0,0,0,0,0,0],"sum_hessian":[1.1376796E3,6.937985E1,1.0682997E3,8.0630865E0,6.131676E1,3.8086935E2,6.874304E2,1.8629228E0,6.200164E0,1.7798256E1,4.3518505E1,9.2872925E0,3.7158206E2,6.661203E2,2.1310091E1],"tree_param":{"num_deleted":"0","num_feature":"18","num_nodes":"15","size_leaf_vector":"1"}},{"base_weights":[2.3554782E-4,1.0099579E-2,-1.1417413E0,-7.5672204E-3,8.048017E-1,-7.0644975E-2,6.947767E-3,-1.8428009E-2,1.4472164E-3,5.22237E-2,-2.349515E-2],"categories":[],"categories_nodes":[],"categories_segments":[],"categories_sizes":[],"default_left":[0,0,0,0,0,0,0,0,0,0,0],"id":31,"left_children":[1,3,5,7,9,-1,-1,-1,-1,-1,-1],"loss_changes":[1.2829665E1,1.5859457E1,3.5834837E0,1.4582986E1,7.9958925E0,0E0,0E0,0E0,0E0,0E0,0E0],"parents":[2147483647,0,0,1,1,2,2,3,3,4,4],"right_children":[2,4,6,8,10,-1,-1,-1,-1,-1,-1],"split_conditions":[2.2507014E0,2.1428056E0,3.875023E-1,-9.694265E-1,1.999292E0,-7.0644975E-2,6.947767E-3,-1.8428009E-2,1.4472164E-3,5.22237E-2,-2.349515E-2],"split_indices":[0,10,9,6,12,0,0,0,0,0,0],"split_type":[0,0,0,0,0,0,0,0,0,0,0],"sum_hessian":[1.1369235E3,1.1281699E3,8.753614E0,1.1046042E3,2.3565668E1,7.1388907E0,1.6147242E0,1.0062468E2,1.00397955E3,1.9988087E1,3.5775812E0],"tree_param":{"num_deleted":"0","num_feature":"18","num_nodes":"11","size_leaf_vector":"1"}},{"base_weights":[1.7343648E-4,2.2925165E-1,-4.8710722E-2,3.7930134E-1,-1.9937591E-1,8.599029E-2,-1.7163931E-1,2.8835975E-3,3.5009827E-2,-6.898743E-2,1.0840329E-2,-2.0341191E-2,7.424948E-3,-2.0132719E-2,-5.118718E-4],"categories":[],"categories_nodes":[],"categories_segments":[],"categories_sizes":[],"default_left":[0,0,0,0,0,0,0,0,0,0,0,0,0,0,0],"id":32,"left_children":[1,3,5,7,9,11,13,-1,-1,-1,-1,-1,-1,-1,-1],"loss_changes":[1.274897E1,1.2952785E1,1.5551002E1,1.5301384E1,2.6125034E1,1.387216E1,1.8299694E1,0E0,0E0,0E0,0E0,0E0,0E0,0E0,0E0],"parents":[2147483647,0,0,1,1,2,2,3,3,4,4,5,5,6,6],"right_children":[2,4,6,8,10,12,14,-1,-1,-1,-1,-1,-1,-1,-1],"split_conditions":[-5.163787E-1,6.2669545E-1,5.1644776E-2,3.1582642E-1,5.176469E-1,-2.6438332E-1,1.4045198E-1,2.8835975E-3,3.5009827E-2,-6.898743E-2,1.0840329E-2,-2.0341191E-2,7.424948E-3,-2.0132719E-2,-5.118718E-4],"split_indices":[11,7,12,16,17,11,12,0,0,0,0,0,0,0,0],"split_type":[0,0,0,0,0,0,0,0,0,0,0,0,0,0,0],"sum_hessian":[1.1364769E3,1.9921886E2,9.3725806E2,1.4764711E2,5.157175E1,4.473583E2,4.8989972E2,7.4328384E1,7.3318726E1,1.2839952E1,3.8731796E1,4.9735867E1,3.9762247E2,2.0088196E2,2.8901776E2],"tree_param":{"num_deleted":"0","num_feature":"18","num_nodes":"15","size_leaf_vector":"1"}},{"base_weights":[1.2264588E-4,-9.389858E-1,1.1811757E-2,-1.2083307E-1,-1.1616737E0,1.8477058E-1,-5.0760116E-2,3.198826E-2,-4.6792883E-2,-6.412459E-2,-5.597034E-3,-2.110589E-3,1.6743196E-2,6.3347965E-2,-3.4556754E-3],"categories":[],"categories_nodes":[],"categories_segments":[],"categories_sizes":[],"default_left":[0,0,0,0,0,0,0,0,0,0,0,0,0,0,0],"id":33,"left_children":[1,3,5,7,9,11,13,-1,-1,-1,-1,-1,-1,-1,-1],"loss_changes":[1.2491114E1,2.4083862E0,1.2172624E1,3.145993E0,1.2363424E0,1.0193626E1,2.00666E1,0E0,0E0,0E0,0E0,0E0,0E0,0E0,0E0],"parents":[2147483647,0,0,1,1,2,2,3,3,4,4,5,5,6,6],"right_children":[2,4,6,8,10,12,14,-1,-1,-1,-1,-1,-1,-1,-1],"split_conditions":[-1.1614968E0,-6.92795E-1,-7.444157E-1,-6.2935925E-1,8.003947E-1,-9.7174674E-1,-1.8850254E0,3.198826E-2,-4.6792883E-2,-6.412459E-2,-5.597034E-3,-2.110589E-3,1.6743196E-2,6.3347965E-2,-3.4556754E-3],"split_indices":[9,7,13,16,2,4,3,0,0,0,0,0,0,0,0],"split_type":[0,0,0,0,0,0,0,0,0,0,0,0,0,0,0],"sum_hessian":[1.135889E3,1.2989343E1,1.1228997E3,3.109111E0,9.880232E0,2.9779446E2,8.2510516E2,1.7194859E0,1.3896251E0,8.6616E0,1.2186316E0,1.188219E2,1.7897256E2,1.0399785E1,8.147054E2],"tree_param":{"num_deleted":"0","num_feature":"18","num_nodes":"15","size_leaf_vector":"1"}},{"base_weights":[1.13310074E-4,9.5112715E-3,-1.1029989E0,-7.30487E-3,7.678439E-1,-6.854472E-2,6.8527022E-3,-1.7686298E-2,1.3824248E-3,5.0190974E-2,-2.6445344E-2],"categories":[],"categories_nodes":[],"categories_segments":[],"categories_sizes":[],"default_left":[0,0,0,0,0,0,0,0,0,0,0],"id":34,"left_children":[1,3,5,7,9,-1,-1,-1,-1,-1,-1],"loss_changes":[1.1790093E1,1.4385682E1,3.3794203E0,1.3379825E1,8.019635E0,0E0,0E0,0E0,0E0,0E0,0E0],"parents":[2147483647,0,0,1,1,2,2,3,3,4,4],"right_children":[2,4,6,8,10,-1,-1,-1,-1,-1,-1],"split_conditions":[2.2507014E0,2.1428056E0,3.875023E-1,-9.694265E-1,7.083012E-1,-6.854472E-2,6.8527022E-3,-1.7686298E-2,1.3824248E-3,5.0190974E-2,-2.6445344E-2],"split_indices":[0,10,9,6,16,0,0,0,0,0,0],"split_type":[0,0,0,0,0,0,0,0,0,0,0],"sum_hessian":[1.1352589E3,1.1266517E3,8.607129E0,1.103179E3,2.3472794E1,6.991256E0,1.6158731E0,1.0027165E2,1.00290735E3,2.0050087E1,3.4227068E0],"tree_param":{"num_deleted":"0","num_feature":"18","num_nodes":"11","size_leaf_vector":"1"}},{"base_weights":[5.4794054E-5,-9.0301305E-1,1.1255397E-2,-1.1568331E-1,-1.1165962E0,3.133464E-2,-4.9640706E-1,3.0860255E-2,-4.5469765E-2,-6.1586786E-2,-5.742502E-3,-3.9641904E-3,7.0402995E-3,-4.681798E-2,-9.757544E-3],"categories":[],"categories_nodes":[],"categories_segments":[],"categories_sizes":[],"default_left":[0,0,0,0,0,0,0,0,0,0,0,0,0,0,0],"id":35,"left_children":[1,3,5,7,9,11,13,-1,-1,-1,-1,-1,-1,-1,-1],"loss_changes":[1.1499058E1,2.2128553E0,1.1461918E1,2.9389982E0,1.1088076E0,1.310313E1,5.4876976E0,0E0,0E0,0E0,0E0,0E0,0E0,0E0,0E0],"parents":[2147483647,0,0,1,1,2,2,3,3,4,4,5,5,6,6],"right_children":[2,4,6,8,10,12,14,-1,-1,-1,-1,-1,-1,-1,-1],"split_conditions":[-1.1614968E0,-6.92795E-1,1.8528568E0,-6.2935925E-1,8.003947E-1,-2.6399887E-1,2.1371213E-1,3.0860255E-2,-4.5469765E-2,-6.1586786E-2,-5.742502E-3,-3.9641904E-3,7.0402995E-3,-4.681798E-2,-9.757544E-3],"split_indices":[9,7,3,16,2,6,16,0,0,0,0,0,0,0,0],"split_type":[0,0,0,0,0,0,0,0,0,0,0,0,0,0,0],"sum_hessian":[1.134838E3,1.292734E1,1.1219106E3,3.087511E0,9.839829E0,1.0801274E3,4.178329E1,1.7208835E0,1.3666276E0,8.619523E0,1.2203058E0,5.373861E2,5.427413E2,1.6125515E1,2.5657776E1],"tree_param":{"num_deleted":"0","num_feature":"18","num_nodes":"15","size_leaf_vector":"1"}},{"base_weights":[-7.409876E-5,5.6720927E-2,-1.7415677E-1,1.5207323E-2,5.994223E-1,-5.414414E-1,4.8790956E-3,-2.1596313E-2,3.459521E-3,-2.1041071E-2,4.3986823E-2,4.4664886E-2,-3.1400245E-2,5.769558E-3,-4.496705E-2],"categories":[],"categories_nodes":[],"categories_segments":[],"categories_sizes":[],"default_left":[0,0,0,0,0,0,0,0,0,0,0,0,0,0,0],"id":36,"left_children":[1,3,5,7,9,11,13,-1,-1,-1,-1,-1,-1,-1,-1],"loss_changes":[1.1232301E1,1.9289595E1,1.8379608E1,1.9261683E1,1.7770565E1,1.1936575E1,1.897739E1,0E0,0E0,0E0,0E0,0E0,0E0,0E0,0E0],"parents":[2147483647,0,0,1,1,2,2,3,3,4,4,5,5,6,6],"right_children":[2,4,6,8,10,12,14,-1,-1,-1,-1,-1,-1,-1,-1],"split_conditions":[4.7737852E-1,4.7832182E-1,-2.1023928E-1,-9.694265E-1,-1.4465377E0,-1.6748357E0,1.7680756E0,-2.1596313E-2,3.459521E-3,-2.1041071E-2,4.3986823E-2,4.4664886E-2,-3.1400245E-2,5.769558E-3,-4.496705E-2],"split_indices":[4,12,6,6,11,15,7,0,0,0,0,0,0,0,0],"split_type":[0,0,0,0,0,0,0,0,0,0,0,0,0,0,0],"sum_hessian":[1.1340652E3,8.5559784E2,2.7846735E2,7.9575507E2,5.984277E1,9.059378E1,1.8787357E2,8.4968994E1,7.107861E2,1.2790104E1,4.7052666E1,4.6245756E0,8.596921E1,1.681901E2,1.9683483E1],"tree_param":{"num_deleted":"0","num_feature":"18","num_nodes":"15","size_leaf_vector":"1"}},{"base_weights":[-1.00539546E-4,3.799932E-1,-2.4955075E-2,-6.537747E-1,4.637166E-1,-1.6103505E-1,5.0533973E-2,-9.62411E-2,5.2255433E-2,5.8936786E-2,1.514093E-2,4.286509E-2,-9.414827E-3,5.0429567E-3,-1.6623152E-2],"categories":[],"categories_nodes":[],"categories_segments":[],"categories_sizes":[],"default_left":[0,0,0,0,0,0,0,0,0,0,0,0,0,0,0],"id":37,"left_children":[1,3,5,7,9,11,13,-1,-1,-1,-1,-1,-1,-1,-1],"loss_changes":[1.0724419E1,6.3336697E0,1.095388E1,1.4179977E1,7.125698E0,1.07226095E1,1.3257802E1,0E0,0E0,0E0,0E0,0E0,0E0,0E0,0E0],"parents":[2147483647,0,0,1,1,2,2,3,3,4,4,5,5,6,6],"right_children":[2,4,6,8,10,12,14,-1,-1,-1,-1,-1,-1,-1,-1],"split_conditions":[-1.1662242E0,-2.6581078E0,-4.669891E-1,2.0336726E0,-1.4052217E0,-1.8100536E0,1.3227448E0,-9.62411E-2,5.2255433E-2,5.8936786E-2,1.514093E-2,4.286509E-2,-9.414827E-3,5.0429567E-3,-1.6623152E-2],"split_indices":[12,5,8,17,3,3,14,0,0,0,0,0,0,0,0],"split_type":[0,0,0,0,0,0,0,0,0,0,0,0,0,0,0],"sum_hessian":[1.1332094E3,6.867606E1,1.0645332E3,4.6351533E0,6.404091E1,3.7942728E2,6.8510596E2,2.575362E0,2.0597913E0,1.0601708E1,5.3439205E1,9.09882E0,3.7032846E2,6.061903E2,7.89157E1],"tree_param":{"num_deleted":"0","num_feature":"18","num_nodes":"15","size_leaf_vector":"1"}},{"base_weights":[-3.9831728E-5,8.73101E-3,-1.054496E0,-7.47796E-3,7.4112076E-1,-6.6263594E-2,8.241697E-3,1.034139E-2,-2.7363102E-3,4.8395347E-2,-2.5139809E-2],"categories":[],"categories_nodes":[],"categories_segments":[],"categories_sizes":[],"default_left":[0,0,0,0,0,0,0,0,0,0,0],"id":38,"left_children":[1,3,5,7,9,-1,-1,-1,-1,-1,-1],"loss_changes":[1.0493357E1,1.33637E1,3.3086805E0,1.1168435E1,7.362747E0,0E0,0E0,0E0,0E0,0E0,0E0],"parents":[2147483647,0,0,1,1,2,2,3,3,4,4],"right_children":[2,4,6,8,10,-1,-1,-1,-1,-1,-1],"split_conditions":[2.2507014E0,2.1428056E0,3.875023E-1,-5.163787E-1,7.083012E-1,-6.6263594E-2,8.241697E-3,1.034139E-2,-2.7363102E-3,4.8395347E-2,-2.5139809E-2],"split_indices":[0,10,9,11,16,0,0,0,0,0,0],"split_type":[0,0,0,0,0,0,0,0,0,0,0],"sum_hessian":[1.1326094E3,1.1242498E3,8.359655E0,1.1008754E3,2.3374363E1,6.7694774E0,1.5901783E0,1.9825676E2,9.026186E2,1.9957647E1,3.4167154E0],"tree_param":{"num_deleted":"0","num_feature":"18","num_nodes":"11","size_leaf_vector":"1"}},{"base_weights":[-6.3988846E-5,-8.6306864E-1,1.0590123E-2,-9.335563E-2,-1.0633125E0,1.6927125E-1,-4.6819918E-2,4.691408E-2,-5.4128736E-2,-6.200111E-2,-8.03299E-3,-2.8729124E-3,1.5957853E-2,6.0366433E-2,-3.1931126E-3],"categories":[],"categories_nodes":[],"categories_segments":[],"categories_sizes":[],"default_left":[0,0,0,0,0,0,0,0,0,0,0,0,0,0,0],"id":39,"left_children":[1,3,5,7,9,11,13,-1,-1,-1,-1,-1,-1,-1,-1],"loss_changes":[1.0427489E1,2.0323687E0,1.0213468E1,5.0482383E0,1.5360088E0,1.0140154E1,1.7676697E1,0E0,0E0,0E0,0E0,0E0,0E0,0E0,0E0],"parents":[2147483647,0,0,1,1,2,2,3,3,4,4,5,5,6,6],"right_children":[2,4,6,8,10,12,14,-1,-1,-1,-1,-1,-1,-1,-1],"split_conditions":[-1.1614968E0,-1.1800985E0,-7.444157E-1,-1.4288202E-1,7.4038076E-1,-9.7174674E-1,-1.8850254E0,4.691408E-2,-5.4128736E-2,-6.200111E-2,-8.03299E-3,-2.8729124E-3,1.5957853E-2,6.0366433E-2,-3.1931126E-3],"split_indices":[9,16,13,7,2,4,3,0,0,0,0,0,0,0,0],"split_type":[0,0,0,0,0,0,0,0,0,0,0,0,0,0,0],"sum_hessian":[1.1321008E3,1.2830084E1,1.1192708E3,2.9514148E0,9.878669E0,2.968447E2,8.22426E2,1.4699379E0,1.4814769E0,7.9488015E0,1.9298671E0,1.18384026E2,1.7846068E2,1.0089573E1,8.123365E2],"tree_param":{"num_deleted":"0","num_feature":"18","num_nodes":"15","size_leaf_vector":"1"}},{"base_weights":[-6.2160674E-5,8.310107E-3,-1.0227262E0,-2.661182E-2,3.2941565E-1,-6.458495E-2,8.080269E-3,2.9244802E-3,-1.06888E-2,4.247353E-2,2.478957E-3],"categories":[],"categories_nodes":[],"categories_segments":[],"categories_sizes":[],"default_left":[0,0,0,0,0,0,0,0,0,0,0],"id":40,"left_children":[1,3,5,7,9,-1,-1,-1,-1,-1,-1],"loss_changes":[9.704547E0,1.2615632E1,3.1406517E0,1.6177704E1,1.6017073E1,0E0,0E0,0E0,0E0,0E0,0E0],"parents":[2147483647,0,0,1,1,2,2,3,3,4,4],"right_children":[2,4,6,8,10,-1,-1,-1,-1,-1,-1],"split_conditions":[2.2507014E0,7.598432E-1,3.875023E-1,1.9897237E-1,-5.2084416E-1,-6.458495E-2,8.080269E-3,2.9244802E-3,-1.06888E-2,4.247353E-2,2.478957E-3],"split_indices":[0,11,9,3,16,0,0,0,0,0,0],"split_type":[0,0,0,0,0,0,0,0,0,0,0],"sum_hessian":[1.1314491E3,1.1232454E3,8.203825E0,1.0138959E3,1.0934942E2,6.61161E0,1.5922152E0,6.9745746E2,3.1643845E2,3.7543003E1,7.180641E1],"tree_param":{"num_deleted":"0","num_feature":"18","num_nodes":"11","size_leaf_vector":"1"}},{"base_weights":[-8.100159E-5,-8.314332E-1,1.0130569E-2,-8.916204E-2,-1.0333992E0,2.82395E-2,-4.536499E-1,2.9874986E-2,-4.2857863E-2,-6.2682E-2,-1.9147366E-2,-3.0928524E-3,7.387948E-3,-3.8574863E-2,-1.8642497E-3],"categories":[],"categories_nodes":[],"categories_segments":[],"categories_sizes":[],"default_left":[0,0,0,0,0,0,0,0,0,0,0,0,0,0,0],"id":41,"left_children":[1,3,5,7,9,11,13,-1,-1,-1,-1,-1,-1,-1,-1],"loss_changes":[9.616509E0,1.9684258E0,9.411043E0,2.6397018E0,1.0542831E0,1.1616468E1,5.5441694E0,0E0,0E0,0E0,0E0,0E0,0E0,0E0,0E0],"parents":[2147483647,0,0,1,1,2,2,3,3,4,4,5,5,6,6],"right_children":[2,4,6,8,10,12,14,-1,-1,-1,-1,-1,-1,-1,-1],"split_conditions":[-1.1614968E0,-6.92795E-1,1.8528568E0,-6.2935925E-1,5.479046E-1,-6.855786E-2,2.0558996E0,2.9874986E-2,-4.2857863E-2,-6.2682E-2,-1.9147366E-2,-3.0928524E-3,7.387948E-3,-3.8574863E-2,-1.8642497E-3],"split_indices":[9,7,3,16,15,17,5,0,0,0,0,0,0,0,0],"split_type":[0,0,0,0,0,0,0,0,0,0,0,0,0,0,0],"sum_hessian":[1.1307731E3,1.2745021E1,1.1180281E3,3.0343957E0,9.710625E0,1.0769175E3,4.1110577E1,1.7192347E0,1.315161E0,6.5615644E0,3.1490602E0,6.14315E2,4.6260245E2,2.2829731E1,1.8280844E1],"tree_param":{"num_deleted":"0","num_feature":"18","num_nodes":"15","size_leaf_vector":"1"}},{"base_weights":[-1.9888455E-4,1.11370526E-1,-7.1527325E-2,7.509432E-1,6.677428E-2,-2.5188658E-1,9.1780595E-2,5.3999484E-2,7.899026E-3,-4.300333E-3,1.3628773E-2,-9.6395565E-3,-5.61859E-2,7.4364976E-3,-4.1865014E-2],"categories":[],"categories_nodes":[],"categories_segments":[],"categories_sizes":[],"default_left":[0,0,0,0,0,0,0,0,0,0,0,0,0,0,0],"id":42,"left_children":[1,3,5,7,9,11,13,-1,-1,-1,-1,-1,-1,-1,-1],"loss_changes":[9.009425E0,1.2542944E1,2.0364025E1,5.425518E0,1.3035351E1,1.6704659E1,1.9339722E1,0E0,0E0,0E0,0E0,0E0,0E0,0E0,0E0],"parents":[2147483647,0,0,1,1,2,2,3,3,4,4,5,5,6,6],"right_children":[2,4,6,8,10,12,14,-1,-1,-1,-1,-1,-1,-1,-1],"split_conditions":[-5.1792534E-3,-1.6493459E0,1.5564112E-1,-1.7243841E-1,-2.236309E-1,1.2591815E0,1.8829695E0,5.3999484E-2,7.899026E-3,-4.300333E-3,1.3628773E-2,-9.6395565E-3,-5.61859E-2,7.4364976E-3,-4.1865014E-2],"split_indices":[12,16,12,7,17,15,17,0,0,0,0,0,0,0,0],"split_type":[0,0,0,0,0,0,0,0,0,0,0,0,0,0,0],"sum_hessian":[1.1301105E3,4.405135E2,6.895969E2,2.7681618E1,4.1283188E2,3.2743326E2,3.6216367E2,1.7274384E1,1.0407234E1,2.3727084E2,1.7556104E2,3.0779135E2,1.9641922E1,3.4203787E2,2.0125788E1],"tree_param":{"num_deleted":"0","num_feature":"18","num_nodes":"15","size_leaf_vector":"1"}},{"base_weights":[-2.1639354E-4,7.787103E-3,-9.942013E-1,-5.918681E-3,7.4355865E-1,-6.314081E-2,8.239257E-3,-1.5674042E-2,1.2386697E-3,6.9894776E-2,3.7520973E-3],"categories":[],"categories_nodes":[],"categories_segments":[],"categories_sizes":[],"default_left":[0,0,0,0,0,0,0,0,0,0,0],"id":43,"left_children":[1,3,5,7,9,-1,-1,-1,-1,-1,-1],"loss_changes":[9.000705E0,1.1322965E1,3.0215626E0,1.0418442E1,8.877048E0,0E0,0E0,0E0,0E0,0E0,0E0],"parents":[2147483647,0,0,1,1,2,2,3,3,4,4],"right_children":[2,4,6,8,10,-1,-1,-1,-1,-1,-1],"split_conditions":[2.2507014E0,2.7451613E0,3.875023E-1,-9.694265E-1,-8.6276966E-1,-6.314081E-2,8.239257E-3,-1.5674042E-2,1.2386697E-3,6.9894776E-2,3.7520973E-3],"split_indices":[0,11,9,6,17,0,0,0,0,0,0],"split_type":[0,0,0,0,0,0,0,0,0,0,0],"sum_hessian":[1.129429E3,1.1213917E3,8.037202E0,1.1018585E3,1.9533213E1,6.452206E0,1.5849955E0,9.914299E1,1.0027155E3,9.319928E0,1.02132845E1],"tree_param":{"num_deleted":"0","num_feature":"18","num_nodes":"11","size_leaf_vector":"1"}},{"base_weights":[-2.044209E-4,-8.005746E-1,9.559032E-3,-8.023914E-2,-9.961117E-1,1.3605098E-1,-5.4418746E-2,2.9060444E-2,-4.1551724E-2,-6.0454752E-2,-1.8500293E-2,1.1509093E-2,-9.669112E-3,-6.56097E-3,1.1478272E-2],"categories":[],"categories_nodes":[],"categories_segments":[],"categories_sizes":[],"default_left":[0,0,0,0,0,0,0,0,0,0,0,0,0,0,0],"id":44,"left_children":[1,3,5,7,9,11,13,-1,-1,-1,-1,-1,-1,-1,-1],"loss_changes":[8.837183E0,1.8397598E0,9.049183E0,2.4681573E0,9.7036266E-1,1.1691002E1,1.622866E1,0E0,0E0,0E0,0E0,0E0,0E0,0E0,0E0],"parents":[2147483647,0,0,1,1,2,2,3,3,4,4,5,5,6,6],"right_children":[2,4,6,8,10,12,14,-1,-1,-1,-1,-1,-1,-1,-1],"split_conditions":[-1.1614968E0,-6.92795E-1,-2.9896992E-1,-6.2935925E-1,5.479046E-1,6.392001E-1,5.41782E-1,2.9060444E-2,-4.1551724E-2,-6.0454752E-2,-1.8500293E-2,1.1509093E-2,-9.669112E-3,-6.56097E-3,1.1478272E-2],"split_indices":[9,7,2,16,15,7,12,0,0,0,0,0,0,0,0],"split_type":[0,0,0,0,0,0,0,0,0,0,0,0,0,0,0],"sum_hessian":[1.1289086E3,1.2629069E1,1.1162795E3,2.9973907E0,9.631679E0,3.7457397E2,7.417055E2,1.7135953E0,1.2837955E0,6.4921126E0,3.1395664E0,2.9156476E2,8.300922E1,5.842413E2,1.5746423E2],"tree_param":{"num_deleted":"0","num_feature":"18","num_nodes":"15","size_leaf_vector":"1"}},{"base_weights":[-2.7049845E-4,6.0376298E-2,-1.2934817E-1,-3.306608E-1,1.05713606E-1,1.5554331E-1,-2.5895607E-1,1.3176612E-2,-3.077065E-2,2.7901528E-2,1.1575768E-3,-1.6499337E-2,2.4093559E-2,-3.9998304E-2,2.0253581E-4],"categories":[],"categories_nodes":[],"categories_segments":[],"categories_sizes":[],"default_left":[0,0,0,0,0,0,0,0,0,0,0,0,0,0,0],"id":45,"left_children":[1,3,5,7,9,11,13,-1,-1,-1,-1,-1,-1,-1,-1],"loss_changes":[8.849141E0,1.3669649E1,1.3382765E1,1.3722741E1,2.5752132E1,1.8160088E1,3.5395596E1,0E0,0E0,0E0,0E0,0E0,0E0,0E0,0E0],"parents":[2147483647,0,0,1,1,2,2,3,3,4,4,5,5,6,6],"right_children":[2,4,6,8,10,12,14,-1,-1,-1,-1,-1,-1,-1,-1],"split_conditions":[3.1930447E-1,-9.7548693E-1,1.5361509E-2,-7.238274E-1,-7.810489E-1,-4.1519618E-1,2.3808315E-1,1.3176612E-2,-3.077065E-2,2.7901528E-2,1.1575768E-3,-1.6499337E-2,2.4093559E-2,-3.9998304E-2,2.0253581E-4],"split_indices":[4,6,11,13,7,8,10,0,0,0,0,0,0,0,0],"split_type":[0,0,0,0,0,0,0,0,0,0,0,0,0,0,0],"sum_hessian":[1.1284285E3,7.680802E2,3.6034818E2,7.914619E1,6.88934E2,1.1261304E2,2.4773514E2,2.5665163E1,5.348102E1,1.05452545E2,5.834815E2,4.526052E1,6.7352516E1,8.0370285E1,1.6736485E2],"tree_param":{"num_deleted":"0","num_feature":"18","num_nodes":"15","size_leaf_vector":"1"}},{"base_weights":[-2.900636E-4,-2.5333473E-2,3.08665E-1,2.8612937E-3,-5.375361E-1,8.965841E-1,2.5914406E-2,-5.888648E-3,6.253563E-3,-8.07661E-3,-6.350093E-2,6.2926225E-2,1.9336535E-2,-5.4624476E-2,1.2141163E-2],"categories":[],"categories_nodes":[],"categories_segments":[],"categories_sizes":[],"default_left":[0,0,0,0,0,0,0,0,0,0,0,0,0,0,0],"id":46,"left_children":[1,3,5,7,9,11,13,-1,-1,-1,-1,-1,-1,-1,-1],"loss_changes":[8.73789E0,1.5087552E1,1.4053054E1,1.4626609E1,1.480729E1,4.5823746E0,1.4386075E1,0E0,0E0,0E0,0E0,0E0,0E0,0E0,0E0],"parents":[2147483647,0,0,1,1,2,2,3,3,4,4,5,5,6,6],"right_children":[2,4,6,8,10,12,14,-1,-1,-1,-1,-1,-1,-1,-1],"split_conditions":[1.2487563E0,1.6235487E0,-2.6455742E-1,-2.6399887E-1,2.7094468E-1,1.6161605E0,-3.7224886E-1,-5.888648E-3,6.253563E-3,-8.07661E-3,-6.350093E-2,6.2926225E-2,1.9336535E-2,-5.4624476E-2,1.2141163E-2],"split_indices":[16,7,10,6,12,16,3,0,0,0,0,0,0,0,0],"split_type":[0,0,0,0,0,0,0,0,0,0,0,0,0,0,0],"sum_hessian":[1.1273114E3,1.043634E3,8.367732E1,9.901259E2,5.3508175E1,2.646926E1,5.7208065E1,4.982935E2,4.9183243E2,3.6164467E1,1.734371E1,1.4621312E1,1.1847946E1,8.637194E0,4.857087E1],"tree_param":{"num_deleted":"0","num_feature":"18","num_nodes":"15","size_leaf_vector":"1"}},{"base_weights":[-3.0128783E-4,2.6165476E-1,-2.8861403E-2,3.6493072E-1,-1.0364647E0,-5.4697968E-2,3.3675796E-1,4.5982245E-2,5.5365283E-3,-5.0293445E-3,-6.298034E-2,-8.413515E-3,2.6892193E-3,-2.761632E-2,2.6058614E-2],"categories":[],"categories_nodes":[],"categories_segments":[],"categories_sizes":[],"default_left":[0,0,0,0,0,0,0,0,0,0,0,0,0,0,0],"id":47,"left_children":[1,3,5,7,9,11,13,-1,-1,-1,-1,-1,-1,-1,-1],"loss_changes":[8.444562E0,1.5254457E1,9.632478E0,1.4496106E1,1.6354065E0,1.173137E1,1.1324442E1,0E0,0E0,0E0,0E0,0E0,0E0,0E0,0E0],"parents":[2147483647,0,0,1,1,2,2,3,3,4,4,5,5,6,6],"right_children":[2,4,6,8,10,12,14,-1,-1,-1,-1,-1,-1,-1,-1],"split_conditions":[-1.4099545E0,1.4362686E0,1.3330351E0,-4.8233697E-1,-1.3163661E0,-2.6399887E-1,-1.0561076E0,4.5982245E-2,5.5365283E-3,-5.0293445E-3,-6.298034E-2,-8.413515E-3,2.6892193E-3,-2.761632E-2,2.6058614E-2],"split_indices":[16,12,16,6,14,6,0,0,0,0,0,0,0,0,0],"split_type":[0,0,0,0,0,0,0,0,0,0,0,0,0,0,0],"sum_hessian":[1.126717E3,1.0996314E2,1.0167539E3,1.025253E2,7.4378424E0,9.5044116E2,6.631272E1,3.1395788E1,7.112952E1,1.7112947E0,5.7265477E0,4.6405823E2,4.8638293E2,1.1049015E1,5.5263706E1],"tree_param":{"num_deleted":"0","num_feature":"18","num_nodes":"15","size_leaf_vector":"1"}},{"base_weights":[-3.0820622E-4,5.8055665E-2,-1.2467633E-1,9.170751E-3,4.183087E-1,9.975033E-1,-1.5564999E-1,4.499545E-3,-1.2238027E-2,3.806376E-2,-1.3980239E-3,-2.5766952E-2,6.629245E-2,-1.5371486E-2,2.6577655E-3],"categories":[],"categories_nodes":[],"categories_segments":[],"categories_sizes":[],"default_left":[0,0,0,0,0,0,0,0,0,0,0,0,0,0,0],"id":48,"left_children":[1,3,5,7,9,11,13,-1,-1,-1,-1,-1,-1,-1,-1],"loss_changes":[8.190258E0,1.3520733E1,1.2681704E1,1.3920617E1,1.40619755E1,5.5587387E0,1.1158607E1,0E0,0E0,0E0,0E0,0E0,0E0,0E0,0E0],"parents":[2147483647,0,0,1,1,2,2,3,3,4,4,5,5,6,6],"right_children":[2,4,6,8,10,12,14,-1,-1,-1,-1,-1,-1,-1,-1],"split_conditions":[3.1930447E-1,2.047261E-1,-1.0679119E0,5.1644776E-2,-2.2992955E-1,6.315432E-1,3.790476E-1,4.499545E-3,-1.2238027E-2,3.806376E-2,-1.3980239E-3,-2.5766952E-2,6.629245E-2,-1.5371486E-2,2.6577655E-3],"split_indices":[4,12,11,12,7,2,10,0,0,0,0,0,0,0,0],"split_type":[0,0,0,0,0,0,0,0,0,0,0,0,0,0,0],"sum_hessian":[1.1263542E3,7.6696405E2,3.5939014E2,6.76228E2,9.073602E1,8.815043E0,3.505751E2,5.134538E2,1.6277423E2,5.090708E1,3.982894E1,1.470457E0,7.344587E0,2.027353E2,1.478398E2],"tree_param":{"num_deleted":"0","num_feature":"18","num_nodes":"15","size_leaf_vector":"1"}},{"base_weights":[-2.4371248E-4,-8.389994E-2,8.617541E-2,7.458305E-1,-1.0699497E-1,1.4982603E-1,-3.819297E-1,5.1728446E-2,-3.621179E-2,-9.344958E-3,5.8061928E-3,1.4187126E-2,-2.1724848E-3,-5.1496327E-2,-5.781447E-3],"categories":[],"categories_nodes":[],"categories_segments":[],"categories_sizes":[],"default_left":[0,0,0,0,0,0,0,0,0,0,0,0,0,0,0],"id":49,"left_children":[1,3,5,7,9,11,13,-1,-1,-1,-1,-1,-1,-1,-1],"loss_changes":[8.1533165E0,1.1060982E1,1.6585598E1,7.3896112E0,9.977058E0,1.2670323E1,1.138782E1,0E0,0E0,0E0,0E0,0E0,0E0,0E0,0E0],"parents":[2147483647,0,0,1,1,2,2,3,3,4,4,5,5,6,6],"right_children":[2,4,6,8,10,12,14,-1,-1,-1,-1,-1,-1,-1,-1],"split_conditions":[-1.7719391E-1,-1.8100536E0,1.3227448E0,-1.6229583E-1,7.257238E-1,2.1847654E-2,-1.3002649E-1,5.1728446E-2,-3.621179E-2,-9.344958E-3,5.8061928E-3,1.4187126E-2,-2.1724848E-3,-5.1496327E-2,-5.781447E-3],"split_indices":[8,3,14,10,15,11,2,0,0,0,0,0,0,0,0],"split_type":[0,0,0,0,0,0,0,0,0,0,0,0,0,0,0],"sum_hessian":[1.1257844E3,5.720513E2,5.5373315E2,1.4644037E1,5.574072E2,4.8805038E2,6.568275E1,1.2487574E1,2.1564639E0,4.1054398E2,1.4686328E2,2.8801978E2,2.0003062E2,1.8295727E1,4.7387024E1],"tree_param":{"num_deleted":"0","num_feature":"18","num_nodes":"15","size_leaf_vector":"1"}},{"base_weights":[-2.5336124E-4,7.258794E-3,-9.5634925E-1,-2.4702989E-2,3.01244E-1,-6.1381668E-2,8.921671E-3,2.5030074E-3,-9.477085E-3,1.9955803E-2,-4.3740194E-2],"categories":[],"categories_nodes":[],"categories_segments":[],"categories_sizes":[],"default_left":[0,0,0,0,0,0,0,0,0,0,0],"id":50,"left_children":[1,3,5,7,9,-1,-1,-1,-1,-1,-1],"loss_changes":[8.094911E0,1.0515357E1,2.9239264E0,1.2451286E1,1.2979863E1,0E0,0E0,0E0,0E0,0E0,0E0],"parents":[2147483647,0,0,1,1,2,2,3,3,4,4],"right_children":[2,4,6,8,10,-1,-1,-1,-1,-1,-1],"split_conditions":[2.2507014E0,7.598432E-1,3.875023E-1,1.9897237E-1,1.9296014E0,-6.1381668E-2,8.921671E-3,2.5030074E-3,-9.477085E-3,1.9955803E-2,-4.3740194E-2],"split_indices":[0,11,9,3,6,0,0,0,0,0,0],"split_type":[0,0,0,0,0,0,0,0,0,0,0],"sum_hessian":[1.1250911E3,1.1173047E3,7.786382E0,1.0085699E3,1.0873476E2,6.2180552E0,1.5683268E0,6.943441E2,3.1422574E2,1.00990814E2,7.7439427E0],"tree_param":{"num_deleted":"0","num_feature":"18","num_nodes":"11","size_leaf_vector":"1"}},{"base_weights":[-3.209893E-4,-7.625472E-1,8.8943215E-3,-3.823628E-1,-6.0407963E-2,1.6229564E-2,-9.316561E-1,4.4544794E-2,-3.80685E-2,1.3129556E-4,3.2165807E-2,-6.0104948E-2,8.636831E-3],"categories":[],"categories_nodes":[],"categories_segments":[],"categories_sizes":[],"default_left":[0,0,0,0,0,0,0,0,0,0,0,0,0],"id":51,"left_children":[1,3,5,7,-1,9,11,-1,-1,-1,-1,-1,-1],"loss_changes":[7.911939E0,1.817585E0,7.6936827E0,4.888155E0,0E0,9.427598E0,2.7851744E0,0E0,0E0,0E0,0E0,0E0,0E0],"parents":[2147483647,0,0,1,1,2,2,3,3,5,5,6,6],"right_children":[2,4,6,8,-1,10,12,-1,-1,-1,-1,-1,-1],"split_conditions":[-1.1614968E0,1.12034895E-1,2.2507014E0,-1.1800985E0,-6.0407963E-2,2.1428056E0,3.875023E-1,4.4544794E-2,-3.80685E-2,1.3129556E-4,3.2165807E-2,-6.0104948E-2,8.636831E-3],"split_indices":[9,7,0,16,0,10,9,0,0,0,0,0,0],"split_type":[0,0,0,0,0,0,0,0,0,0,0,0,0],"sum_hessian":[1.1244252E3,1.2455378E1,1.1119697E3,7.7237444E0,4.7316327E0,1.1043398E3,7.629872E0,1.4619112E0,6.261833E0,1.0818745E3,2.2465372E1,6.0579386E0,1.5719335E0],"tree_param":{"num_deleted":"0","num_feature":"18","num_nodes":"13","size_leaf_vector":"1"}},{"base_weights":[-3.7576226E-4,2.4646643E-1,-2.7229933E-2,3.445127E-1,-9.991596E-1,-1.2383194E-1,6.467229E-2,4.5164462E-2,6.2985197E-3,-5.497517E-3,-6.0579002E-2,-7.422175E-5,-2.3334058E-2,1.8332333E-3,4.5185562E-2],"categories":[],"categories_nodes":[],"categories_segments":[],"categories_sizes":[],"default_left":[0,0,0,0,0,0,0,0,0,0,0,0,0,0,0],"id":52,"left_children":[1,3,5,7,9,11,13,-1,-1,-1,-1,-1,-1,-1,-1],"loss_changes":[7.4645615E0,1.3838052E1,9.024349E0,1.248492E1,1.438057E0,2.0782974E1,1.2212729E1,0E0,0E0,0E0,0E0,0E0,0E0,0E0,0E0],"parents":[2147483647,0,0,1,1,2,2,3,3,4,4,5,5,6,6],"right_children":[2,4,6,8,10,12,14,-1,-1,-1,-1,-1,-1,-1,-1],"split_conditions":[-1.4099545E0,1.4362686E0,-2.6399887E-1,-5.5763024E-1,-1.3163661E0,-4.801448E-1,1.9008327E0,4.5164462E-2,6.2985197E-3,-5.497517E-3,-6.0579002E-2,-7.422175E-5,-2.3334058E-2,1.8332333E-3,4.5185562E-2],"split_indices":[16,12,6,7,14,7,12,0,0,0,0,0,0,0,0],"split_type":[0,0,0,0,0,0,0,0,0,0,0,0,0,0,0],"sum_hessian":[1.1240776E3,1.0948834E2,1.01458936E3,1.0216974E2,7.3186073E0,4.9447742E2,5.2011194E2,2.7843998E1,7.432574E1,1.7038329E0,5.6147747E0,3.6516922E2,1.2930818E2,5.0432108E2,1.5790841E1],"tree_param":{"num_deleted":"0","num_feature":"18","num_nodes":"15","size_leaf_vector":"1"}},{"base_weights":[-3.499719E-4,-2.0812875E-2,3.2187057E-1,3.849092E-3,-4.5891556E-1,-5.374098E-1,5.00701E-1,-5.4240925E-3,5.9308605E-3,2.399141E-2,-3.8390197E-2,1.0108355E-2,-6.69778E-2,5.9624672E-2,1.1390421E-2],"categories":[],"categories_nodes":[],"categories_segments":[],"categories_sizes":[],"default_left":[0,0,0,0,0,0,0,0,0,0,0,0,0,0,0],"id":53,"left_children":[1,3,5,7,9,11,13,-1,-1,-1,-1,-1,-1,-1,-1],"loss_changes":[7.4221354E0,1.143754E1,1.05981045E1,1.2943743E1,1.672686E1,7.4263296E0,1.0329755E1,0E0,0E0,0E0,0E0,0E0,0E0,0E0,0E0],"parents":[2147483647,0,0,1,1,2,2,3,3,4,4,5,5,6,6],"right_children":[2,4,6,8,10,12,14,-1,-1,-1,-1,-1,-1,-1,-1],"split_conditions":[1.3330351E0,1.6235487E0,-1.0561076E0,-2.6399887E-1,-8.380646E-1,-1.181365E-1,-1.9080928E-1,-5.4240925E-3,5.9308605E-3,2.399141E-2,-3.8390197E-2,1.0108355E-2,-6.69778E-2,5.9624672E-2,1.1390421E-2],"split_indices":[16,7,0,6,10,11,10,0,0,0,0,0,0,0,0],"split_type":[0,0,0,0,0,0,0,0,0,0,0,0,0,0,0],"sum_hessian":[1.1236471E3,1.0574294E3,6.621759E1,1.0020146E3,5.5414856E1,1.1061576E1,5.5156017E1,5.0641168E2,4.9560294E2,1.358258E1,4.1832275E1,6.144411E0,4.9171653E0,1.464941E1,4.0506603E1],"tree_param":{"num_deleted":"0","num_feature":"18","num_nodes":"15","size_leaf_vector":"1"}},{"base_weights":[-3.2905888E-4,-7.372207E-1,8.513007E-3,-3.6551762E-1,-1.1748867E0,1.2389689E-1,-4.991357E-2,4.277074E-2,-3.659567E-2,-6.4320534E-2,-1.8982492E-2,1.0602718E-2,-9.227063E-3,-6.04861E-3,1.0655607E-2],"categories":[],"categories_nodes":[],"categories_segments":[],"categories_sizes":[],"default_left":[0,0,0,0,0,0,0,0,0,0,0,0,0,0,0],"id":54,"left_children":[1,3,5,7,9,11,13,-1,-1,-1,-1,-1,-1,-1,-1],"loss_changes":[7.329878E0,1.7405E0,7.500452E0,4.5020757E0,1.484251E-2,1.0207914E1,1.3832077E1,0E0,0E0,0E0,0E0,0E0,0E0,0E0,0E0],"parents":[2147483647,0,0,1,1,2,2,3,3,4,4,5,5,6,6],"right_children":[2,4,6,8,10,12,14,-1,-1,-1,-1,-1,-1,-1,-1],"split_conditions":[-1.1614968E0,1.12034895E-1,-2.9896992E-1,-1.1800985E0,6.7327E-1,6.392001E-1,5.41782E-1,4.277074E-2,-3.659567E-2,-6.4320534E-2,-1.8982492E-2,1.0602718E-2,-9.227063E-3,-6.04861E-3,1.0655607E-2],"split_indices":[9,7,2,16,7,7,12,0,0,0,0,0,0,0,0],"split_type":[0,0,0,0,0,0,0,0,0,0,0,0,0,0,0],"sum_hessian":[1.1230027E3,1.2338568E1,1.1106641E3,7.6644335E0,4.6741343E0,3.7297427E2,7.376898E2,1.4610695E0,6.203364E0,3.5575752E0,1.1165589E0,2.9031052E2,8.266376E1,5.812108E2,1.5647896E2],"tree_param":{"num_deleted":"0","num_feature":"18","num_nodes":"15","size_leaf_vector":"1"}},{"base_weights":[-3.773389E-4,1.2910472E-2,-4.863771E-1,1.1219112E-3,7.5268334E-1,-2.0728706E-1,-6.561027E-2,-2.1245657E-3,1.0642967E-2,4.9823422E-2,-3.7396487E-2,5.6842947E-3,-4.3691583E-2],"categories":[],"categories_nodes":[],"categories_segments":[],"categories_sizes":[],"default_left":[0,0,0,0,0,0,0,0,0,0,0,0,0],"id":55,"left_children":[1,3,5,7,9,11,-1,-1,-1,-1,-1,-1,-1],"loss_changes":[7.261638E0,9.544697E0,6.6253343E0,9.967562E0,7.025522E0,5.138673E0,0E0,0E0,0E0,0E0,0E0,0E0,0E0],"parents":[2147483647,0,0,1,1,2,2,3,3,4,4,5,5],"right_children":[2,4,6,8,10,12,-1,-1,-1,-1,-1,-1,-1],"split_conditions":[1.8751001E0,2.7451613E0,7.695998E-1,6.425193E-1,3.0619845E-1,2.2507014E0,-6.561027E-2,-2.1245657E-3,1.0642967E-2,4.9823422E-2,-3.7396487E-2,5.6842947E-3,-4.3691583E-2],"split_indices":[0,11,16,2,7,0,0,0,0,0,0,0,0],"split_type":[0,0,0,0,0,0,0,0,0,0,0,0,0],"sum_hessian":[1.1224905E3,1.0935646E3,2.892592E1,1.0773973E3,1.616722E1,2.2554571E1,6.37135E0,8.940435E2,1.8335384E2,1.4196807E1,1.9704118E0,1.5783503E1,6.771068E0],"tree_param":{"num_deleted":"0","num_feature":"18","num_nodes":"13","size_leaf_vector":"1"}},{"base_weights":[-4.3406468E-4,4.562963E-2,-1.4251205E-1,9.693079E-3,5.161113E-1,-4.8555654E-1,2.3088504E-2,-1.863562E-2,2.7634695E-3,-2.4536898E-2,3.9544057E-2,4.222052E-2,-2.841909E-2,5.7739313E-3,-3.818687E-2],"categories":[],"categories_nodes":[],"categories_segments":[],"categories_sizes":[],"default_left":[0,0,0,0,0,0,0,0,0,0,0,0,0,0,0],"id":56,"left_children":[1,3,5,7,9,11,13,-1,-1,-1,-1,-1,-1,-1,-1],"loss_changes":[7.357274E0,1.4348434E1,1.5646871E1,1.3784269E1,1.7049053E1,1.0355791E1,1.3651687E1,0E0,0E0,0E0,0E0,0E0,0E0,0E0,0E0],"parents":[2147483647,0,0,1,1,2,2,3,3,4,4,5,5,6,6],"right_children":[2,4,6,8,10,12,14,-1,-1,-1,-1,-1,-1,-1,-1],"split_conditions":[4.7737852E-1,4.7832182E-1,-2.1023928E-1,-9.694265E-1,-1.4465377E0,-1.6748357E0,1.7680756E0,-1.863562E-2,2.7634695E-3,-2.4536898E-2,3.9544057E-2,4.222052E-2,-2.841909E-2,5.7739313E-3,-3.818687E-2],"split_indices":[4,12,6,6,11,15,7,0,0,0,0,0,0,0,0],"split_type":[0,0,0,0,0,0,0,0,0,0,0,0,0,0,0],"sum_hessian":[1.1221748E3,8.4793964E2,2.742352E2,7.887162E2,5.9223484E1,8.865425E1,1.8558095E2,8.3227E1,7.0548914E2,1.2528573E1,4.6694912E1,4.658308E0,8.399594E1,1.6684323E2,1.8737715E1],"tree_param":{"num_deleted":"0","num_feature":"18","num_nodes":"15","size_leaf_vector":"1"}},{"base_weights":[-4.3935116E-4,-7.9864174E-2,8.1614584E-2,2.7980653E-4,-3.0315053E-1,1.4217886E-1,-3.627242E-1,-4.03521E-3,1.5031667E-2,-2.8335288E-2,1.8124267E-3,1.3306853E-2,-1.858461E-3,-4.8923902E-2,-5.428011E-3],"categories":[],"categories_nodes":[],"categories_segments":[],"categories_sizes":[],"default_left":[0,0,0,0,0,0,0,0,0,0,0,0,0,0,0],"id":57,"left_children":[1,3,5,7,9,11,13,-1,-1,-1,-1,-1,-1,-1,-1],"loss_changes":[7.320034E0,1.0213533E1,1.491884E1,1.0264411E1,1.3505085E1,1.0834694E1,1.030907E1,0E0,0E0,0E0,0E0,0E0,0E0,0E0,0E0],"parents":[2147483647,0,0,1,1,2,2,3,3,4,4,5,5,6,6],"right_children":[2,4,6,8,10,12,14,-1,-1,-1,-1,-1,-1,-1,-1],"split_conditions":[-1.7719391E-1,4.3500978E-1,1.3227448E0,1.4045198E-1,2.0328452E-1,2.1847654E-2,-1.3002649E-1,-4.03521E-3,1.5031667E-2,-2.8335288E-2,1.8124267E-3,1.3306853E-2,-1.858461E-3,-4.8923902E-2,-5.428011E-3],"split_indices":[8,4,14,12,11,11,2,0,0,0,0,0,0,0,0],"split_type":[0,0,0,0,0,0,0,0,0,0,0,0,0,0,0],"sum_hessian":[1.1212007E3,5.697413E2,5.514594E2,4.199925E2,1.4974881E2,4.8590903E2,6.555036E1,3.313754E2,8.861709E1,8.391564E1,6.583316E1,2.8703677E2,1.9887225E2,1.8319237E1,4.723113E1],"tree_param":{"num_deleted":"0","num_feature":"18","num_nodes":"15","size_leaf_vector":"1"}},{"base_weights":[-4.70514E-4,3.5425133E-1,-1.750572E-2,4.849115E-1,-1.1655266E0,3.8660053E-2,-1.7118289E-1,3.501949E-2,-2.8778994E-2,-1.768362E-3,-7.842489E-2,4.0756047E-2,7.315613E-4,-3.4067627E-2,-1.6420343E-3],"categories":[],"categories_nodes":[],"categories_segments":[],"categories_sizes":[],"default_left":[0,0,0,0,0,0,0,0,0,0,0,0,0,0,0],"id":58,"left_children":[1,3,5,7,9,11,13,-1,-1,-1,-1,-1,-1,-1,-1],"loss_changes":[6.783605E0,1.0780151E1,9.251988E0,1.1388946E1,1.9330239E0,1.4638889E1,2.0225006E1,0E0,0E0,0E0,0E0,0E0,0E0,0E0,0E0],"parents":[2147483647,0,0,1,1,2,2,3,3,4,4,5,5,6,6],"right_children":[2,4,6,8,10,12,14,-1,-1,-1,-1,-1,-1,-1,-1],"split_conditions":[-1.5305005E0,4.7263764E-2,3.0619845E-1,-1.1751302E0,-2.2118115E0,-1.4450696E0,2.8758755E-1,3.501949E-2,-2.8778994E-2,-1.768362E-3,-7.842489E-2,4.0756047E-2,7.315613E-4,-3.4067627E-2,-1.6420343E-3],"split_indices":[4,12,7,3,3,1,6,0,0,0,0,0,0,0,0],"split_type":[0,0,0,0,0,0,0,0,0,0,0,0,0,0,0],"sum_hessian":[1.1205742E3,5.0441532E1,1.0701326E3,4.7075256E1,3.3662775E0,7.8425305E2,2.8587958E2,3.940768E1,7.667577E0,1.1707103E0,2.1955671E0,2.255318E1,7.616999E2,6.0147247E1,2.2573232E2],"tree_param":{"num_deleted":"0","num_feature":"18","num_nodes":"15","size_leaf_vector":"1"}},{"base_weights":[-4.990006E-4,-2.0126088E-2,3.0890197E-1,2.7355715E-3,-4.2928204E-1,-5.2208495E-1,4.8237747E-1,-1.1470142E-3,2.2079062E-2,2.2364391E-2,-3.5842847E-2,1.231772E-2,-6.194663E-2,5.696248E-2,1.1298641E-2],"categories":[],"categories_nodes":[],"categories_segments":[],"categories_sizes":[],"default_left":[0,0,0,0,0,0,0,0,0,0,0,0,0,0,0],"id":59,"left_children":[1,3,5,7,9,11,13,-1,-1,-1,-1,-1,-1,-1,-1],"loss_changes":[6.8142614E0,9.871165E0,9.901169E0,1.1281478E1,1.4397739E1,6.9377937E0,9.156889E0,0E0,0E0,0E0,0E0,0E0,0E0,0E0,0E0],"parents":[2147483647,0,0,1,1,2,2,3,3,4,4,5,5,6,6],"right_children":[2,4,6,8,10,12,14,-1,-1,-1,-1,-1,-1,-1,-1],"split_conditions":[1.3330351E0,1.6235487E0,-1.0561076E0,1.4961663E0,-8.380646E-1,-1.4301913E0,-1.9080928E-1,-1.1470142E-3,2.2079062E-2,2.2364391E-2,-3.5842847E-2,1.231772E-2,-6.194663E-2,5.696248E-2,1.1298641E-2],"split_indices":[16,7,0,17,10,0,10,0,0,0,0,0,0,0,0],"split_type":[0,0,0,0,0,0,0,0,0,0,0,0,0,0,0],"sum_hessian":[1.1201012E3,1.0541644E3,6.5936775E1,9.993205E2,5.4843895E1,1.1040537E1,5.4896236E1,9.449797E2,5.4340874E1,1.3410714E1,4.143318E1,5.6452904E0,5.3952465E0,1.4445571E1,4.045067E1],"tree_param":{"num_deleted":"0","num_feature":"18","num_nodes":"15","size_leaf_vector":"1"}},{"base_weights":[-4.468163E-4,-2.680471E-2,2.3375435E-1,4.2907383E-2,-1.7940837E-1,3.1542253E-1,-7.8098035E-1,3.3103258E-3,-4.5143317E-2,-1.6653694E-2,6.9680936E-3,9.8843435E-3,6.1546188E-2,-5.8424838E-2,1.9365638E-2],"categories":[],"categories_nodes":[],"categories_segments":[],"categories_sizes":[],"default_left":[0,0,0,0,0,0,0,0,0,0,0,0,0,0,0],"id":60,"left_children":[1,3,5,7,9,11,13,-1,-1,-1,-1,-1,-1,-1,-1],"loss_changes":[6.924119E0,1.0733114E1,9.649534E0,1.53273115E1,1.5541654E1,1.1152735E1,4.4092584E0,0E0,0E0,0E0,0E0,0E0,0E0,0E0,0E0],"parents":[2147483647,0,0,1,1,2,2,3,3,4,4,5,5,6,6],"right_children":[2,4,6,8,10,12,14,-1,-1,-1,-1,-1,-1,-1,-1],"split_conditions":[7.598432E-1,1.9897237E-1,1.9296014E0,7.3755157E-1,6.191739E-1,7.851501E-1,3.3829372E0,3.3103258E-3,-4.5143317E-2,-1.6653694E-2,6.9680936E-3,9.8843435E-3,6.1546188E-2,-5.8424838E-2,1.9365638E-2],"split_indices":[11,3,6,4,2,6,17,0,0,0,0,0,0,0,0],"split_type":[0,0,0,0,0,0,0,0,0,0,0,0,0,0,0],"sum_hessian":[1.1196542E3,1.007187E3,1.12467125E2,6.918544E2,3.1533267E2,1.0472757E2,7.739559E0,6.76128E2,1.5726414E1,2.1273659E2,1.0259608E2,9.3871414E1,1.0856157E1,5.8116817E0,1.9278771E0],"tree_param":{"num_deleted":"0","num_feature":"18","num_nodes":"15","size_leaf_vector":"1"}},{"base_weights":[-4.4726723E-4,-7.086174E-1,7.9812985E-3,-3.4744817E-1,-1.1368393E0,-6.2134452E-2,9.418966E-2,4.1082103E-2,-3.5074122E-2,-6.2357325E-2,-1.7883651E-2,-2.9737443E-2,-4.774544E-4,1.4962752E-2,-2.1481835E-3],"categories":[],"categories_nodes":[],"categories_segments":[],"categories_sizes":[],"default_left":[0,0,0,0,0,0,0,0,0,0,0,0,0,0,0],"id":61,"left_children":[1,3,5,7,9,11,13,-1,-1,-1,-1,-1,-1,-1,-1],"loss_changes":[6.6907725E0,1.6441236E0,6.7021093E0,4.132718E0,3.4559727E-2,1.7121918E1,1.3999155E1,0E0,0E0,0E0,0E0,0E0,0E0,0E0,0E0],"parents":[2147483647,0,0,1,1,2,2,3,3,4,4,5,5,6,6],"right_children":[2,4,6,8,10,12,14,-1,-1,-1,-1,-1,-1,-1,-1],"split_conditions":[-1.1614968E0,1.12034895E-1,-6.855786E-2,-1.1800985E0,6.7327E-1,-8.523951E-1,3.0619845E-1,4.1082103E-2,-3.5074122E-2,-6.2357325E-2,-1.7883651E-2,-2.9737443E-2,-4.774544E-4,1.4962752E-2,-2.1481835E-3],"split_indices":[9,7,17,16,7,3,7,0,0,0,0,0,0,0,0],"split_type":[0,0,0,0,0,0,0,0,0,0,0,0,0,0,0],"sum_hessian":[1.1189993E3,1.2184462E1,1.1068148E3,7.5923367E0,4.592125E0,6.105313E2,4.9628348E2,1.4577532E0,6.1345835E0,3.4965048E0,1.0956203E0,5.3935165E1,5.565961E2,1.9842523E2,2.9785825E2],"tree_param":{"num_deleted":"0","num_feature":"18","num_nodes":"15","size_leaf_vector":"1"}},{"base_weights":[-5.072399E-4,-2.2041012E-2,2.660067E-1,1.3203421E-3,-4.5334393E-1,7.2954965E-1,-9.94995E-3,-2.0538387E-3,1.3329475E-2,-5.436989E-3,-5.7150334E-2,5.625559E-2,1.086197E-2,-6.381276E-2,1.0646443E-2],"categories":[],"categories_nodes":[],"categories_segments":[],"categories_sizes":[],"default_left":[0,0,0,0,0,0,0,0,0,0,0,0,0,0,0],"id":62,"left_children":[1,3,5,7,9,11,13,-1,-1,-1,-1,-1,-1,-1,-1],"loss_changes":[6.4323626E0,1.0449179E1,1.0725355E1,1.1085637E1,1.2539539E1,6.094637E0,1.5373529E1,0E0,0E0,0E0,0E0,0E0,0E0,0E0,0E0],"parents":[2147483647,0,0,1,1,2,2,3,3,4,4,5,5,6,6],"right_children":[2,4,6,8,10,12,14,-1,-1,-1,-1,-1,-1,-1,-1],"split_conditions":[1.2487563E0,1.6235487E0,-1.6229583E-1,5.982232E-1,2.7094468E-1,1.7263768E0,-2.6543322E-1,-2.0538387E-3,1.3329475E-2,-5.436989E-3,-5.7150334E-2,5.625559E-2,1.086197E-2,-6.381276E-2,1.0646443E-2],"split_indices":[16,7,10,12,12,16,3,0,0,0,0,0,0,0,0],"split_type":[0,0,0,0,0,0,0,0,0,0,0,0,0,0,0],"sum_hessian":[1.1187844E3,1.0359955E3,8.278898E1,9.837101E2,5.2285336E1,3.0280716E1,5.2508266E1,8.488813E2,1.3482881E2,3.5636497E1,1.6648836E1,1.641235E1,1.3868366E1,7.151301E0,4.5356964E1],"tree_param":{"num_deleted":"0","num_feature":"18","num_nodes":"15","size_leaf_vector":"1"}},{"base_weights":[-5.14505E-4,-1.0206637E-1,5.550823E-2,-1.9671012E-1,1.5257293E-1,1.01972364E-1,-3.05418E-1,-5.4645045E-3,-3.3945974E-2,-5.8692216E-4,2.9172396E-2,1.056321E-2,-2.5259643E-3,-4.2290825E-2,-4.4477973E-3],"categories":[],"categories_nodes":[],"categories_segments":[],"categories_sizes":[],"default_left":[0,0,0,0,0,0,0,0,0,0,0,0,0,0,0],"id":63,"left_children":[1,3,5,7,9,11,13,-1,-1,-1,-1,-1,-1,-1,-1],"loss_changes":[6.374307E0,9.630081E0,1.2140537E1,1.2186189E1,7.688426E0,1.0684893E1,9.587651E0,0E0,0E0,0E0,0E0,0E0,0E0,0E0,0E0],"parents":[2147483647,0,0,1,1,2,2,3,3,4,4,5,5,6,6],"right_children":[2,4,6,8,10,12,14,-1,-1,-1,-1,-1,-1,-1,-1],"split_conditions":[-4.669891E-1,1.9634531E-1,1.3227448E0,6.110877E-1,8.146334E-1,2.1847654E-2,-1.3002649E-1,-5.4645045E-3,-3.3945974E-2,-5.8692216E-4,2.9172396E-2,1.056321E-2,-2.5259643E-3,-4.2290825E-2,-4.4477973E-3],"split_indices":[8,11,14,4,15,11,2,0,0,0,0,0,0,0,0],"split_type":[0,0,0,0,0,0,0,0,0,0,0,0,0,0,0],"sum_hessian":[1.118424E3,3.9734277E2,7.2108124E2,2.8984232E2,1.0750044E2,6.3947534E2,8.160591E1,2.4639912E2,4.3443207E1,7.852732E1,2.8973124E1,3.7227664E2,2.6719867E2,2.2507753E1,5.909816E1],"tree_param":{"num_deleted":"0","num_feature":"18","num_nodes":"15","size_leaf_vector":"1"}},{"base_weights":[-5.350247E-4,-4.2317012E-1,1.2815628E-2,5.6625885E-1,-8.917715E-1,2.5661278E-1,-3.8937226E-2,4.7664758E-2,-5.6927826E-2,-5.4270055E-2,5.1043767E-2,-1.186171E-3,3.0210769E-2,-2.5982065E-2,1.0289985E-3],"categories":[],"categories_nodes":[],"categories_segments":[],"categories_sizes":[],"default_left":[0,0,0,0,0,0,0,0,0,0,0,0,0,0,0],"id":64,"left_children":[1,3,5,7,9,11,13,-1,-1,-1,-1,-1,-1,-1,-1],"loss_changes":[6.3180118E0,1.6402527E1,1.3705689E1,8.760181E0,9.869104E0,1.8549126E1,2.5653175E1,0E0,0E0,0E0,0E0,0E0,0E0,0E0,0E0],"parents":[2147483647,0,0,1,1,2,2,3,3,4,4,5,5,6,6],"right_children":[2,4,6,8,10,12,14,-1,-1,-1,-1,-1,-1,-1,-1],"split_conditions":[-1.2407644E0,-1.3950615E-1,-7.810489E-1,1.1052576E0,-9.121435E-1,-8.4764373E-1,-6.1114055E-1,4.7664758E-2,-5.6927826E-2,-5.4270055E-2,5.1043767E-2,-1.186171E-3,3.0210769E-2,-2.5982065E-2,1.0289985E-3],"split_indices":[17,12,7,16,7,6,6,0,0,0,0,0,0,0,0],"split_type":[0,0,0,0,0,0,0,0,0,0,0,0,0,0,0],"sum_hessian":[1.1177665E3,3.3288E1,1.0844785E3,1.0631564E1,2.2656433E1,1.8920656E2,8.952719E2,9.023764E0,1.607801E0,2.0966383E1,1.6900489E0,1.05253204E2,8.395335E1,9.778207E1,7.9748987E2],"tree_param":{"num_deleted":"0","num_feature":"18","num_nodes":"15","size_leaf_vector":"1"}},{"base_weights":[-5.2554667E-4,-2.5726262E-2,2.2341867E-1,3.250483E-2,-1.919903E-1,2.9307878E-1,-8.165741E-1,2.9330065E-3,-3.8670283E-2,-1.769734E-2,1.3582285E-2,4.0259615E-2,6.2493524E-3,-6.557753E-2,1.9236468E-2],"categories":[],"categories_nodes":[],"categories_segments":[],"categories_sizes":[],"default_left":[0,0,0,0,0,0,0,0,0,0,0,0,0,0,0],"id":65,"left_children":[1,3,5,7,9,11,13,-1,-1,-1,-1,-1,-1,-1,-1],"loss_changes":[6.316075E0,9.745535E0,8.440393E0,1.5767462E1,1.9699879E1,9.095678E0,4.887261E0,0E0,0E0,0E0,0E0,0E0,0E0,0E0,0E0],"parents":[2147483647,0,0,1,1,2,2,3,3,4,4,5,5,6,6],"right_children":[2,4,6,8,10,12,14,-1,-1,-1,-1,-1,-1,-1,-1],"split_conditions":[7.598432E-1,3.161064E-1,2.5667353E0,7.3755157E-1,8.7914425E-1,1.097054E-1,3.3829372E0,2.9330065E-3,-3.8670283E-2,-1.769734E-2,1.3582285E-2,4.0259615E-2,6.2493524E-3,-6.557753E-2,1.9236468E-2],"split_indices":[11,3,6,4,2,4,17,0,0,0,0,0,0,0,0],"split_type":[0,0,0,0,0,0,0,0,0,0,0,0,0,0,0],"sum_hessian":[1.1171476E3,1.004945E3,1.1220257E2,7.448713E2,2.6007373E2,1.0583199E2,6.370576E0,7.223549E2,2.2516344E1,1.9291989E2,6.715385E1,2.521648E1,8.061551E1,4.446641E0,1.9239352E0],"tree_param":{"num_deleted":"0","num_feature":"18","num_nodes":"15","size_leaf_vector":"1"}},{"base_weights":[-5.3933245E-4,-2.1570036E-1,2.5374372E-2,-3.2592255E-1,3.0311337E-1,1.3280654E-1,-4.356499E-2,-1.2028305E-2,-5.7816543E-2,3.7091892E-2,-3.1047953E-2,2.7920688E-3,2.2372238E-2,-3.721545E-2,-9.702051E-4],"categories":[],"categories_nodes":[],"categories_segments":[],"categories_sizes":[],"default_left":[0,0,0,0,0,0,0,0,0,0,0,0,0,0,0],"id":66,"left_children":[1,3,5,7,9,11,13,-1,-1,-1,-1,-1,-1,-1,-1],"loss_changes":[6.2350063E0,6.972657E0,7.3978453E0,6.7832203E0,9.209806E0,9.428309E0,1.0291306E1,0E0,0E0,0E0,0E0,0E0,0E0,0E0,0E0],"parents":[2147483647,0,0,1,1,2,2,3,3,4,4,5,5,6,6],"right_children":[2,4,6,8,10,12,14,-1,-1,-1,-1,-1,-1,-1,-1],"split_conditions":[-1.3567312E0,2.8697237E-1,-4.061375E-1,6.3174E-1,3.4189098E-2,-2.9764548E-1,-1.2207136E0,-1.2028305E-2,-5.7816543E-2,3.7091892E-2,-3.1047953E-2,2.7920688E-3,2.2372238E-2,-3.721545E-2,-9.702051E-4],"split_indices":[14,11,13,3,7,4,17,0,0,0,0,0,0,0,0],"split_type":[0,0,0,0,0,0,0,0,0,0,0,0,0,0,0],"sum_hessian":[1.116281E3,1.19204475E2,9.970765E2,9.862364E1,2.0580837E1,3.8937094E2,6.0770557E2,9.060063E1,8.02301E0,1.408898E1,6.491857E0,3.137906E2,7.5580345E1,1.9261229E1,5.8844434E2],"tree_param":{"num_deleted":"0","num_feature":"18","num_nodes":"15","size_leaf_vector":"1"}},{"base_weights":[-5.863415E-4,-1.931628E-2,2.9540807E-1,6.047132E-4,-3.799512E-1,-5.0028116E-1,4.620672E-1,-5.07997E-3,5.240233E-3,2.1389231E-2,-3.2360826E-2,4.6439175E-2,-4.1558184E-2,5.3623408E-2,1.1391379E-2],"categories":[],"categories_nodes":[],"categories_segments":[],"categories_sizes":[],"default_left":[0,0,0,0,0,0,0,0,0,0,0,0,0,0,0],"id":67,"left_children":[1,3,5,7,9,11,13,-1,-1,-1,-1,-1,-1,-1,-1],"loss_changes":[6.196553E0,7.552024E0,9.051999E0,1.0629844E1,1.2156099E1,6.4460373E0,7.693635E0,0E0,0E0,0E0,0E0,0E0,0E0,0E0,0E0],"parents":[2147483647,0,0,1,1,2,2,3,3,4,4,5,5,6,6],"right_children":[2,4,6,8,10,12,14,-1,-1,-1,-1,-1,-1,-1,-1],"split_conditions":[1.3330351E0,1.6235487E0,-1.0561076E0,-2.6399887E-1,-8.380646E-1,-1.8850254E0,-1.9080928E-1,-5.07997E-3,5.240233E-3,2.1389231E-2,-3.2360826E-2,4.6439175E-2,-4.1558184E-2,5.3623408E-2,1.1391379E-2],"split_indices":[16,7,0,6,10,3,10,0,0,0,0,0,0,0,0],"split_type":[0,0,0,0,0,0,0,0,0,0,0,0,0,0,0],"sum_hessian":[1.1156838E3,1.0501661E3,6.5517685E1,9.9613904E2,5.4027073E1,1.0999655E1,5.4518032E1,5.0289822E2,4.932408E2,1.3282816E1,4.0744255E1,1.7282861E0,9.271369E0,1.4126784E1,4.039125E1],"tree_param":{"num_deleted":"0","num_feature":"18","num_nodes":"15","size_leaf_vector":"1"}},{"base_weights":[-5.007892E-4,5.844642E-3,-8.668126E-1,-2.2109663E-2,2.6408505E-1,-5.7793465E-2,1.2644998E-2,-5.405997E-5,-2.0155644E-2,3.4375146E-2,1.9756078E-3],"categories":[],"categories_nodes":[],"categories_segments":[],"categories_sizes":[],"default_left":[0,0,0,0,0,0,0,0,0,0,0],"id":68,"left_children":[1,3,5,7,9,-1,-1,-1,-1,-1,-1],"loss_changes":[6.139588E0,8.01041E0,2.920836E0,8.023071E0,1.0278793E1,0E0,0E0,0E0,0E0,0E0,0E0],"parents":[2147483647,0,0,1,1,2,2,3,3,4,4],"right_children":[2,4,6,8,10,-1,-1,-1,-1,-1,-1],"split_conditions":[2.2507014E0,7.598432E-1,3.875023E-1,4.9173006E-1,-5.2084416E-1,-5.7793465E-2,1.2644998E-2,-5.405997E-5,-2.0155644E-2,3.4375146E-2,1.9756078E-3],"split_indices":[0,11,9,11,16,0,0,0,0,0,0],"split_type":[0,0,0,0,0,0,0,0,0,0,0],"sum_hessian":[1.1149517E3,1.1078304E3,7.1212177E0,1.0004472E3,1.0738317E2,5.634393E0,1.4868242E0,9.490687E2,5.1378498E1,3.650117E1,7.0882E1],"tree_param":{"num_deleted":"0","num_feature":"18","num_nodes":"11","size_leaf_vector":"1"}},{"base_weights":[-5.044378E-4,-4.69009E-2,1.1662621E-1,9.980514E-3,-5.365834E-1,3.1096107E-1,-1.4669573E-1,3.9920654E-2,-5.382523E-4,4.0288426E-2,-3.1093111E-2,-1.892137E-2,2.1385105E-2,4.6030628E-3,-1.9429408E-2],"categories":[],"categories_nodes":[],"categories_segments":[],"categories_sizes":[],"default_left":[0,0,0,0,0,0,0,0,0,0,0,0,0,0,0],"id":69,"left_children":[1,3,5,7,9,11,13,-1,-1,-1,-1,-1,-1,-1,-1],"loss_changes":[6.068017E0,2.228216E1,1.6257217E1,1.1744752E1,1.0031239E1,1.4857405E1,7.8442345E0,0E0,0E0,0E0,0E0,0E0,0E0,0E0,0E0],"parents":[2147483647,0,0,1,1,2,2,3,3,4,4,5,5,6,6],"right_children":[2,4,6,8,10,12,14,-1,-1,-1,-1,-1,-1,-1,-1],"split_conditions":[3.6081752E-1,3.0619845E-1,8.1822556E-1,-1.4450696E0,-1.1754113E0,-8.344658E-1,1.03356525E-1,3.9920654E-2,-5.382523E-4,4.0288426E-2,-3.1093111E-2,-1.892137E-2,2.1385105E-2,4.6030628E-3,-1.9429408E-2],"split_indices":[17,7,9,1,2,9,15,0,0,0,0,0,0,0,0],"split_type":[0,0,0,0,0,0,0,0,0,0,0,0,0,0,0],"sum_hessian":[1.1145774E3,7.987752E2,3.158022E2,7.165236E2,8.225161E1,1.8159897E2,1.3420322E2,1.7409042E1,6.9911456E2,4.408586E0,7.7843025E1,2.5973944E1,1.5562503E2,6.785107E1,6.635215E1],"tree_param":{"num_deleted":"0","num_feature":"18","num_nodes":"15","size_leaf_vector":"1"}},{"base_weights":[-4.4195444E-4,1.1422304E-2,-4.434275E-1,-2.6250437E-2,2.0720178E-1,-1.6568194E-1,-6.3342914E-2,-2.0565249E-3,3.617513E-2,2.1465747E-2,-4.991528E-3,-3.4911342E-2,1.2736718E-2],"categories":[],"categories_nodes":[],"categories_segments":[],"categories_sizes":[],"default_left":[0,0,0,0,0,0,0,0,0,0,0,0,0],"id":70,"left_children":[1,3,5,7,9,11,-1,-1,-1,-1,-1,-1,-1],"loss_changes":[5.8663745E0,8.023513E0,6.448752E0,1.0210753E1,1.2014165E1,5.309802E0,0E0,0E0,0E0,0E0,0E0,0E0,0E0],"parents":[2147483647,0,0,1,1,2,2,3,3,4,4,5,5],"right_children":[2,4,6,8,10,12,-1,-1,-1,-1,-1,-1,-1],"split_conditions":[1.8751001E0,6.617919E-1,7.695998E-1,2.1428056E0,1.6284898E-2,1.3991257E0,-6.3342914E-2,-2.0565249E-3,3.617513E-2,2.1465747E-2,-4.991528E-3,-3.4911342E-2,1.2736718E-2],"split_indices":[0,2,16,10,11,3,0,0,0,0,0,0,0],"split_type":[0,0,0,0,0,0,0,0,0,0,0,0,0],"sum_hessian":[1.1142301E3,1.0861155E3,2.811467E1,9.1157263E2,1.7454286E2,2.1921644E1,6.1930246E0,8.947598E2,1.6812807E1,1.01045975E2,7.349688E1,9.379612E0,1.2542032E1],"tree_param":{"num_deleted":"0","num_feature":"18","num_nodes":"13","size_leaf_vector":"1"}},{"base_weights":[-4.5217405E-4,-6.710289E-1,7.4083414E-3,-3.2159328E-1,-1.0891236E0,1.11648895E-1,-4.5391098E-2,3.916771E-2,-3.3070724E-2,-6.019312E-2,-1.5537913E-2,4.1695055E-2,3.9785705E-3,4.6335474E-2,-3.084127E-3],"categories":[],"categories_nodes":[],"categories_segments":[],"categories_sizes":[],"default_left":[0,0,0,0,0,0,0,0,0,0,0,0,0,0,0],"id":71,"left_children":[1,3,5,7,9,11,13,-1,-1,-1,-1,-1,-1,-1,-1],"loss_changes":[5.8811774E0,1.5383778E0,6.075114E0,3.6950288E0,1.1408949E-1,8.531151E0,1.1662148E1,0E0,0E0,0E0,0E0,0E0,0E0,0E0,0E0],"parents":[2147483647,0,0,1,1,2,2,3,3,4,4,5,5,6,6],"right_children":[2,4,6,8,10,12,14,-1,-1,-1,-1,-1,-1,-1,-1],"split_conditions":[-1.1614968E0,1.12034895E-1,-2.9896992E-1,-1.1800985E0,6.7327E-1,-1.0574757E0,-1.7582996E0,3.916771E-2,-3.3070724E-2,-6.019312E-2,-1.5537913E-2,4.1695055E-2,3.9785705E-3,4.6335474E-2,-3.084127E-3],"split_indices":[9,7,2,16,7,8,3,0,0,0,0,0,0,0,0],"split_type":[0,0,0,0,0,0,0,0,0,0,0,0,0,0,0],"sum_hessian":[1.1138014E3,1.192724E1,1.1018741E3,7.460818E0,4.466423E0,3.7009354E2,7.317806E2,1.447852E0,6.0129657E0,3.416188E0,1.050235E0,1.4675076E1,3.5541846E2,1.1140663E1,7.2063995E2],"tree_param":{"num_deleted":"0","num_feature":"18","num_nodes":"15","size_leaf_vector":"1"}},{"base_weights":[-4.0978426E-4,-6.486797E-2,8.1214465E-2,1.9179103E-3,-2.7260625E-1,1.4053456E-1,-3.470512E-1,-1.9621712E-3,2.2204524E-2,6.970417E-2,-1.6418282E-2,8.633796E-3,-2.0063693E-2,-4.89413E-2,-3.966754E-3],"categories":[],"categories_nodes":[],"categories_segments":[],"categories_sizes":[],"default_left":[0,0,0,0,0,0,0,0,0,0,0,0,0,0,0],"id":72,"left_children":[1,3,5,7,9,11,13,-1,-1,-1,-1,-1,-1,-1,-1],"loss_changes":[5.867168E0,8.6452465E0,1.2549301E1,8.617078E0,1.4545679E1,7.608054E0,1.009623E1,0E0,0E0,0E0,0E0,0E0,0E0,0E0,0E0],"parents":[2147483647,0,0,1,1,2,2,3,3,4,4,5,5,6,6],"right_children":[2,4,6,8,10,12,14,-1,-1,-1,-1,-1,-1,-1,-1],"split_conditions":[-7.959713E-2,4.7737852E-1,1.3227448E0,6.617919E-1,-1.0679119E0,1.6497394E0,-1.3002649E-1,-1.9621712E-3,2.2204524E-2,6.970417E-2,-1.6418282E-2,8.633796E-3,-2.0063693E-2,-4.89413E-2,-3.966754E-3],"split_indices":[8,4,14,2,11,0,2,0,0,0,0,0,0,0,0],"split_type":[0,0,0,0,0,0,0,0,0,0,0,0,0,0,0],"sum_hessian":[1.1131433E3,6.2208875E2,4.9105457E2,4.7149756E2,1.5059122E2,4.3190256E2,5.9152004E1,4.3217786E2,3.931969E1,4.097972E0,1.4649324E2,4.0835904E2,2.354353E1,1.6814884E1,4.233712E1],"tree_param":{"num_deleted":"0","num_feature":"18","num_nodes":"15","size_leaf_vector":"1"}},{"base_weights":[-3.8163384E-4,-4.480004E-2,1.1676814E-1,1.8562463E-1,-1.3173364E-1,6.123335E-1,-9.929492E-3,4.1853487E-2,6.067027E-3,-9.703335E-3,1.2177265E-2,7.834189E-2,1.2901514E-2,-1.793202E-2,1.615171E-2],"categories":[],"categories_nodes":[],"categories_segments":[],"categories_sizes":[],"default_left":[0,0,0,0,0,0,0,0,0,0,0,0,0,0,0],"id":73,"left_children":[1,3,5,7,9,11,13,-1,-1,-1,-1,-1,-1,-1,-1],"loss_changes":[5.798927E0,1.621055E1,1.9242355E1,9.185063E0,1.3784836E1,2.0697058E1,2.8559746E1,0E0,0E0,0E0,0E0,0E0,0E0,0E0,0E0],"parents":[2147483647,0,0,1,1,2,2,3,3,4,4,5,5,6,6],"right_children":[2,4,6,8,10,12,14,-1,-1,-1,-1,-1,-1,-1,-1],"split_conditions":[7.257238E-1,-4.7101825E-1,9.924526E-1,-7.810489E-1,6.974652E-1,-4.69004E-2,-4.030991E-1,4.1853487E-2,6.067027E-3,-9.703335E-3,1.2177265E-2,7.834189E-2,1.2901514E-2,-1.793202E-2,1.615171E-2],"split_indices":[15,2,15,7,12,10,7,0,0,0,0,0,0,0,0],"split_type":[0,0,0,0,0,0,0,0,0,0,0,0,0,0,0],"sum_hessian":[1.1124001E3,8.070263E2,3.053738E2,2.2075685E2,5.862694E2,6.1396076E1,2.4397775E2,1.8747826E1,2.0200903E2,5.0317584E2,8.30936E1,1.5693899E1,4.5702175E1,1.1913316E2,1.2484459E2],"tree_param":{"num_deleted":"0","num_feature":"18","num_nodes":"15","size_leaf_vector":"1"}},{"base_weights":[-2.2984929E-4,-1.8467711E-2,2.8854284E-1,9.2041807E-4,-3.7118572E-1,-4.8035756E-1,4.4996065E-1,-1.157951E-3,2.0634044E-2,1.961777E-2,-3.1035764E-2,9.390204E-3,-5.972689E-2,5.1679965E-2,1.14400685E-2],"categories":[],"categories_nodes":[],"categories_segments":[],"categories_sizes":[],"default_left":[0,0,0,0,0,0,0,0,0,0,0,0,0,0,0],"id":74,"left_children":[1,3,5,7,9,11,13,-1,-1,-1,-1,-1,-1,-1,-1],"loss_changes":[5.863779E0,7.161924E0,8.425138E0,9.861761E0,1.0640076E1,5.931318E0,6.8861217E0,0E0,0E0,0E0,0E0,0E0,0E0,0E0,0E0],"parents":[2147483647,0,0,1,1,2,2,3,3,4,4,5,5,6,6],"right_children":[2,4,6,8,10,12,14,-1,-1,-1,-1,-1,-1,-1,-1],"split_conditions":[1.3330351E0,1.6235487E0,-1.0561076E0,1.4961663E0,-8.380646E-1,-1.181365E-1,-1.9080928E-1,-1.157951E-3,2.0634044E-2,1.961777E-2,-3.1035764E-2,9.390204E-3,-5.972689E-2,5.1679965E-2,1.14400685E-2],"split_indices":[16,7,0,17,10,11,10,0,0,0,0,0,0,0,0],"split_type":[0,0,0,0,0,0,0,0,0,0,0,0,0,0,0],"sum_hessian":[1.1113788E3,1.0462382E3,6.5140656E1,9.9267065E2,5.356752E1,1.0959606E1,5.4181046E1,9.387188E2,5.395181E1,1.3053239E1,4.0514282E1,6.043013E0,4.916593E0,1.3879511E1,4.0301537E1],"tree_param":{"num_deleted":"0","num_feature":"18","num_nodes":"15","size_leaf_vector":"1"}},{"base_weights":[-1.9628332E-4,-2.0666587E-1,2.4647795E-2,-6.281671E-1,-7.758396E-2,8.002536E-2,-8.8614E-2,-6.3531436E-2,-1.7167185E-2,3.349465E-2,-9.319018E-3,-1.5101723E-2,6.342318E-3,-1.5273337E-2,2.505017E-3],"categories":[],"categories_nodes":[],"categories_segments":[],"categories_sizes":[],"default_left":[0,0,0,0,0,0,0,0,0,0,0,0,0,0,0],"id":75,"left_children":[1,3,5,7,9,11,13,-1,-1,-1,-1,-1,-1,-1,-1],"loss_changes":[5.7083845E0,6.454354E0,6.237397E0,4.6656294E0,7.6588497E0,1.1981785E1,9.84148E0,0E0,0E0,0E0,0E0,0E0,0E0,0E0,0E0],"parents":[2147483647,0,0,1,1,2,2,3,3,4,4,5,5,6,6],"right_children":[2,4,6,8,10,12,14,-1,-1,-1,-1,-1,-1,-1,-1],"split_conditions":[-1.3567312E0,-2.7540272E-1,3.1930447E-1,-6.842939E-1,-8.226282E-1,-9.7548693E-1,-2.1023928E-1,-6.3531436E-2,-1.7167185E-2,3.349465E-2,-9.319018E-3,-1.5101723E-2,6.342318E-3,-1.5273337E-2,2.505017E-3],"split_indices":[14,10,4,1,7,6,6,0,0,0,0,0,0,0,0],"split_type":[0,0,0,0,0,0,0,0,0,0,0,0,0,0,0],"sum_hessian":[1.1108507E3,1.18524086E2,9.9232666E2,2.6881008E1,9.164308E1,6.666649E2,3.2566177E2,7.19362E0,1.968739E1,1.098871E1,8.0654366E1,7.2184875E1,5.9448004E2,1.26578674E2,1.9908311E2],"tree_param":{"num_deleted":"0","num_feature":"18","num_nodes":"15","size_leaf_vector":"1"}},{"base_weights":[-2.5758194E-4,1.4507829E-1,-3.6995158E-2,-1.2431352E-1,5.6502926E-1,-4.6851113E-1,1.6210191E-2,2.281851E-2,-1.2674277E-2,5.1148888E-2,-1.34725915E-2,6.7260833E-3,-4.044912E-2,-2.298607E-3,1.3017622E-2],"categories":[],"categories_nodes":[],"categories_segments":[],"categories_sizes":[],"default_left":[0,0,0,0,0,0,0,0,0,0,0,0,0,0,0],"id":76,"left_children":[1,3,5,7,9,11,13,-1,-1,-1,-1,-1,-1,-1,-1],"loss_changes":[5.9377217E0,2.5455647E1,2.0387972E1,1.04306755E1,3.3855255E1,2.0120968E1,1.2023699E1,0E0,0E0,0E0,0E0,0E0,0E0,0E0,0E0],"parents":[2147483647,0,0,1,1,2,2,3,3,4,4,5,5,6,6],"right_children":[2,4,6,8,10,12,14,-1,-1,-1,-1,-1,-1,-1,-1],"split_conditions":[-7.6970726E-1,-8.4764373E-1,-6.1114055E-1,-4.030239E-1,9.924526E-1,-9.2977E-1,8.146334E-1,2.281851E-2,-1.2674277E-2,5.1148888E-2,-1.34725915E-2,6.7260833E-3,-4.044912E-2,-2.298607E-3,1.3017622E-2],"split_indices":[7,6,6,12,15,17,15,0,0,0,0,0,0,0,0],"split_type":[0,0,0,0,0,0,0,0,0,0,0,0,0,0,0],"sum_hessian":[1.1100762E3,2.2338878E2,8.866874E2,1.365184E2,8.6870384E1,9.647028E1,7.902171E2,2.4381237E1,1.1213717E2,5.5943623E1,3.092676E1,3.503038E1,6.1439903E1,6.30454E2,1.5976312E2],"tree_param":{"num_deleted":"0","num_feature":"18","num_nodes":"15","size_leaf_vector":"1"}},{"base_weights":[-2.2335385E-4,-2.4179554E-2,2.137072E-1,-1.08782565E-2,-6.5500075E-1,2.7779463E-1,-7.559658E-1,-2.7146405E-3,1.0787195E-2,-5.633938E-2,1.9516349E-3,8.507428E-3,5.175032E-2,-6.2934816E-2,2.057664E-2],"categories":[],"categories_nodes":[],"categories_segments":[],"categories_sizes":[],"default_left":[0,0,0,0,0,0,0,0,0,0,0,0,0,0,0],"id":77,"left_children":[1,3,5,7,9,11,13,-1,-1,-1,-1,-1,-1,-1,-1],"loss_changes":[5.6949086E0,8.377722E0,7.1641254E0,9.650479E0,6.7953396E0,8.439388E0,4.747539E0,0E0,0E0,0E0,0E0,0E0,0E0,0E0,0E0],"parents":[2147483647,0,0,1,1,2,2,3,3,4,4,5,5,6,6],"right_children":[2,4,6,8,10,12,14,-1,-1,-1,-1,-1,-1,-1,-1],"split_conditions":[7.598432E-1,1.7461058E0,2.5667353E0,6.617919E-1,2.3618739E0,7.851501E-1,3.3829372E0,-2.7146405E-3,1.0787195E-2,-5.633938E-2,1.9516349E-3,8.507428E-3,5.175032E-2,-6.2934816E-2,2.057664E-2],"split_indices":[11,0,6,2,4,6,17,0,0,0,0,0,0,0,0],"split_type":[0,0,0,0,0,0,0,0,0,0,0,0,0,0,0],"sum_hessian":[1.1092014E3,9.9829785E2,1.1090362E2,9.7867896E2,1.9618872E1,1.0469749E2,6.2061276E0,8.2197217E2,1.5670679E2,1.1308259E1,8.310612E0,9.2738396E1,1.1959091E1,4.283513E0,1.9226147E0],"tree_param":{"num_deleted":"0","num_feature":"18","num_nodes":"15","size_leaf_vector":"1"}},{"base_weights":[-2.4365858E-4,-1.7945101E-2,2.8049093E-1,2.0205928E-2,-1.8551278E-1,-4.5620963E-1,4.3573204E-1,2.0276688E-2,-4.8862566E-4,1.1677281E-2,-1.9172808E-2,1.2340569E-2,-5.5341136E-2,4.9896285E-2,1.1262406E-2],"categories":[],"categories_nodes":[],"categories_segments":[],"categories_sizes":[],"default_left":[0,0,0,0,0,0,0,0,0,0,0,0,0,0,0],"id":78,"left_children":[1,3,5,7,9,11,13,-1,-1,-1,-1,-1,-1,-1,-1],"loss_changes":[5.5208383E0,6.6846676E0,7.7350435E0,9.847595E0,1.6174055E1,5.7425175E0,6.2762136E0,0E0,0E0,0E0,0E0,0E0,0E0,0E0,0E0],"parents":[2147483647,0,0,1,1,2,2,3,3,4,4,5,5,6,6],"right_children":[2,4,6,8,10,12,14,-1,-1,-1,-1,-1,-1,-1,-1],"split_conditions":[1.3330351E0,7.695998E-1,-1.0561076E0,-1.382367E0,-6.2966734E-1,-1.4301913E0,-1.9080928E-1,2.0276688E-2,-4.8862566E-4,1.1677281E-2,-1.9172808E-2,1.2340569E-2,-5.5341136E-2,4.9896285E-2,1.1262406E-2],"split_indices":[16,16,0,13,0,0,10,0,0,0,0,0,0,0,0],"split_type":[0,0,0,0,0,0,0,0,0,0,0,0,0,0,0],"sum_hessian":[1.1089521E3,1.0440563E3,6.489586E1,8.5114984E2,1.9290642E2,1.0957595E1,5.3938267E1,6.0535057E1,7.906148E2,6.182955E1,1.3107687E2,5.564987E0,5.392607E0,1.3674131E1,4.0264133E1],"tree_param":{"num_deleted":"0","num_feature":"18","num_nodes":"15","size_leaf_vector":"1"}},{"base_weights":[-1.9915373E-4,1.4176968E-1,-3.519008E-2,-1.14666075E-1,5.5326277E-1,-4.376774E-1,1.5006771E-2,2.1629399E-2,-1.18618505E-2,4.8525088E-2,-1.0049981E-2,5.9867795E-3,-3.7738584E-2,-2.08004E-3,1.185756E-2],"categories":[],"categories_nodes":[],"categories_segments":[],"categories_sizes":[],"default_left":[0,0,0,0,0,0,0,0,0,0,0,0,0,0,0],"id":79,"left_children":[1,3,5,7,9,11,13,-1,-1,-1,-1,-1,-1,-1,-1],"loss_changes":[5.5150013E0,2.3227774E1,1.8001167E1,9.229863E0,2.6772816E1,1.7552845E1,9.980212E0,0E0,0E0,0E0,0E0,0E0,0E0,0E0,0E0],"parents":[2147483647,0,0,1,1,2,2,3,3,4,4,5,5,6,6],"right_children":[2,4,6,8,10,12,14,-1,-1,-1,-1,-1,-1,-1,-1],"split_conditions":[-7.810489E-1,-8.4764373E-1,-6.1114055E-1,-4.030239E-1,9.924526E-1,-9.2977E-1,8.146334E-1,2.1629399E-2,-1.18618505E-2,4.8525088E-2,-1.0049981E-2,5.9867795E-3,-3.7738584E-2,-2.08004E-3,1.185756E-2],"split_indices":[7,6,6,12,15,17,15,0,0,0,0,0,0,0,0],"split_type":[0,0,0,0,0,0,0,0,0,0,0,0,0,0,0],"sum_hessian":[1.1081854E3,2.1852232E2,8.8966315E2,1.3507016E2,8.345216E1,9.779623E1,7.918669E2,2.4253586E1,1.10816574E2,5.3545467E1,2.9906694E1,3.568636E1,6.210987E1,6.317062E2,1.6016072E2],"tree_param":{"num_deleted":"0","num_feature":"18","num_nodes":"15","size_leaf_vector":"1"}},{"base_weights":[-1.6573809E-4,-9.389107E-2,5.1486768E-2,-1.845081E-1,1.5017901E-1,9.375089E-2,-2.76285E-1,-5.2614217E-3,-3.128351E-2,3.9661825E-2,2.7611037E-3,4.117345E-3,6.5322146E-2,-3.5817336E-2,-2.4900713E-3],"categories":[],"categories_nodes":[],"categories_segments":[],"categories_sizes":[],"default_left":[0,0,0,0,0,0,0,0,0,0,0,0,0,0,0],"id":80,"left_children":[1,3,5,7,9,11,13,-1,-1,-1,-1,-1,-1,-1,-1],"loss_changes":[5.3699965E0,8.744217E0,9.932601E0,1.0001882E1,6.505625E0,8.663078E0,8.130316E0,0E0,0E0,0E0,0E0,0E0,0E0,0E0,0E0],"parents":[2147483647,0,0,1,1,2,2,3,3,4,4,5,5,6,6],"right_children":[2,4,6,8,10,12,14,-1,-1,-1,-1,-1,-1,-1,-1],"split_conditions":[-4.669891E-1,1.9634531E-1,1.3227448E0,6.110877E-1,-1.0555841E0,3.2747393E0,-5.0329268E-2,-5.2614217E-3,-3.128351E-2,3.9661825E-2,2.7611037E-3,4.117345E-3,6.5322146E-2,-3.5817336E-2,-2.4900713E-3],"split_indices":[8,11,14,4,8,1,2,0,0,0,0,0,0,0,0],"split_type":[0,0,0,0,0,0,0,0,0,0,0,0,0,0,0],